{
"filefrom": "dl4j",
"ordering": "c",
"shape":	[20001, 1],
"data":
[6.254481524229050000E-2, 
 8.368491195142270000E-3, 
 -2.649127040058374400E-3, 
 -1.970483362674713000E-2, 
 1.410359051078558000E-2, 
 -8.043764391914010000E-4, 
 1.768794376403093300E-3, 
 1.331911305896937800E-3, 
 3.410801989957690200E-3, 
 -1.889529637992382000E-3, 
 9.739653207361698000E-3, 
 -5.151520948857069000E-3, 
 2.929352456703782000E-3, 
 1.267155865207314500E-3, 
 8.349185809493065000E-3, 
 -3.480660961940884600E-3, 
 -4.114605020731687500E-3, 
 9.138250723481178000E-3, 
 -1.568625099025666700E-3, 
 -2.313890727236867000E-3, 
 2.602626336738467000E-3, 
 1.509222667664289500E-3, 
 2.227422082796693000E-3, 
 -7.457300671376288000E-4, 
 1.131622586399316800E-2, 
 9.060267359018326000E-3, 
 -5.401733331382275000E-3, 
 1.141588855534792000E-2, 
 -2.882430562749505000E-3, 
 1.926701399497687800E-3, 
 -5.553428549319506000E-3, 
 -8.403128013014793000E-3, 
 4.367283545434475000E-3, 
 -4.304947215132415300E-4, 
 -3.613010048866272000E-3, 
 4.819877445697784000E-3, 
 8.887401781976223000E-3, 
 -1.188413240015506700E-2, 
 -1.052000466734171000E-2, 
 1.007046084851026500E-3, 
 -2.671583089977503000E-3, 
 -1.214492879807949000E-2, 
 -1.699325256049633000E-2, 
 4.509698599576950000E-3, 
 -9.405069053173065000E-3, 
 -6.224965676665306000E-3, 
 1.121103181503713100E-3, 
 8.216433227062225000E-3, 
 -2.816052176058292400E-3, 
 6.532721687108278000E-3, 
 -1.830521941883489500E-4, 
 6.630184128880501000E-3, 
 4.264108370989561000E-3, 
 -7.961551658809185000E-3, 
 9.398207999765873000E-3, 
 -6.158660165965557000E-3, 
 7.039122283458710000E-4, 
 8.548974874429405000E-4, 
 8.739603683352470000E-3, 
 -3.064227930735796700E-4, 
 7.035476621240377000E-3, 
 -2.355786506086588000E-3, 
 -4.487017169594765000E-3, 
 -1.562983379699289800E-3, 
 4.148844163864851000E-3, 
 -5.848875269293785000E-3, 
 1.599046750925481300E-3, 
 -7.016298826783895500E-3, 
 1.476433873176574700E-2, 
 4.823591560125351000E-3, 
 -5.167718045413494000E-3, 
 1.751600019633770000E-2, 
 1.459449529647827100E-3, 
 8.886024355888367000E-3, 
 6.768013816326857000E-3, 
 3.494364442303776700E-3, 
 -1.119090011343360000E-4, 
 2.849233802407980000E-3, 
 -1.890100911259651200E-2, 
 5.493937060236931000E-3, 
 1.694429479539394400E-2, 
 -8.099872618913650000E-3, 
 -3.886846126988530000E-3, 
 -9.033306501805782000E-3, 
 -9.191755205392838000E-3, 
 -7.582549471408129000E-3, 
 -8.144974708557129000E-4, 
 -9.230891242623330000E-3, 
 -2.413757378235459300E-3, 
 -9.866359643638134000E-3, 
 -4.476100672036409000E-3, 
 -1.720873755402863000E-3, 
 -1.432856312021613100E-3, 
 -2.415230730548501000E-3, 
 -1.187180518172681300E-3, 
 -3.243566490709781600E-3, 
 -5.559803918004036000E-3, 
 6.384002510458231000E-3, 
 -4.650074057281017000E-3, 
 8.807460777461529000E-3, 
 1.085082441568374600E-2, 
 1.365020032972097400E-2, 
 -1.308119390159845400E-3, 
 -1.556080533191561700E-3, 
 -5.839271005243063000E-3, 
 -5.324784666299820000E-3, 
 3.260687517467886000E-4, 
 -7.607478182762861000E-3, 
 -3.311461769044399300E-3, 
 -7.931253872811794000E-3, 
 -2.648155204951763000E-3, 
 -4.058118909597397000E-3, 
 -4.075781907886267000E-3, 
 8.080536499619484000E-3, 
 -1.521430560387671000E-3, 
 -4.091410432010889000E-3, 
 -5.967554170638323000E-3, 
 -4.463877994567156000E-3, 
 -1.372572593390941600E-2, 
 1.718327030539512600E-2, 
 1.031085569411516200E-2, 
 -1.504896115511655800E-2, 
 8.387543261051178000E-3, 
 8.249705657362938000E-3, 
 1.477027661167085200E-3, 
 -3.475686302408576000E-3, 
 1.344519783742725800E-3, 
 1.072625536471605300E-2, 
 -5.319686606526375000E-3, 
 -7.879449985921383000E-3, 
 6.694358307868242000E-3, 
 6.642000284045935000E-3, 
 2.567023271694779400E-3, 
 1.264325459487736200E-3, 
 7.646765443496406000E-4, 
 -8.837018976919353000E-4, 
 1.862356002675369400E-4, 
 5.304324440658092500E-3, 
 1.073685660958290100E-2, 
 1.140484679490327800E-2, 
 4.393029026687145000E-3, 
 1.082706358283758200E-2, 
 1.129720825701952000E-3, 
 -3.511293616611510500E-4, 
 -8.151561953127384000E-3, 
 1.924946787767112300E-3, 
 1.438305433839559600E-2, 
 -9.228638955391943000E-4, 
 -1.376853976398706400E-2, 
 -8.035455830395222000E-3, 
 -1.525045023299753700E-3, 
 4.819350782781839000E-3, 
 1.181272231042385100E-2, 
 5.390893202275038000E-4, 
 -9.620295604690909000E-4, 
 1.001069229096174200E-2, 
 1.452044001780450300E-3, 
 -7.520210463553667000E-3, 
 -9.675226174294949000E-3, 
 -1.835723058320582000E-3, 
 -1.517702080309391000E-2, 
 -5.030110478401184000E-4, 
 5.755074787884951000E-3, 
 1.067726034671068200E-2, 
 -2.423076191917062000E-3, 
 1.172848278656602000E-3, 
 -4.648520611226559000E-3, 
 -2.648054156452417400E-3, 
 8.287996985018253000E-3, 
 1.145121920853853200E-2, 
 7.615255308337510000E-4, 
 -7.206627633422613000E-3, 
 7.712039165198803000E-3, 
 2.066626213490963000E-3, 
 -4.147497471421957000E-3, 
 -4.512122366577387000E-3, 
 -3.390078665688634000E-3, 
 -4.023048095405102000E-3, 
 7.395954336971044500E-3, 
 1.514564454555511500E-2, 
 -2.673638053238392000E-3, 
 -1.204779371619224500E-2, 
 1.185628492385149000E-2, 
 -2.026207512244582200E-4, 
 4.009027034044266000E-3, 
 6.527163553982973000E-3, 
 7.149764569476247000E-4, 
 -1.313180662691593200E-2, 
 2.207753947004676000E-3, 
 4.241954069584608000E-3, 
 -1.443243399262428300E-2, 
 -1.184809952974319500E-2, 
 6.068746559321880000E-3, 
 -1.479670219123363500E-2, 
 -5.407560616731644000E-3, 
 4.396234173327684000E-3, 
 1.094306074082851400E-2, 
 -2.161108888685703300E-3, 
 2.273688092827797000E-3, 
 -5.890830885618925000E-3, 
 9.940352290868760000E-3, 
 8.978326804935932000E-3, 
 9.329440072178840000E-3, 
 -1.156132854521274600E-2, 
 3.859432647004723500E-3, 
 1.330095343291759500E-3, 
 8.257734589278698000E-3, 
 1.102062407881021500E-3, 
 3.418500768020749000E-3, 
 -1.348351314663887000E-2, 
 -9.124625474214554000E-3, 
 1.007877197116613400E-2, 
 -6.980960723012686000E-3, 
 9.955845773220062000E-3, 
 -1.385770644992590000E-2, 
 -6.963787018321455000E-5, 
 -2.090048743411898600E-3, 
 8.020931272767484000E-4, 
 -1.128358882851898700E-3, 
 -3.443692810833454000E-3, 
 -6.871910765767097500E-3, 
 2.900470979511738000E-3, 
 -6.902333348989487000E-3, 
 -3.056332468986511200E-3, 
 -4.915887024253607000E-3, 
 1.876728143543005000E-3, 
 -2.329521579667926000E-3, 
 7.036676164716482000E-3, 
 5.223256302997470000E-4, 
 2.594048855826258700E-3, 
 -7.770532742142677000E-3, 
 8.809807710349560000E-3, 
 -2.146284095942974000E-3, 
 5.998220876790583000E-4, 
 -2.204197924584150300E-3, 
 5.506219808012247000E-3, 
 -4.937761332257651000E-5, 
 -7.203070446848869000E-3, 
 -7.184050977230072000E-3, 
 -1.847647130489349400E-3, 
 4.294974263757467000E-3, 
 1.703117508441209800E-3, 
 -3.771938849240541500E-3, 
 3.745195688679814300E-3, 
 6.709252949804068000E-3, 
 2.930636052042246000E-3, 
 2.319028135389089600E-3, 
 2.368066087365150500E-2, 
 7.188999094069004000E-3, 
 -1.183350849896669400E-2, 
 1.716088620014488700E-3, 
 2.765736717265099300E-4, 
 1.624988391995430000E-2, 
 5.292596295475960000E-3, 
 8.970075286924839000E-3, 
 -2.001871913671493500E-2, 
 -7.808109745383263000E-3, 
 1.093188207596540500E-2, 
 6.712052971124649000E-3, 
 1.742429099977016400E-3, 
 -2.671926631592214000E-4, 
 -5.179945845156908000E-3, 
 6.101907230913639000E-3, 
 -4.418686963617802000E-3, 
 -1.713282108539715400E-4, 
 1.973410369828343400E-3, 
 6.032031029462814000E-3, 
 8.248489350080490000E-3, 
 -2.166102826595306400E-2, 
 5.108422134071588500E-3, 
 -9.749188902787864000E-4, 
 6.630170159041881600E-3, 
 -4.729810636490583000E-3, 
 -6.039679050445557000E-3, 
 5.160151049494743000E-3, 
 1.119123888202011600E-3, 
 -3.240660298615694000E-3, 
 -4.265703901182860000E-4, 
 2.478948794305324600E-3, 
 -2.570579294115305000E-3, 
 8.859071880578995000E-3, 
 6.335170939564705000E-3, 
 -2.278113504871726000E-3, 
 -3.564289072528481500E-3, 
 -9.446633048355580000E-3, 
 -8.120280690491200000E-3, 
 -6.246679695323110000E-4, 
 1.356131769716739700E-2, 
 -6.672913674265146000E-3, 
 -1.203045598231256000E-3, 
 6.930519826710224000E-3, 
 6.049734074622393000E-3, 
 -3.430761396884918000E-3, 
 5.762258544564247000E-3, 
 5.242772400379181000E-3, 
 -5.744620226323605000E-3, 
 6.606309674680233000E-3, 
 6.580548360943794000E-3, 
 6.932694930583239000E-3, 
 1.240868354216218000E-3, 
 4.287060350179672000E-3, 
 3.496916266158223000E-3, 
 -1.308762235566973700E-3, 
 1.448941603302955600E-2, 
 4.776367917656898500E-3, 
 -6.556919310241938000E-3, 
 8.541352115571499000E-3, 
 1.875536749139428100E-3, 
 -6.491366308182478000E-3, 
 2.063582418486476000E-3, 
 2.323935739696026000E-3, 
 9.156122803688050000E-3, 
 -2.011162973940372500E-2, 
 2.258413471281528500E-2, 
 2.433569869026541700E-3, 
 -8.171685039997100000E-3, 
 1.537640928290784400E-3, 
 9.229254792444408000E-4, 
 -4.376134835183620500E-3, 
 -1.305170939303934600E-3, 
 1.311843562871217700E-2, 
 8.073313161730766000E-3, 
 -4.001559223979711500E-3, 
 4.025333095341921000E-3, 
 -2.480500377714634000E-3, 
 8.088025788310915000E-5, 
 -1.338945887982845300E-2, 
 1.015442796051502200E-2, 
 -8.476639166474342000E-3, 
 3.338308772072196000E-3, 
 1.296669337898492800E-2, 
 1.731112133711576500E-3, 
 4.468073137104511000E-3, 
 1.450246945023536700E-2, 
 6.326786242425442000E-3, 
 -6.820919457823038000E-3, 
 4.079699516296387000E-3, 
 -4.558795131742954000E-3, 
 7.601105608046055000E-3, 
 -5.596556700766087000E-3, 
 -8.568464778363705000E-3, 
 -1.533913426101207700E-3, 
 7.430706318700686000E-5, 
 -8.302979171276093000E-3, 
 1.446710899472236600E-3, 
 4.145131446421146000E-3, 
 -9.534966200590134000E-3, 
 -3.008203115314245200E-3, 
 -8.493299596011639000E-3, 
 3.297103103250265000E-3, 
 1.068632118403911600E-2, 
 -4.188990686088800000E-3, 
 1.097208447754383100E-2, 
 8.067435584962368000E-3, 
 1.267415471374988600E-3, 
 3.286550519987941000E-3, 
 -1.312209945172071500E-2, 
 -1.237400062382221200E-2, 
 -3.822251688688993500E-3, 
 6.657203775830567000E-4, 
 -2.541388617828488300E-3, 
 3.261319594457745600E-3, 
 -2.066365443170070600E-3, 
 1.218323828652501000E-3, 
 -2.806770615279674500E-3, 
 -8.932337164878845000E-3, 
 8.840598165988922000E-3, 
 -7.331983651965856600E-3, 
 -1.575775910168886200E-3, 
 1.880398206412792200E-2, 
 -1.133123505860567100E-2, 
 -1.615156047046184500E-2, 
 1.850497676059603700E-3, 
 -1.003451086580753300E-2, 
 -1.539909467101097100E-2, 
 1.031490880995988800E-2, 
 3.314253117423504600E-4, 
 1.768090575933456400E-2, 
 3.107296302914619400E-3, 
 1.021143398247659200E-3, 
 5.309395492076874000E-3, 
 -1.262823212891817100E-2, 
 -9.537543519400060000E-4, 
 5.067321006208658000E-3, 
 6.851679645478725000E-3, 
 7.803685963153839000E-3, 
 -1.253119762986898400E-2, 
 2.595438994467258500E-2, 
 4.887753166258335000E-3, 
 2.283531054854393000E-2, 
 -1.178223683382384500E-4, 
 -2.946022897958755500E-3, 
 -8.630925789475441000E-3, 
 -8.119255304336548000E-3, 
 -1.033430825918912900E-2, 
 7.543980609625578000E-3, 
 -2.887177048251033000E-3, 
 -9.351227432489395000E-3, 
 -3.096849191933870300E-3, 
 -4.307801835238933600E-3, 
 1.059722807258367500E-2, 
 -6.220685783773661000E-3, 
 4.756671260111034000E-4, 
 -3.572377841919660600E-3, 
 1.310838386416435200E-3, 
 -8.384940214455128000E-3, 
 2.197640947997570000E-3, 
 -1.989927113754674800E-4, 
 9.093530476093292000E-3, 
 2.633306896314025000E-3, 
 -8.815732784569263000E-3, 
 7.888279855251312000E-3, 
 2.618324244394898400E-3, 
 -5.250618793070316000E-3, 
 -2.808461431413889000E-3, 
 -1.660992950201034500E-2, 
 -5.587047897279262500E-3, 
 1.043098978698253600E-2, 
 -2.696095500141382200E-3, 
 3.858612384647131000E-3, 
 3.422643058001995000E-3, 
 1.132981944829225500E-2, 
 8.963698521256447000E-3, 
 1.126502361148595800E-2, 
 9.123329800786450000E-5, 
 4.490193445235491000E-3, 
 -2.831882797181606300E-3, 
 4.735823720693588000E-3, 
 9.047592757269740000E-4, 
 -2.010199241340160400E-3, 
 1.169248111546039600E-2, 
 6.363290827721357000E-3, 
 -1.313540502451360200E-3, 
 7.491697091609240000E-3, 
 -1.512817107141018000E-2, 
 8.218191564083100000E-3, 
 3.463946748524904300E-3, 
 -6.840331479907036000E-3, 
 6.559591274708509400E-3, 
 5.526445340365171000E-3, 
 1.311972504481673200E-3, 
 5.293201655149460000E-3, 
 4.608727525919676000E-3, 
 -2.623153151944279700E-3, 
 -6.904811132699251000E-3, 
 -9.178692474961280000E-3, 
 -5.278684198856354000E-3, 
 8.491639979183674000E-3, 
 -8.218344300985336000E-3, 
 2.424787264317274000E-3, 
 -9.536636993288994000E-3, 
 -2.780812326818704600E-3, 
 6.073332391679287000E-3, 
 -6.244373973459005000E-3, 
 9.962067939341068000E-3, 
 -2.368456916883588000E-3, 
 2.990786219015717500E-3, 
 8.647533133625984000E-3, 
 -5.243435036391020000E-3, 
 1.143346424214542000E-3, 
 -8.632727898657322000E-3, 
 -2.248168922960758000E-3, 
 -7.636541966348886500E-3, 
 6.030691321939230000E-3, 
 1.066938228905201000E-2, 
 -7.477886043488979000E-3, 
 -2.820579800754785500E-3, 
 9.190895594656467000E-3, 
 2.586260903626680400E-3, 
 2.185504650697112000E-3, 
 -8.908332325518131000E-3, 
 -2.619950333610177000E-3, 
 -4.285602481104433500E-4, 
 3.494717413559556000E-3, 
 1.031021866947412500E-2, 
 -4.060995765030384000E-3, 
 4.709020140580833000E-4, 
 -5.865942221134901000E-3, 
 2.459056442603469000E-3, 
 -1.098495721817016600E-2, 
 1.001818454824388000E-3, 
 -6.223650649189949000E-3, 
 -4.752197583002271000E-6, 
 -5.267332307994366000E-3, 
 4.265606403350830000E-3, 
 1.260231249034404800E-2, 
 6.652906537055969000E-3, 
 1.175531372427940400E-2, 
 -1.006777631118893600E-3, 
 -1.111752819269895600E-2, 
 7.065606769174337000E-3, 
 -9.347374550998211000E-3, 
 1.178729534149170000E-2, 
 3.176444210112095000E-3, 
 6.075305864214897000E-3, 
 3.362619783729315000E-3, 
 1.284826779738068600E-3, 
 1.046854350715875600E-2, 
 -7.381894625723362000E-3, 
 7.151159225031734000E-4, 
 -8.346052345586940000E-5, 
 -2.153273904696107000E-3, 
 1.042210496962070500E-3, 
 5.045520607382059000E-3, 
 -1.738922088406980000E-3, 
 3.900773124769330000E-3, 
 -4.791724961251020000E-3, 
 8.192004635930061000E-3, 
 4.798114299774170000E-3, 
 -4.767405916936695600E-4, 
 -1.365447137504816000E-2, 
 -1.383009133860468900E-3, 
 -1.723801135085523100E-3, 
 4.302927758544683500E-3, 
 -6.859544198960066000E-3, 
 -1.428286265581846200E-2, 
 -3.840121440589428000E-3, 
 -5.511657334864139600E-3, 
 -2.227571792900562300E-3, 
 7.472732104361057000E-3, 
 1.258286647498607600E-3, 
 2.650462556630373000E-3, 
 5.170079413801432000E-3, 
 5.563763435930014000E-3, 
 1.915322989225387600E-2, 
 2.654708456248045000E-3, 
 -1.474306732416153000E-2, 
 2.611761912703514000E-3, 
 5.938134621828794500E-3, 
 6.021877750754356000E-3, 
 6.825272459536791000E-3, 
 1.552502345293760300E-2, 
 -4.409109169500880000E-5, 
 -6.091283168643713000E-3, 
 -8.954224176704884000E-3, 
 -1.127160806208849000E-2, 
 2.549591939896345000E-3, 
 -8.520062081515789000E-3, 
 5.104970186948776000E-3, 
 -3.337098285555839500E-3, 
 -5.608226638287306000E-3, 
 1.322264317423105200E-2, 
 -1.047399919480085400E-2, 
 -4.268967546522617000E-3, 
 6.777654634788632000E-4, 
 3.381438727956265000E-5, 
 -4.900706000626087000E-3, 
 6.194241344928741500E-3, 
 3.693783583003096000E-5, 
 -9.936639107763767000E-4, 
 4.308698233217001000E-3, 
 1.844575745053589300E-3, 
 1.548214070498943300E-2, 
 1.125183328986167900E-2, 
 -5.114610539749265000E-4, 
 -3.188203787431121000E-3, 
 3.916412126272917000E-3, 
 8.355963975191116000E-3, 
 -7.500736042857170000E-3, 
 -5.798903293907642000E-3, 
 5.566990585066378000E-4, 
 -4.339104518294334000E-3, 
 2.845422131940722500E-3, 
 3.221480641514063000E-3, 
 4.836464300751686000E-3, 
 -1.192291174083948100E-2, 
 1.914717839099466800E-3, 
 1.227505225688219000E-2, 
 -2.665141597390175000E-3, 
 -9.305090643465519000E-3, 
 -9.289999492466450000E-3, 
 1.711095310747623400E-2, 
 -1.038045994937419900E-2, 
 4.998611751943827000E-3, 
 1.785317581379786000E-4, 
 -6.157103460282087000E-3, 
 4.797852598130703000E-4, 
 8.425380103290081000E-3, 
 7.208135444670916000E-3, 
 1.541842613369226500E-2, 
 -1.946449512615800000E-3, 
 6.860853638499975000E-3, 
 -4.671474453061819000E-3, 
 1.572995074093342000E-2, 
 -2.647626446560025000E-3, 
 -1.119423657655716000E-2, 
 4.029570613056421000E-3, 
 4.041773267090321000E-3, 
 4.916604142636061000E-3, 
 1.735248044133186300E-2, 
 1.139305531978607200E-2, 
 -3.143154084682464600E-3, 
 -1.742458785884082300E-3, 
 4.743472672998905000E-4, 
 6.702947430312633500E-3, 
 -4.157986491918564000E-3, 
 -3.254769742488861000E-2, 
 1.045658998191356700E-2, 
 -1.502022350905463000E-4, 
 -1.027260627597570400E-2, 
 8.016531355679035000E-3, 
 1.387954317033290900E-2, 
 2.312028780579567000E-3, 
 1.374514424242079300E-3, 
 -1.659995317459106400E-2, 
 5.411604070104659000E-4, 
 -2.401555830147117400E-4, 
 -4.530842881649733000E-3, 
 -4.535912070423365000E-3, 
 -1.290549756959080700E-3, 
 4.646326415240765000E-3, 
 6.525352131575346000E-3, 
 -2.618451835587620700E-3, 
 5.703184287995100000E-3, 
 1.331875100731849700E-2, 
 9.586685337126255000E-3, 
 8.232803083956242000E-3, 
 1.495910901576280600E-2, 
 -5.309345666319132000E-3, 
 2.254066523164510700E-3, 
 -4.147569183260202000E-3, 
 1.585517078638076800E-2, 
 -6.482815369963646000E-3, 
 2.769068523775786000E-4, 
 5.294551607221365000E-3, 
 2.264456124976277400E-3, 
 -7.312052696943283000E-2, 
 -4.432508256286383000E-3, 
 -8.755425369599834000E-5, 
 -1.226119115017354500E-3, 
 3.233468160033226000E-3, 
 2.276516053825617000E-3, 
 -4.919952712953091000E-3, 
 -1.105299335904419400E-3, 
 1.085852459073066700E-2, 
 -5.469214636832476000E-3, 
 6.812771782279015000E-3, 
 1.233261078596115100E-2, 
 1.468521426431834700E-3, 
 7.104956079274416000E-3, 
 -3.154740203171968500E-3, 
 -9.527689777314663000E-3, 
 -5.280238692648709000E-4, 
 -4.431098233908415000E-3, 
 9.041583165526390000E-3, 
 -8.716830052435398000E-3, 
 -1.777874678373336800E-2, 
 -4.444671329110861000E-3, 
 6.020484957844019000E-3, 
 2.642275532707572000E-3, 
 -5.732004530727863000E-3, 
 -1.166079565882682800E-2, 
 6.540662609040737000E-3, 
 3.171307267621159600E-3, 
 1.591923879459500300E-3, 
 -4.955983720719814000E-3, 
 -6.753297057002783000E-3, 
 5.711121950298548000E-3, 
 -2.763493452221155000E-3, 
 -9.071175940334797000E-3, 
 -4.406632855534553500E-3, 
 4.263827111572027000E-3, 
 -5.894658155739307000E-3, 
 5.659544840455055000E-3, 
 -2.813843544572591800E-3, 
 4.609859548509121000E-3, 
 1.169721595942974000E-3, 
 9.877661243081093000E-3, 
 1.077611465007066700E-2, 
 1.487931236624717700E-3, 
 5.652332212775946000E-3, 
 -1.921044196933508000E-3, 
 -2.988357446156442000E-4, 
 6.326749455183744000E-3, 
 7.470220327377319000E-3, 
 -8.617747807875276000E-4, 
 -1.111924997530877600E-3, 
 3.672668477520346600E-3, 
 1.305606029927730600E-2, 
 -2.083352208137512200E-2, 
 2.392253605648875200E-3, 
 3.452388045843690600E-4, 
 3.864658297970891000E-3, 
 9.349876781925559000E-4, 
 2.318652113899588600E-3, 
 -1.700717257335782000E-3, 
 -1.242239587008953100E-2, 
 -2.850289689376950300E-3, 
 -5.557841155678034000E-3, 
 8.902607485651970000E-3, 
 1.098202448338270200E-2, 
 -9.969739243388176000E-3, 
 3.744577756151557000E-3, 
 -6.015696562826633500E-3, 
 2.366197062656283400E-3, 
 -1.717213541269302400E-2, 
 4.610850010067224500E-3, 
 -5.082046147435903500E-3, 
 7.117901463061571000E-3, 
 -5.862744525074959000E-3, 
 1.430196966975927400E-2, 
 7.509481161832809400E-3, 
 -4.463748540729284000E-3, 
 -1.192836556583643000E-2, 
 -9.678889997303486000E-3, 
 -8.024672977626324000E-3, 
 9.076856076717377000E-3, 
 -6.878316868096590000E-3, 
 -5.029656458646059000E-3, 
 -1.477784477174282000E-2, 
 1.308013685047626500E-2, 
 -2.314561977982521000E-3, 
 7.327612023800611500E-3, 
 1.173291634768247600E-2, 
 -1.237070281058549900E-2, 
 -7.767206523567438000E-3, 
 4.448770545423031000E-3, 
 4.660792648792267000E-3, 
 6.341040600091219000E-3, 
 3.173227654770016700E-3, 
 -9.937692811945453000E-5, 
 1.447000395273789800E-4, 
 2.511347178369760500E-3, 
 -1.430111238732934000E-3, 
 2.052984054898843200E-4, 
 -6.248351652175188000E-3, 
 1.367823453620076200E-3, 
 8.671222254633904000E-3, 
 6.534154061228037000E-3, 
 -1.645771437324583500E-3, 
 -2.660095458850264500E-3, 
 1.424477435648441300E-2, 
 -8.431146852672100000E-3, 
 1.900976407341659000E-3, 
 1.354710198938846600E-3, 
 -1.019555609673261600E-2, 
 1.738082501105964200E-3, 
 2.065756916999817000E-2, 
 -2.570025390014052400E-3, 
 -4.562037065625191000E-3, 
 2.352705691009760000E-3, 
 3.337976988404989200E-3, 
 -7.663242053240538000E-3, 
 -5.547034554183483000E-3, 
 5.122181028127670000E-3, 
 -3.014357993379235300E-3, 
 2.087412634864449500E-3, 
 7.503625005483627000E-3, 
 9.647612459957600000E-3, 
 4.134107381105423000E-3, 
 6.424020044505596000E-3, 
 1.325614657253027000E-2, 
 -9.142952039837837000E-3, 
 -6.871031597256660500E-3, 
 -4.228848963975906000E-3, 
 -2.169528277590871000E-3, 
 1.366890151984989600E-3, 
 -1.015139278024435000E-2, 
 8.559541776776314000E-3, 
 7.844494655728340000E-3, 
 -7.755598053336143000E-4, 
 -1.862903870642185200E-2, 
 1.057346351444721200E-3, 
 -5.311622284352779000E-3, 
 6.301758345216513000E-3, 
 1.339554600417614000E-2, 
 -1.023055240511894200E-2, 
 3.639564383774996000E-4, 
 -6.957395002245903000E-3, 
 -1.199712138622999200E-2, 
 -2.441313583403825800E-3, 
 3.905691439285874400E-3, 
 -5.380474962294102000E-3, 
 -1.648729853332042700E-2, 
 -5.188746377825737000E-3, 
 2.808724530041218000E-3, 
 -2.362269908189773600E-3, 
 -3.502657869830727600E-3, 
 5.965074524283409000E-3, 
 -1.085429824888706200E-2, 
 -1.561473868787288700E-2, 
 -2.711677690967917400E-3, 
 5.810821894556284000E-3, 
 3.269507084041834000E-3, 
 1.190239470452070200E-2, 
 1.211790135130286200E-3, 
 2.273084828630089800E-3, 
 -1.518782228231430000E-3, 
 -1.224735402502119500E-3, 
 6.621567532420158000E-3, 
 4.721058532595634500E-3, 
 1.118136849254369700E-2, 
 -2.846907358616590500E-3, 
 1.560234464704990400E-2, 
 -1.298689097166061400E-2, 
 -2.893250202760100400E-3, 
 -5.474180914461613000E-3, 
 -6.518273148685694000E-3, 
 -8.161853067576885000E-3, 
 -8.085345849394798000E-3, 
 -7.096810732036829000E-4, 
 -1.358434441499412000E-3, 
 7.835855707526207000E-3, 
 -4.981609527021646500E-3, 
 2.362710220040753500E-4, 
 -1.568693108856678000E-2, 
 5.108376499265432000E-3, 
 8.691300638020039000E-3, 
 1.403382234275341000E-2, 
 9.227305650711060000E-3, 
 7.787394803017378000E-3, 
 -4.140671808272600000E-3, 
 2.435038331896066700E-3, 
 2.915831515565514600E-3, 
 1.924545154906809300E-3, 
 -7.197139784693718000E-3, 
 4.870973061770201000E-3, 
 2.784513053484261000E-4, 
 -6.518849637359381000E-3, 
 -1.197005156427621800E-2, 
 1.172210788354277600E-3, 
 8.342778310179710000E-3, 
 -4.671653732657432600E-3, 
 8.869090117514133000E-3, 
 -7.217741571366787000E-3, 
 -1.836382085457444200E-3, 
 -8.802533149719238000E-3, 
 -5.678852088749409000E-3, 
 4.420595709234476000E-3, 
 2.936203964054584500E-3, 
 8.827133104205132000E-3, 
 1.451509725302457800E-2, 
 1.638702116906643000E-2, 
 6.685681873932481000E-4, 
 -9.367271326482296000E-3, 
 -2.452438231557607700E-3, 
 8.798474445939064000E-3, 
 2.643769374117255000E-3, 
 4.973367322236299500E-5, 
 -6.166382227092981000E-3, 
 3.133765421807766000E-3, 
 -3.835231531411409400E-3, 
 6.542560178786516000E-3, 
 6.841020658612251000E-3, 
 -5.111526697874069000E-4, 
 1.721725799143314400E-3, 
 1.053295005112886400E-2, 
 -4.919100087136030000E-3, 
 3.856556024402380000E-3, 
 -1.665501506067812400E-3, 
 -7.614041678607464000E-3, 
 3.816951066255569500E-3, 
 1.298058545216918000E-3, 
 -2.945919521152973000E-3, 
 5.853918381035328000E-3, 
 9.098753216676414000E-4, 
 -7.869086228311062000E-3, 
 2.653012750670314000E-3, 
 -8.440584875643253000E-3, 
 -8.687875379109755000E-5, 
 -4.205607343465090000E-3, 
 8.077101781964302000E-3, 
 3.175605088472366300E-3, 
 -3.385357558727264400E-4, 
 5.668802652508020000E-3, 
 -9.039727039635181000E-3, 
 -9.826400782912970000E-4, 
 1.886109355837106700E-3, 
 -1.213324908167123800E-2, 
 3.743958892300725000E-3, 
 5.198339000344276000E-3, 
 -8.245176635682583000E-3, 
 -1.466382527723908400E-3, 
 7.396243978291750000E-3, 
 -1.000953279435634600E-2, 
 6.029783282428980000E-3, 
 -5.155932623893022500E-3, 
 7.235218305140734000E-3, 
 -8.108939044177532000E-3, 
 -3.983094822615385000E-3, 
 4.517283756285906000E-3, 
 -4.756201058626175000E-3, 
 1.903149532154202500E-3, 
 -4.310236312448978000E-3, 
 -3.343510674312710800E-3, 
 -9.953073225915432000E-3, 
 1.955429557710886000E-3, 
 -4.521808878052979700E-4, 
 7.269412744790316000E-3, 
 2.181910909712314600E-3, 
 1.088937511667609200E-3, 
 -1.284139603376388500E-2, 
 -4.958983045071363400E-3, 
 -2.261876361444592500E-3, 
 7.761299144476652000E-3, 
 -5.901731550693512000E-3, 
 -3.113448387011885600E-3, 
 -1.823949068784713700E-2, 
 -7.232962641865015000E-3, 
 4.011504817754030000E-3, 
 -6.697965320199728000E-3, 
 -8.415785268880427000E-4, 
 2.774585736915469000E-3, 
 1.315331086516380300E-2, 
 1.957772765308618500E-3, 
 6.417382974177599000E-3, 
 4.542502574622631000E-3, 
 3.866028273478150400E-3, 
 6.002673879265785000E-3, 
 -3.263460472226143000E-3, 
 1.208369433879852300E-2, 
 1.972118159756064400E-3, 
 -4.301620181649923000E-3, 
 4.541542381048202500E-3, 
 -1.401101704686880100E-2, 
 1.591577660292387000E-3, 
 -4.889128264039755000E-3, 
 3.597236471250653300E-3, 
 9.287465363740921000E-4, 
 1.115466095507145000E-2, 
 8.120429702103138000E-3, 
 3.918420989066362000E-3, 
 2.784476149827242000E-3, 
 1.616960857063531900E-3, 
 -6.058924365788698000E-3, 
 -3.554924624040723000E-3, 
 9.591155685484410000E-3, 
 1.629798091016709800E-3, 
 -2.675225725397467600E-3, 
 7.092260057106614000E-4, 
 -1.145940832793712600E-2, 
 1.184881199151277500E-3, 
 -1.526784431189298600E-2, 
 -5.648089572787285000E-4, 
 3.158996580168605000E-3, 
 1.822001184336841000E-3, 
 1.220756303519010500E-2, 
 -3.167738905176520300E-3, 
 -1.821781322360038800E-2, 
 -3.680260851979255700E-3, 
 2.429377054795623000E-3, 
 3.865487873554229700E-3, 
 2.405018312856555000E-3, 
 -9.503546170890331000E-3, 
 1.117981970310211200E-2, 
 -1.057292451150715400E-3, 
 8.096260018646717000E-3, 
 -5.037577357143164000E-3, 
 6.061735330149531000E-4, 
 -1.715670153498649600E-2, 
 7.997433422133327000E-4, 
 1.397912949323654200E-2, 
 -6.888613104820251500E-3, 
 -1.408909913152456300E-2, 
 -7.754324004054069500E-3, 
 1.247785054147243500E-3, 
 1.111262477934360500E-2, 
 -5.435654893517494000E-3, 
 2.378271892666816700E-3, 
 1.177464518696069700E-2, 
 -1.500830519944429400E-3, 
 1.442255452275276200E-3, 
 9.503991343080997000E-3, 
 -1.807604799978435000E-3, 
 3.598542883992195000E-3, 
 3.803470171988010400E-3, 
 8.649568073451519000E-3, 
 -1.109596248716116000E-2, 
 4.615119658410549000E-3, 
 -1.756652956828475000E-3, 
 -1.142879016697406800E-2, 
 1.382211688905954400E-3, 
 -8.895625360310078000E-3, 
 -6.375298835337162000E-3, 
 -2.392708556726575000E-3, 
 -9.095638990402222000E-3, 
 4.295289516448975000E-3, 
 1.329175662249326700E-3, 
 5.197916645556688000E-3, 
 7.950121536850930000E-3, 
 1.004300080239772800E-2, 
 9.217650629580021000E-3, 
 6.692810915410519000E-3, 
 -1.641520066186785700E-3, 
 8.379799546673894000E-4, 
 -1.808610744774341600E-2, 
 -7.551729213446379000E-3, 
 -5.301462486386299000E-3, 
 1.093620155006647100E-2, 
 2.460551448166370400E-2, 
 6.679362617433071000E-3, 
 -1.158826891332864800E-2, 
 2.898983657360077000E-3, 
 -6.765591911971569000E-3, 
 -3.844050923362374300E-3, 
 -1.821435871534049500E-3, 
 -1.081384345889091500E-2, 
 -1.176843699067831000E-2, 
 5.010720342397690000E-3, 
 5.498819053173065000E-3, 
 -5.184654612094164000E-3, 
 6.530483253300190000E-3, 
 -2.711681881919503000E-3, 
 7.590674329549074000E-3, 
 3.163896268233657000E-3, 
 1.166463550180196800E-2, 
 6.937819998711348000E-3, 
 -2.002828055992722500E-3, 
 -2.335882745683193000E-3, 
 9.660169482231140000E-3, 
 -9.738583117723465000E-3, 
 2.135927602648735000E-2, 
 -1.489898841828107800E-2, 
 -3.045430639758706000E-3, 
 -1.048404816538095500E-2, 
 2.116549061611294700E-3, 
 -3.169835079461336000E-3, 
 -3.379989182576537000E-3, 
 -3.935617394745350000E-3, 
 -7.968329591676593000E-4, 
 1.169840252259746200E-4, 
 5.580462049692869000E-3, 
 9.029879234731197000E-3, 
 5.414331331849098000E-3, 
 9.331305511295795000E-3, 
 1.329688541591167400E-2, 
 1.004138588905334500E-2, 
 6.822719005867839000E-4, 
 -5.792152369394898000E-4, 
 -7.269348017871380000E-3, 
 -2.505373675376177000E-3, 
 4.562984686344862000E-3, 
 3.165714209899306300E-3, 
 -8.204461075365543000E-3, 
 2.915154444053769000E-3, 
 -2.539457753300667000E-3, 
 -2.216967986896634000E-3, 
 -1.387690776027739000E-3, 
 -6.780595285817981000E-4, 
 4.218515940010548000E-3, 
 -3.997821360826492000E-2, 
 -8.730952977202833000E-4, 
 -2.247426309622824200E-4, 
 -1.370682846754789400E-2, 
 -6.056527607142925000E-3, 
 -1.017350424081087100E-2, 
 2.282849047333002000E-3, 
 -6.433725822716951000E-3, 
 1.345710712485015400E-3, 
 6.453183596022427000E-4, 
 1.095709158107638400E-3, 
 -8.080909028649330000E-3, 
 3.610521182417869600E-2, 
 3.450433025136590000E-3, 
 5.339073948562145000E-3, 
 -5.397053901106119000E-4, 
 -4.153599496930838000E-3, 
 1.763621694408357100E-3, 
 1.805233070626855000E-3, 
 8.108635665848851000E-4, 
 -6.307803560048342000E-3, 
 -9.321222081780434000E-3, 
 1.128004211932420700E-2, 
 -1.280242018401622800E-2, 
 -5.496976897120476000E-3, 
 -1.245505642145872100E-2, 
 -5.431130062788725000E-3, 
 6.898684659972787000E-5, 
 9.534926153719425000E-3, 
 -4.327511880546808000E-3, 
 4.124921688344329600E-4, 
 -4.287125077098608000E-3, 
 4.863255657255650000E-3, 
 6.637727376073599000E-3, 
 1.435325131751597000E-3, 
 1.031604013405740300E-3, 
 -1.776272314600646500E-3, 
 -5.326144397258758500E-3, 
 -3.359520807862282000E-3, 
 -2.732074586674571000E-3, 
 3.525221720337867700E-3, 
 6.264635594561696000E-4, 
 6.361579988151789000E-3, 
 -4.826066549867392000E-3, 
 -2.804916817694902400E-3, 
 4.076964105479419000E-4, 
 2.554802689701318700E-3, 
 1.995925325900316200E-3, 
 1.784258893167134400E-5, 
 -5.253163166344166000E-3, 
 -4.549849312752485000E-3, 
 3.461518324911594400E-3, 
 5.833996459841728000E-3, 
 -1.980581087991595300E-3, 
 3.133613150566816300E-3, 
 -6.936171557754278000E-3, 
 -6.982826162129641000E-3, 
 7.394659332931042000E-3, 
 4.564813862089067700E-4, 
 2.807153854519129000E-3, 
 7.407865021377802000E-3, 
 -4.882240667939186000E-3, 
 2.283502835780382000E-3, 
 -4.420530167408287500E-4, 
 -6.427436601370573000E-3, 
 -2.835369436070323000E-3, 
 6.252055754885077000E-4, 
 7.180248852819204000E-3, 
 2.499531023204326600E-3, 
 2.016555517911911000E-3, 
 1.582497847266495200E-3, 
 5.081694573163986000E-3, 
 4.059714730829000500E-3, 
 8.618343621492386000E-3, 
 6.343173794448376000E-3, 
 -5.968843586742878000E-3, 
 1.789899915456772000E-2, 
 1.126633118838071800E-2, 
 -1.141433790326118500E-2, 
 -8.301772759296000000E-4, 
 4.791010636836290000E-3, 
 -1.651291386224329500E-3, 
 6.394065450876951000E-3, 
 3.874797374010086000E-3, 
 -6.576695479452610000E-3, 
 8.130098693072796000E-3, 
 1.260230783373117400E-2, 
 2.396122552454471600E-3, 
 -2.666096435859799400E-3, 
 3.457210492342710500E-3, 
 1.284488127566874000E-3, 
 7.422907277941704000E-3, 
 6.844030227512121000E-3, 
 2.961507299914956000E-3, 
 -1.116067543625831600E-2, 
 -1.658069714903831500E-2, 
 -5.806130357086658000E-4, 
 5.746474489569664000E-3, 
 1.163434586487710500E-3, 
 -2.883173292502761000E-3, 
 8.690932765603065000E-3, 
 -1.085012126713991200E-2, 
 -4.330663476139307000E-3, 
 -4.346425179392099000E-3, 
 -1.274859765544533700E-3, 
 -3.636397654190659500E-3, 
 -5.763289052993059000E-3, 
 -8.921409025788307000E-3, 
 -1.434240955859422700E-3, 
 -2.944207750260830000E-3, 
 1.119898399338126200E-3, 
 -7.265356834977865000E-3, 
 -1.419354975223541300E-2, 
 7.850965484976768000E-4, 
 -1.137491129338741300E-2, 
 1.388490851968526800E-2, 
 -2.422869671136141000E-3, 
 -4.468166735023260000E-3, 
 1.088227890431881000E-2, 
 -7.433523423969746000E-3, 
 -2.714498201385140400E-3, 
 -8.532602223567665000E-4, 
 1.000744197517633400E-2, 
 6.217400077730417000E-3, 
 -6.525848875753582000E-4, 
 6.181581411510706000E-3, 
 4.203313961625099000E-3, 
 -7.979118265211582000E-3, 
 1.155030261725187300E-2, 
 1.009883591905236200E-3, 
 7.570557761937380000E-3, 
 2.141691977158189000E-3, 
 -1.037277933210134500E-2, 
 -4.305154550820589000E-3, 
 -8.304954506456852000E-3, 
 1.952554332092404400E-3, 
 -3.592302557080984000E-3, 
 -4.251598380506039000E-3, 
 7.473164238035679000E-3, 
 -1.008451450616121300E-2, 
 -1.454790355637669600E-3, 
 -6.789986509829760000E-3, 
 -8.491307497024536000E-3, 
 -1.541985315270722000E-3, 
 -4.738934803754091000E-3, 
 -3.850547131150961000E-3, 
 -2.995546907186508000E-3, 
 -4.902093671262264000E-3, 
 -7.379041984677315000E-3, 
 -2.250595018267631500E-3, 
 -2.546138130128383600E-3, 
 1.332931919023394600E-3, 
 -7.429333054460585000E-4, 
 2.471090527251363000E-3, 
 4.541409725788980700E-4, 
 1.359431445598602300E-2, 
 3.676353255286812800E-3, 
 -6.774930749088526000E-3, 
 2.569574629887938500E-3, 
 7.794891949743032500E-3, 
 2.476243861019611400E-2, 
 -7.230664603412151000E-3, 
 1.536730956286192000E-2, 
 -1.273740897886455000E-3, 
 1.676452666288241700E-4, 
 -1.228094659745693200E-2, 
 -9.805508889257908000E-4, 
 -7.973555475473404000E-3, 
 -4.119233228266239000E-3, 
 6.282397080212831000E-4, 
 -4.521957598626614000E-3, 
 8.957600221037865000E-3, 
 -4.711900372058153000E-3, 
 9.570412337779999000E-3, 
 -7.832359522581100000E-3, 
 -8.015595376491547000E-3, 
 5.036697257310152000E-3, 
 1.076159824151545800E-4, 
 -2.021660655736923200E-2, 
 2.774410182610154000E-3, 
 1.810311456210911300E-3, 
 -4.715831950306892000E-3, 
 9.150539524853230000E-3, 
 -1.189512945711612700E-2, 
 -1.292070746421814000E-2, 
 4.926941823214292500E-3, 
 -2.358808740973472600E-2, 
 1.874648733064532300E-3, 
 2.401897450909018500E-3, 
 -4.294336773455143000E-3, 
 2.229113830253482000E-3, 
 1.119156740605831100E-2, 
 9.731187485158443000E-3, 
 -4.535974469035864000E-3, 
 -1.560355350375175500E-2, 
 -3.715397615451365700E-4, 
 -9.744028560817242000E-3, 
 4.559553053695708500E-4, 
 -4.055679775774479000E-3, 
 -5.420244298875332000E-3, 
 5.892009939998388000E-3, 
 -3.768585156649351000E-4, 
 -1.258173305541277000E-2, 
 -3.403295064345002000E-3, 
 -1.078051421791315000E-2, 
 -1.259931130334735000E-3, 
 1.545568928122520400E-2, 
 -6.393191404640675000E-3, 
 -7.115154294297099000E-4, 
 8.389951661229134000E-3, 
 3.286462742835283000E-5, 
 -1.389085780829191200E-2, 
 -7.303993217647076000E-3, 
 4.374767187982798000E-3, 
 -5.933853331953287000E-3, 
 -2.978868549689650500E-3, 
 5.089542362838983500E-3, 
 -1.103974785655737000E-2, 
 8.842712268233299000E-4, 
 -5.269508808851242000E-3, 
 4.536997526884079000E-3, 
 2.472746185958385500E-3, 
 -7.956907153129578000E-3, 
 4.335307516157627000E-3, 
 -1.594833214767277200E-3, 
 5.526931490749121000E-3, 
 9.591807611286640000E-3, 
 5.013289861381054000E-3, 
 7.901084609329700000E-3, 
 -6.694586947560310000E-3, 
 1.064941845834255200E-2, 
 7.438122760504484000E-3, 
 -4.217457026243210000E-3, 
 1.043025311082601500E-2, 
 -1.059873774647712700E-2, 
 8.187168277800083000E-4, 
 -3.080419031903147700E-3, 
 1.740072475513443400E-4, 
 -3.662844421342015300E-3, 
 4.631241317838430000E-3, 
 -2.047113608568907000E-3, 
 5.555953830480575600E-3, 
 1.466860529035329800E-2, 
 -3.284073434770107300E-3, 
 9.069652878679335000E-4, 
 -8.925083093345165000E-3, 
 -6.907683797180653000E-3, 
 -1.091326237656176000E-3, 
 -7.871533744037151000E-3, 
 -7.641921285539865500E-3, 
 -8.068946190178394000E-3, 
 -4.652015399187803000E-3, 
 -3.772215219214558600E-3, 
 9.188682772219181000E-3, 
 7.017652969807386000E-3, 
 -1.030129659920930900E-2, 
 1.679540378972888000E-3, 
 6.227865349501371000E-3, 
 -3.981754183769226000E-3, 
 -1.759300008416176000E-2, 
 -3.945635631680489000E-3, 
 -8.236573077738285000E-3, 
 -3.686002688482403800E-3, 
 8.824555203318596000E-3, 
 -1.444826251827180400E-3, 
 1.246861764229834000E-3, 
 -2.649635542184114500E-3, 
 7.019332144409418000E-3, 
 -2.893940079957246800E-3, 
 -1.822071336209774000E-2, 
 3.268592525273561500E-3, 
 -6.606966257095337000E-3, 
 -5.989982746541500000E-3, 
 -2.413521287962794300E-3, 
 8.970743976533413000E-3, 
 -1.750587299466133000E-2, 
 -2.837225794792175300E-3, 
 -2.890649717301130300E-3, 
 -8.606979623436928000E-3, 
 7.031172281131148000E-4, 
 -1.026017405092716200E-2, 
 -3.469461342319846000E-3, 
 -7.844355888664722000E-3, 
 4.169809632003307000E-3, 
 3.821111982688307800E-3, 
 -4.020259249955416000E-3, 
 -3.524247789755463600E-3, 
 -7.726043259026483000E-5, 
 4.889066796749830000E-3, 
 -6.037520244717598000E-3, 
 2.457530063111335000E-4, 
 3.151833079755306200E-3, 
 4.660323727875948000E-3, 
 -2.041107974946499000E-3, 
 -1.350428909063339200E-3, 
 -1.093136798590421700E-2, 
 -2.665568143129348800E-3, 
 -5.831223912537098000E-3, 
 1.603343896567821500E-2, 
 8.872359991073608000E-3, 
 -3.946372307837009000E-3, 
 4.340675077401101600E-4, 
 -4.210428800433874000E-3, 
 7.014868780970573000E-3, 
 -4.331199917942285500E-3, 
 2.325873647350818000E-4, 
 -9.933519177138805000E-3, 
 -7.264005253091455000E-4, 
 1.971873454749584000E-3, 
 -6.802225252613425000E-4, 
 -1.337508950382471000E-2, 
 -6.209844723343849000E-3, 
 4.945745691657066000E-3, 
 -5.236420314759016000E-3, 
 1.820838265120983000E-2, 
 5.960851907730102500E-3, 
 3.618920221924782000E-3, 
 -2.371753100305795700E-3, 
 -8.027986623346806000E-3, 
 1.095383055508136700E-2, 
 -2.344112843275070000E-3, 
 -7.772875484079122500E-3, 
 -2.958814380690455400E-3, 
 6.928446702659130000E-3, 
 1.479981001466512700E-3, 
 1.140420674346387400E-3, 
 -6.086794892325997000E-4, 
 1.031627878546714800E-2, 
 -9.314749389886856000E-3, 
 -9.321475401520729000E-3, 
 2.188346115872264000E-3, 
 -4.703237675130367000E-3, 
 -2.805182011798024000E-3, 
 3.007339313626289400E-3, 
 -2.704908838495612000E-3, 
 -4.366907756775618000E-3, 
 1.989296171814203300E-3, 
 -3.170731477439403500E-3, 
 1.956566469743848000E-3, 
 5.234642419964075000E-3, 
 -1.402642484754324000E-2, 
 2.863621572032571000E-3, 
 7.739223539829254000E-3, 
 -3.129171673208475000E-3, 
 8.242491632699966000E-3, 
 -4.450657870620489000E-3, 
 -6.240900140255690000E-3, 
 7.333158049732447000E-3, 
 -2.565116621553898000E-3, 
 1.711008138954639400E-3, 
 1.194349140860140300E-3, 
 -7.756532169878483000E-3, 
 7.116344757378101000E-3, 
 1.568504236638546000E-2, 
 -1.298583857715129900E-2, 
 8.257585577666760000E-3, 
 2.743909833952784500E-3, 
 -1.825653365813195700E-3, 
 3.956925589591265000E-3, 
 -2.097933785989880600E-3, 
 -8.085529319941998000E-3, 
 2.111344132572412500E-3, 
 -1.741173909977078400E-3, 
 -5.174861871637404000E-4, 
 -1.716886297799646900E-3, 
 -2.379820944042876400E-4, 
 5.716113839298487000E-3, 
 -3.933602944016457000E-3, 
 -9.777673520147800000E-3, 
 -8.647553622722626000E-4, 
 4.471105523407459000E-3, 
 4.676577635109425000E-3, 
 -1.068816403858363600E-3, 
 -4.280632361769676000E-3, 
 1.387466210871934900E-2, 
 -1.170910196378827000E-3, 
 6.307464558631182000E-3, 
 -7.399101275950670000E-3, 
 7.651206571608782000E-3, 
 -1.314258784987032400E-3, 
 4.294573736842721700E-4, 
 4.835139960050583000E-3, 
 7.977058179676533000E-3, 
 9.790746262297034000E-4, 
 5.932075902819633500E-3, 
 -9.549322421662509000E-4, 
 -3.718740539625287000E-3, 
 -1.709653437137603800E-2, 
 1.676885783672332800E-2, 
 4.562421236187220000E-3, 
 -1.336463028565049200E-3, 
 1.224986044690013000E-3, 
 -5.668160039931536000E-3, 
 5.069718463346362000E-4, 
 6.282190326601267000E-3, 
 -1.056181732565164600E-3, 
 1.425481052137911300E-3, 
 1.195219345390796700E-2, 
 -1.777429832145571700E-3, 
 -3.929377533495426000E-3, 
 9.075234644114971000E-3, 
 4.359861835837364000E-3, 
 -4.677469842135906000E-4, 
 -1.520892884582281100E-2, 
 9.310677414759994000E-4, 
 -5.875608418136835000E-3, 
 4.496384412050247000E-3, 
 1.017757924273610100E-3, 
 1.800417155027389500E-2, 
 -1.407815888524055500E-2, 
 4.514828324317932000E-3, 
 7.034455891698599000E-3, 
 -3.792010480538010600E-3, 
 -8.888711454346776000E-5, 
 3.762286622077226600E-3, 
 4.726962652057409000E-3, 
 -9.845269843935966000E-3, 
 1.808782294392585800E-2, 
 1.578517258167267000E-2, 
 -7.369259255938232000E-4, 
 -4.969718400388956000E-3, 
 1.167759485542774200E-2, 
 1.980349188670516000E-3, 
 -4.363608080893755000E-3, 
 -1.299477089196443600E-2, 
 -3.338546026498079300E-3, 
 -7.366336649283767000E-4, 
 3.644908312708139400E-3, 
 1.250920258462429000E-2, 
 -8.652186021208763000E-3, 
 -7.836270146071910000E-3, 
 1.700385240837931600E-3, 
 1.544586475938558600E-2, 
 3.236831864342093500E-3, 
 8.426255546510220000E-3, 
 -7.131945341825485000E-3, 
 -4.803771153092384000E-3, 
 4.556633532047272000E-3, 
 -1.055598817765712700E-2, 
 -4.742898512631655000E-3, 
 -1.153282937593758000E-3, 
 4.188326653093100000E-3, 
 1.694181561470031700E-2, 
 -4.063365980982780500E-3, 
 -8.960034698247910000E-3, 
 -1.165184378623962400E-2, 
 -5.856231437064707000E-4, 
 1.339987386018037800E-2, 
 -9.667521226219833000E-6, 
 -5.745704751461744000E-3, 
 -1.210957299917936300E-2, 
 -5.762792192399502000E-3, 
 -2.324834233149886000E-3, 
 8.202301338315010000E-3, 
 -4.589133430272341000E-3, 
 -8.799419738352299000E-3, 
 5.084717180579901000E-3, 
 -1.385140465572476400E-3, 
 3.773774951696396000E-3, 
 -1.555988681502640200E-3, 
 -2.513828221708536000E-3, 
 -1.252140663564205200E-2, 
 1.313186064362526000E-2, 
 -1.928180805407464500E-3, 
 2.092623908538371300E-4, 
 2.047698711976409000E-3, 
 1.676318235695362000E-3, 
 -1.418322790414095000E-3, 
 -6.587767507880926000E-3, 
 -8.484139107167720000E-3, 
 -4.961349070072174000E-3, 
 1.082514692097902300E-2, 
 2.273465041071176500E-3, 
 -1.178897358477115600E-2, 
 -7.399182301014662000E-3, 
 -1.534676831215620000E-2, 
 -3.855014219880104000E-3, 
 1.947797834873199500E-3, 
 -4.395992960780859000E-3, 
 1.639967900700867200E-3, 
 -3.160623367875814400E-3, 
 -7.507534697651863000E-3, 
 6.013194564729929000E-3, 
 2.726379316300153700E-3, 
 7.888402789831161000E-3, 
 1.950038946233689800E-3, 
 -4.374151118099689500E-3, 
 4.291775636374950000E-3, 
 4.262356553226709000E-3, 
 6.684629246592522000E-3, 
 -3.863333957269788000E-3, 
 -1.672749873250722900E-3, 
 -3.646129509434104000E-3, 
 -4.716835916042328000E-3, 
 -8.412441238760948000E-3, 
 1.412753760814666700E-2, 
 -2.887120936065912200E-3, 
 6.651500239968300000E-3, 
 -4.168539890088141000E-4, 
 7.043981458991766000E-4, 
 -1.334632397629320600E-3, 
 -5.028522573411465000E-3, 
 1.117041334509849500E-2, 
 -1.002334174700081300E-4, 
 -5.393282044678926500E-3, 
 -8.604027330875397000E-3, 
 4.375502467155456500E-3, 
 -2.370104659348726300E-3, 
 2.961273770779371300E-3, 
 -1.681081717833876600E-3, 
 2.287981798872351600E-3, 
 -2.723042853176593800E-3, 
 1.064357999712228800E-2, 
 -4.707209765911102000E-3, 
 1.103802397847175600E-2, 
 -8.304533548653126000E-3, 
 -1.378664933145046200E-2, 
 2.530468162149191000E-3, 
 6.237812805920839000E-3, 
 -7.558725192211568000E-4, 
 9.249592199921608000E-3, 
 -2.898376435041427600E-3, 
 -2.773893531411886000E-3, 
 7.563262246549129500E-3, 
 -6.386456079781055500E-3, 
 -2.479352429509163000E-2, 
 8.846606127917767000E-3, 
 -1.229878515005111700E-2, 
 7.435202598571777000E-3, 
 3.502808511257171600E-3, 
 1.743978238664567500E-3, 
 -7.081890013068914000E-3, 
 6.914988160133362000E-3, 
 7.968690246343613000E-3, 
 2.411879831925034500E-3, 
 2.435480710119009000E-3, 
 4.392684437334537500E-3, 
 -1.518527790904045100E-2, 
 7.848314009606838000E-3, 
 -9.105256758630276000E-3, 
 -3.041013609617948500E-3, 
 8.667433634400368000E-3, 
 2.018173690885305400E-3, 
 6.101286504417658000E-3, 
 2.907857997342944000E-3, 
 1.686913147568702700E-2, 
 3.460674546658992800E-3, 
 -6.147388485260308000E-4, 
 1.525015663355588900E-2, 
 1.336003281176090200E-2, 
 1.634492538869381000E-3, 
 -1.467869896441698000E-2, 
 5.891220644116402000E-3, 
 6.677372846752405000E-3, 
 1.478263176977634400E-2, 
 4.225995857268572000E-3, 
 7.706100586801767000E-3, 
 -4.797669593244791000E-3, 
 -1.654156483709812200E-3, 
 -6.608039839193225000E-4, 
 1.353990472853183700E-2, 
 5.119649227708578000E-3, 
 -3.060553455725312200E-3, 
 6.160097196698189000E-3, 
 -1.136967539787292500E-2, 
 1.355022832285612800E-4, 
 2.889639697968960000E-3, 
 -4.934723023325205000E-3, 
 2.552129561081528700E-3, 
 -4.494232707656920000E-4, 
 1.028040144592523600E-2, 
 -6.075602956116199500E-3, 
 9.405997581779957000E-3, 
 3.231314010918140400E-3, 
 -1.024308428168296800E-2, 
 -5.876569077372551000E-3, 
 -1.119364332407713000E-2, 
 -1.297132484614849100E-2, 
 -1.114038471132516900E-2, 
 7.306351792067289000E-3, 
 2.168781869113445300E-2, 
 1.167149748653173400E-2, 
 -2.003647945821285200E-2, 
 -5.520528648048639000E-3, 
 8.126155473291874000E-3, 
 4.037455655634403000E-3, 
 7.483494846383110000E-5, 
 -1.153271645307541000E-3, 
 1.053710700944066000E-3, 
 1.400441676378250100E-2, 
 -1.748456619679927800E-2, 
 1.539564225822687100E-2, 
 -8.053253404796124000E-3, 
 6.965891225263476000E-4, 
 1.130952034145593600E-2, 
 1.067721098661422700E-2, 
 5.675099790096283000E-3, 
 -1.432341337203979500E-2, 
 5.493800621479750000E-3, 
 -5.323132500052452000E-3, 
 -1.227521803230047200E-2, 
 -2.815139945596456500E-3, 
 2.330222399905324000E-3, 
 -2.203642157837748500E-3, 
 -7.520655053667724000E-4, 
 9.608948603272438000E-3, 
 1.503787701949477200E-3, 
 -8.592145517468452000E-3, 
 4.296262282878160500E-3, 
 7.717724889516830400E-3, 
 2.451300155371427500E-3, 
 7.362324395217001000E-4, 
 2.343338914215564700E-3, 
 -2.525434596464038000E-3, 
 -1.824654056690633300E-3, 
 6.832496728748083000E-4, 
 4.923061467707157000E-3, 
 9.859200799837708000E-4, 
 6.503636948764324000E-3, 
 1.384710147976875300E-2, 
 1.838883850723505000E-3, 
 2.097774064168334000E-3, 
 1.111426297575235400E-2, 
 -8.600778877735138000E-3, 
 4.712524605565704400E-5, 
 -1.307842228561639800E-2, 
 -1.020337105728685900E-3, 
 3.990880679339170500E-3, 
 -8.258771151304245000E-3, 
 -5.119555164128542000E-3, 
 7.417117245495319000E-3, 
 4.224010743200779000E-3, 
 1.295055262744426700E-2, 
 3.948224242776632000E-3, 
 4.116378724575043000E-3, 
 9.788033785298467000E-4, 
 -8.159291930496693000E-3, 
 4.636663477867842000E-3, 
 5.429340060800314000E-3, 
 8.808050770312548000E-4, 
 -1.310999505221843700E-2, 
 -4.689336288720369000E-3, 
 -4.994915798306465000E-3, 
 2.865863731130957600E-3, 
 2.496651606634259200E-3, 
 -1.000959612429142000E-2, 
 -2.025674330070615000E-3, 
 8.462761179544032000E-4, 
 -2.936031378339976000E-4, 
 -2.143900608643889400E-3, 
 4.130264744162559500E-3, 
 1.172221265733242000E-3, 
 1.048916368745267400E-3, 
 6.945994682610035000E-3, 
 5.845953244715929000E-3, 
 -3.804420586675405500E-3, 
 7.418056484311819000E-3, 
 -6.120721343904734000E-3, 
 1.190395327284932100E-3, 
 -4.799277521669865000E-3, 
 6.010057404637337000E-3, 
 1.140848151408135900E-3, 
 6.602120585739613000E-3, 
 4.351974464952946000E-3, 
 -2.794817264657467600E-4, 
 -1.442285138182342000E-3, 
 -1.036279369145631800E-2, 
 6.918156519532204000E-3, 
 -6.687255576252937000E-3, 
 -1.443449221551418300E-2, 
 -2.428629901260137600E-3, 
 3.022349206730723400E-3, 
 -5.948924459517002000E-3, 
 -1.092360448092222200E-2, 
 1.171953044831752800E-2, 
 7.862831465899944000E-3, 
 5.198046565055847000E-3, 
 1.892092637717723800E-3, 
 -4.647596739232540000E-3, 
 1.179793151095509500E-3, 
 6.395473610609770000E-3, 
 1.715734042227268200E-2, 
 -4.647077526897192000E-3, 
 3.849499626085162000E-3, 
 5.477591417729855000E-3, 
 7.019750773906708000E-3, 
 -2.957016695290804000E-3, 
 3.032061271369457200E-3, 
 3.593961475417018000E-3, 
 2.158764051273465000E-3, 
 -4.203416465315968000E-4, 
 -2.378500998020172000E-3, 
 -9.689503931440413000E-4, 
 3.328399732708931000E-3, 
 -4.802593961358070000E-3, 
 -1.166436355561018000E-2, 
 1.444086781702935700E-3, 
 1.378805493004620000E-3, 
 -1.168030407279729800E-2, 
 5.896686110645533000E-3, 
 5.745924427174032000E-4, 
 -4.873946774750948000E-3, 
 -3.560071345418691600E-3, 
 7.592060603201389000E-3, 
 -6.494134198874235000E-3, 
 1.234891079366207100E-2, 
 1.241972111165523500E-2, 
 5.023580975830555000E-3, 
 2.820050343871116600E-3, 
 3.703362308442592600E-3, 
 -5.237029981799424000E-4, 
 4.295387305319309000E-3, 
 -9.875842370092869000E-4, 
 1.120362337678670900E-2, 
 -1.203291676938533800E-2, 
 -1.696279156021773800E-3, 
 -6.735151167958975000E-3, 
 1.226839958690106900E-3, 
 3.944164142012596000E-3, 
 5.764375906437635000E-3, 
 8.467795327305794000E-3, 
 7.643738761544228000E-3, 
 3.725451824720949000E-4, 
 1.843795995227992500E-3, 
 -1.105344388633966400E-3, 
 4.345051420386880600E-4, 
 -6.770469713956118000E-3, 
 1.378502510488033300E-2, 
 -6.488791201263666000E-3, 
 -6.009571719914675000E-3, 
 3.559883451089263000E-3, 
 2.752828178927302400E-3, 
 6.156223360449076000E-3, 
 -1.554855052381754000E-2, 
 -2.554403850808739700E-3, 
 -1.366123370826244400E-2, 
 2.840828383341431600E-3, 
 1.027621794492006300E-2, 
 5.454540252685547000E-3, 
 7.397403009235859000E-3, 
 6.487012375146151000E-3, 
 6.150402128696442000E-3, 
 1.110464916564524200E-3, 
 9.025114588439465000E-3, 
 6.296574603766203000E-3, 
 -8.211391977965832000E-3, 
 7.333634886890650000E-3, 
 -1.156285591423511500E-2, 
 -7.537708617746830000E-3, 
 3.294179448857903500E-3, 
 -1.556669175624847400E-2, 
 1.152466610074043300E-2, 
 6.407849956303835000E-3, 
 -6.143623497337103000E-3, 
 -3.895829897373914700E-3, 
 -6.762368138879538000E-3, 
 -1.511288108304143000E-3, 
 -1.991171389818191500E-2, 
 -1.226991880685091000E-2, 
 -4.242069087922573000E-3, 
 1.352799357846379300E-3, 
 1.208785641938448000E-2, 
 -1.427646842785179600E-3, 
 6.807482335716486000E-3, 
 -9.676736779510975000E-3, 
 -1.368908211588859600E-2, 
 8.488638326525688000E-3, 
 6.132323760539293000E-3, 
 8.831375278532505000E-3, 
 -6.431620102375746000E-3, 
 -3.967288881540298500E-3, 
 5.304844118654728000E-3, 
 -3.919373266398907000E-3, 
 7.277365773916244500E-3, 
 4.475842695683241000E-3, 
 -6.926523521542549000E-3, 
 5.257862154394388000E-3, 
 -2.503339946269989000E-2, 
 5.988126154989004000E-3, 
 -8.053046651184559000E-3, 
 -9.618823416531086000E-3, 
 -9.910204447805882000E-3, 
 8.171047084033490000E-3, 
 1.174356439150869800E-4, 
 -3.299463773146271700E-3, 
 1.367776002734899500E-2, 
 7.853235001675785000E-4, 
 5.205076886340976000E-4, 
 -2.152582397684455000E-3, 
 -9.862687438726425000E-3, 
 7.055934518575668000E-3, 
 1.066885073669254800E-3, 
 2.699720906093716600E-3, 
 3.481737338006496400E-3, 
 8.555475622415543000E-3, 
 -8.770935237407684000E-3, 
 -1.676933839917183000E-3, 
 3.426734358072281000E-3, 
 -8.363139815628529000E-3, 
 1.100075803697109200E-2, 
 -5.575529299676418000E-3, 
 4.250699421390891000E-4, 
 -2.247822238132357600E-3, 
 4.295859020203352000E-3, 
 8.487566374242306000E-3, 
 1.991557888686657000E-3, 
 -5.980919115245342000E-3, 
 -4.159078001976013000E-3, 
 -3.045659046620130500E-3, 
 5.074125714600086000E-3, 
 6.287756841629744000E-4, 
 -8.997697383165360000E-3, 
 2.636707795318216000E-4, 
 -4.319760482758284000E-3, 
 -3.341614734381437300E-3, 
 -8.992244256660342000E-4, 
 1.239377073943615000E-2, 
 2.471356419846415500E-3, 
 8.197133429348469000E-4, 
 -5.228049587458372000E-3, 
 1.235194411128759400E-2, 
 -3.082759212702512700E-3, 
 3.964208997786045000E-3, 
 -8.991871960461140000E-3, 
 1.731915865093469600E-3, 
 8.553748950362206000E-3, 
 9.028411470353603000E-3, 
 3.361850278452038800E-3, 
 3.350877435877919000E-3, 
 9.012528695166111000E-3, 
 -3.659215290099382400E-3, 
 -1.107452996075153400E-2, 
 -3.019502386450767500E-3, 
 -7.332638371735811000E-3, 
 5.380894988775253000E-3, 
 1.658116088947281200E-4, 
 -4.463498946279287000E-3, 
 -1.326775876805186300E-3, 
 5.109474528580904000E-3, 
 2.915493212640285500E-3, 
 1.355845108628273000E-2, 
 -2.125868340954184500E-3, 
 -6.502737291157246000E-3, 
 -6.115335505455732000E-3, 
 5.805083084851503000E-3, 
 6.045167800039053000E-3, 
 1.268170494586229300E-2, 
 7.280685938894749000E-3, 
 1.971936784684658000E-2, 
 2.468275465071201300E-2, 
 6.880670553073287000E-4, 
 -4.430048633366823000E-3, 
 4.776461981236935000E-3, 
 3.460677573457360300E-3, 
 4.924030974507332000E-3, 
 -1.134635042399168000E-2, 
 -8.395448327064514000E-3, 
 1.370838843286037400E-2, 
 2.537648251745850000E-4, 
 1.402195915579795800E-2, 
 7.879159413278103000E-3, 
 -1.331676635891199100E-2, 
 1.044754404574632600E-3, 
 -6.066402886062860500E-3, 
 3.307518782094121000E-4, 
 9.569551912136376000E-4, 
 -8.581804577261210000E-4, 
 9.662742726504803000E-3, 
 7.914361543953419000E-3, 
 1.333281490951776500E-2, 
 -2.294344129040837300E-3, 
 2.690305933356285000E-3, 
 -7.430141791701317000E-3, 
 -1.741887629032135000E-2, 
 -2.261856198310852000E-2, 
 2.116425149142742000E-2, 
 -1.000297255814075500E-2, 
 6.212205626070499000E-3, 
 6.329834461212158000E-3, 
 6.105428561568260000E-3, 
 -9.885092265903950000E-3, 
 -4.642166197299957000E-3, 
 1.258153934031725000E-2, 
 1.982991583645343800E-2, 
 -1.015812391415238400E-3, 
 5.994901992380619000E-3, 
 9.099027141928673000E-3, 
 -1.500033959746360800E-2, 
 2.960835117846727400E-3, 
 -5.978975677862763000E-4, 
 3.982725553214550000E-3, 
 -1.567067578434944000E-2, 
 -2.149451465811580400E-4, 
 1.567449606955051400E-2, 
 -8.807423873804510000E-4, 
 1.694186474196612800E-3, 
 -6.268454715609550500E-3, 
 -1.649605837883427700E-4, 
 -1.803702325560152500E-4, 
 -6.647478323429823000E-3, 
 5.860372330062091000E-4, 
 7.801622152328491000E-3, 
 5.859422890353016600E-5, 
 -6.114717572927475000E-3, 
 -1.383041869848966600E-2, 
 9.530837647616863000E-3, 
 3.693271428346634000E-3, 
 -1.030575297772884400E-2, 
 8.285757154226303000E-3, 
 -1.084064133465290000E-2, 
 1.227641198784113000E-2, 
 -3.177729202434420600E-3, 
 -1.479091402143240000E-2, 
 1.658988650888204600E-3, 
 -5.851282738149166000E-3, 
 5.987068871036172000E-4, 
 -7.986765354871750000E-3, 
 -1.723829656839370700E-3, 
 -6.641597487032413500E-3, 
 -2.935951924882829000E-4, 
 9.434352628886700000E-3, 
 3.208684269338846000E-3, 
 1.373241469264030500E-2, 
 -5.020474782213569000E-4, 
 5.313346162438393000E-3, 
 -5.608483683317900000E-3, 
 2.008451381698250800E-3, 
 -6.960832979530096000E-3, 
 2.122076228260994000E-3, 
 -1.309850625693798000E-2, 
 -8.421313017606735000E-3, 
 2.318210666999221000E-3, 
 3.799052909016609000E-3, 
 2.384769963100552600E-3, 
 1.603137236088514300E-3, 
 3.860184457153082000E-3, 
 2.189284749329090000E-2, 
 9.446260519325733000E-3, 
 9.194305166602135000E-3, 
 8.610703982412815000E-3, 
 2.835485851392150000E-3, 
 -1.100333407521247900E-2, 
 -1.301936153322458300E-2, 
 5.176616366952658000E-3, 
 1.345554739236831700E-2, 
 -1.087839528918266300E-2, 
 9.584130020812154000E-4, 
 -6.168823456391692000E-4, 
 5.020565353333950000E-3, 
 -1.181114930659532500E-2, 
 -2.529977075755596000E-2, 
 1.506683975458145100E-2, 
 3.566970350220799400E-3, 
 -3.437404287979006800E-3, 
 -2.407738938927650500E-3, 
 -7.589553948491812000E-3, 
 -3.587798448279500000E-3, 
 5.514206364750862000E-3, 
 -3.208502195775509000E-3, 
 -4.400882869958877600E-3, 
 -8.984835818409920000E-3, 
 5.438898690044880000E-3, 
 -8.351737633347511000E-3, 
 -8.154360577464104000E-3, 
 1.202255953103303900E-2, 
 -7.422368973493576000E-3, 
 1.509760878980159800E-2, 
 -1.113411597907543200E-2, 
 1.108229625970125200E-2, 
 -9.007880464196205000E-3, 
 -6.912694778293371000E-3, 
 -3.475078148767352000E-3, 
 -5.736593622714281000E-3, 
 -1.141205150634050400E-2, 
 3.687902586534619300E-3, 
 -1.616579852998256700E-2, 
 1.547638513147831000E-2, 
 -1.129477564245462400E-2, 
 3.800686681643128400E-4, 
 6.968116853386164000E-3, 
 3.614435205236077300E-3, 
 4.620226100087166000E-3, 
 2.575233578681946000E-3, 
 -3.359425812959671000E-3, 
 -4.378597252070904000E-3, 
 -1.070845499634742700E-2, 
 -2.573310863226652000E-3, 
 -2.969752065837383300E-3, 
 -4.698540084064007000E-3, 
 -4.568609409034252000E-3, 
 5.592304747551680000E-3, 
 -1.260211342014372300E-3, 
 -8.045672439038754000E-3, 
 8.821315132081509000E-3, 
 -7.987034769030288000E-5, 
 4.083998210262507000E-4, 
 3.218254074454307600E-3, 
 -7.557224947959185000E-3, 
 2.768127014860511000E-3, 
 -4.823782946914434400E-4, 
 5.305414553731680000E-3, 
 -8.537352085113525000E-3, 
 -1.276320894248783600E-3, 
 3.809519344940781600E-3, 
 1.143156923353672000E-2, 
 -5.217409227043390000E-3, 
 -8.868666365742683000E-3, 
 -3.435426857322454500E-3, 
 8.921384811401367000E-3, 
 1.736297644674778000E-2, 
 -1.419301610440015800E-2, 
 4.343425855040550000E-3, 
 5.865145474672317500E-3, 
 3.508024383336305600E-3, 
 2.537592779844999300E-3, 
 -2.628052840009331700E-3, 
 2.024477347731590300E-3, 
 1.018981449306011200E-3, 
 -6.955563090741634000E-3, 
 5.169532727450132000E-3, 
 4.623724613338709000E-3, 
 1.385321188718080500E-2, 
 -1.713979989290237400E-2, 
 -2.101476769894361500E-3, 
 1.227182708680629700E-2, 
 -1.777152938302606300E-4, 
 -9.078772738575935000E-3, 
 2.907741349190473600E-3, 
 7.480365457013249000E-4, 
 3.540381556376815000E-3, 
 -9.836691431701183000E-3, 
 -1.323234289884567300E-3, 
 -2.899113809689879400E-3, 
 -8.077665232121944000E-3, 
 3.345155273564160000E-4, 
 1.618709973990917200E-2, 
 5.157996201887727000E-4, 
 3.009017964359373000E-4, 
 1.299575716257095300E-2, 
 8.132375776767730000E-3, 
 -3.838466247543692600E-3, 
 8.344368077814579000E-3, 
 1.707424595952034000E-2, 
 -2.643591957166791000E-3, 
 -7.018179167062044000E-3, 
 7.192642893642187000E-3, 
 1.961344387382269000E-4, 
 -3.429211676120758000E-3, 
 -8.944905363023281000E-3, 
 8.434923365712166000E-3, 
 -8.849944919347763000E-3, 
 -9.339163079857826000E-3, 
 -1.092891674488782900E-3, 
 1.205049082636833200E-2, 
 -1.038642134517431300E-2, 
 -3.260131925344467000E-3, 
 8.603039197623730000E-3, 
 5.886187311261892000E-3, 
 2.381772967055440000E-3, 
 -1.393572310917079400E-3, 
 1.598037924850359600E-4, 
 1.611941144801676300E-3, 
 9.453022852540016000E-3, 
 -1.190240960568189600E-2, 
 -1.822316553443670300E-3, 
 -5.851619876921177000E-3, 
 -7.916161790490150000E-3, 
 8.939212188124657000E-3, 
 -1.342897582799196200E-2, 
 -7.897498435340822000E-4, 
 1.414272096008062400E-2, 
 -7.897371426224709000E-3, 
 -1.260065380483865700E-2, 
 -1.813728827983141000E-3, 
 -1.101879682391882000E-2, 
 -1.109314151108265000E-3, 
 9.756637737154960000E-3, 
 -1.127554569393396400E-3, 
 -3.792637959122657800E-3, 
 -7.741853478364646000E-4, 
 -6.132577545940876000E-3, 
 -1.692212559282779700E-2, 
 1.291143242269754400E-2, 
 1.014782208949327500E-2, 
 1.897682319395244100E-3, 
 7.480423897504806500E-3, 
 -2.975291106849909000E-3, 
 -1.800590078346431300E-3, 
 6.509254686534405000E-3, 
 -2.670332323759794200E-3, 
 2.328021917492151300E-3, 
 6.606108974665403000E-3, 
 7.629221770912409000E-3, 
 1.482904306612908800E-3, 
 1.097708242014050500E-3, 
 1.945293508470058400E-2, 
 1.379232201725244500E-2, 
 1.941088587045669600E-3, 
 1.264696940779686000E-3, 
 -2.542727161198854400E-3, 
 -2.774077700451016400E-3, 
 4.551416262984276000E-3, 
 -1.604407839477062200E-2, 
 2.067182678729295700E-3, 
 1.065492164343595500E-3, 
 1.001879945397377000E-2, 
 -2.752010012045502700E-3, 
 -1.196074858307838400E-2, 
 -1.123666483908891700E-2, 
 -4.557851701974869000E-3, 
 -1.949287252500653300E-3, 
 -4.368397872895002000E-3, 
 -3.883808618411421800E-3, 
 1.248949300497770300E-2, 
 -6.230899132788181000E-3, 
 -1.497700065374374400E-2, 
 -1.455130707472562800E-2, 
 1.657484448514878700E-3, 
 -9.396879933774471000E-3, 
 8.241002447903156000E-3, 
 5.808713845908642000E-3, 
 1.090172771364450500E-2, 
 -2.249842509627342200E-3, 
 2.594508463516831400E-3, 
 2.012675162404775600E-3, 
 1.244421768933534600E-2, 
 -8.915104903280735000E-3, 
 -1.172881852835416800E-2, 
 1.998319290578365300E-3, 
 7.157523650676012000E-3, 
 1.281941868364811000E-2, 
 1.486088265664875500E-3, 
 8.053843863308430000E-3, 
 1.106343790888786300E-2, 
 -8.322241716086864000E-3, 
 7.391364313662052000E-3, 
 -2.621274907141924000E-3, 
 9.001616388559341000E-3, 
 -6.827214732766151000E-3, 
 -1.193551695905625800E-3, 
 -3.860664553940296000E-3, 
 -2.613229444250464400E-4, 
 2.319710329174995400E-3, 
 2.699224569369107500E-5, 
 -7.647674996405840000E-3, 
 1.357434666715562300E-3, 
 6.189767736941576000E-3, 
 -7.526289205998182000E-3, 
 -1.365876011550426500E-2, 
 8.864347822964191000E-3, 
 5.039579700678587000E-3, 
 -7.779264822602272000E-3, 
 8.850070880725980000E-4, 
 -7.798430975526571000E-3, 
 -6.763414945453405000E-3, 
 -1.047282852232456200E-2, 
 -4.418199881911278000E-3, 
 2.510170917958021000E-3, 
 2.196999732404947300E-3, 
 -3.554491326212883000E-3, 
 -1.008491031825542400E-2, 
 -1.218702644109726000E-2, 
 -1.355516724288463600E-3, 
 3.564018523320555700E-3, 
 2.429896499961614600E-3, 
 8.323757909238338000E-3, 
 -4.584384150803089000E-3, 
 2.382380515336990400E-2, 
 2.233357867226004600E-3, 
 -4.243845120072365000E-3, 
 8.766497485339642000E-3, 
 3.541507991030812300E-3, 
 -3.231012262403965000E-3, 
 1.483911555260419800E-2, 
 1.903219235828146300E-4, 
 -1.497401506640017000E-3, 
 5.375960376113653000E-3, 
 1.053451560437679300E-3, 
 4.153885878622532000E-3, 
 4.786587320268154000E-3, 
 -1.728088012896478200E-3, 
 -3.245275293011218300E-4, 
 2.023081295192241700E-3, 
 6.096281576901674000E-3, 
 4.656265955418348000E-3, 
 -1.472829747945070300E-2, 
 -1.386807672679424300E-2, 
 9.106933139264584000E-3, 
 1.155276130884885800E-2, 
 9.220975451171398000E-3, 
 -2.603963948786258700E-3, 
 -6.412794755306095000E-5, 
 5.733644124120474000E-3, 
 1.141108950832858700E-4, 
 1.657307846471667300E-3, 
 1.556323468685150100E-2, 
 1.209757849574089000E-2, 
 -1.597290486097335800E-2, 
 -7.665204815566540000E-3, 
 2.330588176846504000E-3, 
 7.734016980975866000E-3, 
 2.032828051596880000E-4, 
 1.572479307651519800E-2, 
 3.261910285800695400E-3, 
 -2.050806069746613500E-4, 
 1.979666762053966500E-3, 
 -1.005427259951829900E-2, 
 1.352245826274156600E-2, 
 9.986646473407745000E-3, 
 5.202913307584822000E-4, 
 -2.073395065963268300E-3, 
 -8.915902115404606000E-3, 
 -1.219008956104517000E-2, 
 4.779069684445858000E-3, 
 -7.251008413732052000E-3, 
 -1.085073407739400900E-2, 
 -7.784977089613676000E-3, 
 -5.270854104310274000E-3, 
 1.980604371055960700E-3, 
 3.215794451534748000E-3, 
 -6.022369954735041000E-3, 
 2.308815746800974000E-4, 
 9.042369201779366000E-3, 
 2.988894702866673500E-3, 
 -9.492518147453666000E-4, 
 -6.713332608342171000E-3, 
 -7.204387336969376000E-3, 
 -4.749376326799393000E-3, 
 -3.766151843592524500E-3, 
 -3.873876528814435000E-3, 
 -1.016431767493486400E-2, 
 7.503648288547993000E-3, 
 -2.305561443790793400E-3, 
 -6.933893542736769000E-3, 
 -3.541562764439732000E-4, 
 2.398370299488306000E-3, 
 3.069526865147054000E-4, 
 1.001738826744258400E-3, 
 4.809621896129101500E-4, 
 -1.719844061881303800E-3, 
 -4.177035763859749000E-3, 
 1.662112027406692500E-2, 
 -1.017829589545726800E-2, 
 -1.518321875482797600E-2, 
 -1.994883408769965000E-3, 
 -4.198641516268253000E-3, 
 -2.346322406083345400E-3, 
 -1.175566925667226300E-3, 
 -9.684586897492409000E-3, 
 1.093191374093294100E-2, 
 -1.120684947818517700E-2, 
 6.498022004961967500E-3, 
 -3.073340747505426400E-3, 
 6.145759951323271000E-3, 
 -2.566438401117921000E-3, 
 -6.133488379418850000E-3, 
 1.827462017536163300E-2, 
 -2.487514866515994000E-3, 
 1.401817426085472000E-3, 
 -7.914653047919273000E-3, 
 -2.598327118903398500E-3, 
 8.761246572248638000E-4, 
 6.046395748853683500E-3, 
 -3.225800348445773000E-3, 
 5.155099555850029000E-3, 
 -4.771097563207149500E-3, 
 -1.393232215195894200E-2, 
 3.848142689093947400E-3, 
 8.645973139209673000E-5, 
 -8.444509468972683000E-3, 
 -8.241770789027214000E-3, 
 -4.202057898510247500E-4, 
 -5.587991792708635000E-3, 
 -2.210807986557483700E-3, 
 5.875333677977323500E-3, 
 4.235588014125824000E-3, 
 5.143388640135527000E-3, 
 2.547694835811853400E-3, 
 -1.287130918353796000E-2, 
 -7.960501126945019000E-3, 
 6.108753383159637500E-3, 
 -8.142265491187572000E-3, 
 -3.648675337899476300E-4, 
 6.197351613081992000E-4, 
 1.363155804574489600E-2, 
 3.333925502374768300E-3, 
 -4.399951081722975000E-3, 
 -4.680651240050793000E-3, 
 1.718842238187790000E-2, 
 4.483968485146761000E-3, 
 8.736302144825459000E-3, 
 8.991441689431667000E-3, 
 6.075012963265181000E-3, 
 8.510869927704334000E-3, 
 1.001137960702180900E-2, 
 1.251452974975109100E-2, 
 3.527261316776275600E-3, 
 6.504526361823082000E-3, 
 1.698188856244087200E-2, 
 -1.541297300718724700E-3, 
 7.861449383199215000E-3, 
 -5.948320031166077000E-3, 
 -1.323721557855606000E-2, 
 -1.012056600302457800E-2, 
 2.740084193646908000E-3, 
 1.088736765086650800E-2, 
 -7.510602474212646500E-3, 
 -4.777740687131882000E-3, 
 -1.035310048609972000E-2, 
 5.529750138521194500E-3, 
 8.988485671579838000E-3, 
 1.658207329455763000E-4, 
 5.462029483169317000E-3, 
 1.558561460115015500E-3, 
 -1.627916819415986500E-3, 
 -5.352959036827087000E-3, 
 1.483440864831209200E-3, 
 -9.514091070741415000E-4, 
 5.795354023575783000E-3, 
 6.071005016565323000E-3, 
 -3.156828228384256400E-3, 
 -1.458867802284658000E-3, 
 7.287099957466125500E-3, 
 8.656256832182407000E-3, 
 8.811244741082191000E-3, 
 -7.170229684561491000E-3, 
 -2.122849458828568500E-3, 
 -1.022535376250743900E-2, 
 -2.153599169105291400E-3, 
 -6.055981852114201000E-3, 
 -1.181437261402607000E-2, 
 -8.331577293574810000E-3, 
 4.981402889825404000E-4, 
 3.154735779389739000E-3, 
 -1.086887251585722000E-2, 
 -3.317441325634718000E-3, 
 6.891951430588961000E-3, 
 2.913234522566199300E-3, 
 -1.386024639941752000E-3, 
 9.812741540372372000E-3, 
 4.583990667015314000E-3, 
 -2.828132361173629800E-3, 
 2.035423647612333300E-3, 
 2.076932229101658000E-3, 
 4.462192300707102000E-4, 
 -1.537745469249785000E-3, 
 7.711403071880341000E-3, 
 1.325406786054372800E-2, 
 5.801159422844648000E-3, 
 -1.177367195487022400E-2, 
 -6.275368388742208500E-3, 
 -1.043140655383467700E-3, 
 8.447143249213696000E-3, 
 9.600260294973850000E-3, 
 -1.087299454957246800E-2, 
 -3.882571822032332400E-3, 
 6.266919896006584000E-3, 
 -5.434202961623669000E-3, 
 6.670349976047873000E-4, 
 -9.200236760079860000E-3, 
 -1.136670587584376300E-3, 
 1.311776414513588000E-2, 
 -1.653710380196571400E-2, 
 1.100113615393638600E-2, 
 -3.073477884754538500E-3, 
 -9.213467128574848000E-4, 
 2.310342388227582000E-3, 
 2.671275101602077500E-2, 
 8.601856417953968000E-3, 
 -7.297140080481768000E-3, 
 -1.009181980043649700E-2, 
 -7.666362915188074000E-3, 
 -1.215195050463080400E-3, 
 6.616296246647835000E-3, 
 -5.340453237295151000E-3, 
 8.087876252830029000E-3, 
 1.052900776267051700E-2, 
 1.404477655887603800E-2, 
 4.920139443129301000E-3, 
 -6.842887029051781000E-3, 
 4.666202003136277000E-4, 
 -2.208638703450560600E-3, 
 -1.056831609457731200E-2, 
 -7.444404996931553000E-3, 
 4.125544801354408000E-3, 
 -5.052263848483562500E-3, 
 -4.541665315628052000E-3, 
 4.105465020984411000E-3, 
 -1.203717850148677800E-2, 
 7.115581538528204000E-3, 
 1.262188050895929300E-2, 
 2.871558768674731300E-3, 
 -5.026635713875294000E-3, 
 4.866599920205772000E-4, 
 4.150945169385522600E-4, 
 -4.175883717834949500E-3, 
 1.263329992070794000E-3, 
 -9.308701381087303000E-3, 
 4.975738935172558000E-3, 
 -6.553145591169596000E-3, 
 3.937504719942808000E-3, 
 1.263042353093624100E-2, 
 -1.089701149612665200E-2, 
 -2.762495540082454700E-3, 
 1.807231572456657900E-3, 
 1.011256012134254000E-3, 
 3.893955843523144700E-3, 
 -2.098305616527796000E-3, 
 -2.332303207367658600E-3, 
 -1.708511263132095300E-2, 
 -4.871788434684277000E-3, 
 -8.450778841506690000E-5, 
 -1.177070569247007400E-2, 
 -4.429521504789591000E-3, 
 1.153976656496524800E-2, 
 -7.721544243395328500E-3, 
 -6.399418693035841000E-3, 
 -1.025771815329790100E-2, 
 -1.119306590408086800E-2, 
 -8.135782263707370000E-5, 
 1.201064512133598300E-2, 
 1.632727682590484600E-2, 
 -6.097268313169479000E-3, 
 1.140574458986520800E-2, 
 5.278029711917043000E-4, 
 -4.007424227893352500E-3, 
 5.595303140580654000E-3, 
 1.582723343744874000E-3, 
 -1.237666420638561200E-2, 
 -6.374454591423273000E-3, 
 3.192615928128361700E-3, 
 -9.796635247766972000E-3, 
 7.180490065366030000E-3, 
 5.416687112301588000E-3, 
 -2.127979649230838000E-3, 
 2.006794512271881000E-2, 
 -8.842401206493378000E-3, 
 5.297930911183357000E-3, 
 -3.807271830737591000E-3, 
 -2.865049522370100000E-3, 
 -6.186007522046566000E-3, 
 -4.294616170227528000E-3, 
 -1.050836872309446300E-2, 
 -1.147906016558408700E-2, 
 -5.674174521118402500E-3, 
 1.945283380337059500E-3, 
 -8.709334768354893000E-3, 
 1.800820173230022200E-4, 
 -4.189959727227688000E-3, 
 -2.792829181998968000E-3, 
 6.124056410044432000E-3, 
 -5.666766315698624000E-3, 
 1.087132655084133100E-2, 
 7.627788931131363000E-3, 
 8.913858910091221000E-4, 
 -2.462089527398348000E-3, 
 -4.805736534763127600E-5, 
 8.127517066895962000E-3, 
 -2.532007405534386600E-3, 
 5.014994647353887600E-3, 
 -6.860969588160515000E-3, 
 -5.892483983188868000E-3, 
 -1.816582307219505300E-2, 
 -1.123430323787033600E-3, 
 1.430283579975366600E-2, 
 4.216498229652643000E-3, 
 -6.788907572627067600E-3, 
 -5.646520294249058000E-4, 
 3.476058132946491200E-3, 
 2.377497497946024000E-3, 
 3.964211791753769000E-3, 
 1.108311209827661500E-2, 
 5.388944875448942000E-3, 
 -9.739581495523453000E-3, 
 7.487292867153883000E-3, 
 -8.878693915903568000E-3, 
 1.901746873045340200E-4, 
 8.362634107470512000E-3, 
 1.690654270350933000E-2, 
 -2.946846652776003000E-3, 
 7.437856402248144000E-3, 
 -6.102674640715122000E-3, 
 2.841135719791054700E-3, 
 6.652122363448143000E-3, 
 9.124982170760632000E-3, 
 -1.424833782948553600E-3, 
 4.432415589690208400E-3, 
 -1.500853453762829300E-3, 
 1.274273451417684600E-2, 
 -8.596044965088367000E-3, 
 8.621266111731530000E-3, 
 8.066194131970406000E-3, 
 -7.239558268338442000E-3, 
 9.726000949740410000E-3, 
 -1.417700201272964500E-3, 
 -8.014922961592674000E-3, 
 2.054961025714874300E-2, 
 -8.365286514163017000E-3, 
 -5.507845431566238000E-3, 
 -7.362934993579984000E-4, 
 -5.664728814736009000E-4, 
 1.301969308406114600E-2, 
 2.573253354057669600E-3, 
 -6.967917084693909000E-3, 
 -8.050139062106610000E-3, 
 -1.081804465502500500E-2, 
 -1.089965226128697400E-4, 
 5.274319089949131000E-3, 
 8.720484562218190000E-3, 
 4.641202278435230000E-3, 
 -2.169635146856308000E-3, 
 -4.972831346094608000E-3, 
 -3.521709702908992800E-3, 
 -8.476829156279564000E-3, 
 -4.013769328594208000E-3, 
 3.200628852937370500E-4, 
 -9.402046271134168000E-5, 
 -6.253242958337068600E-3, 
 1.295164693146944000E-2, 
 1.160238124430179600E-2, 
 6.956846453249454500E-3, 
 -1.091032661497593000E-2, 
 -4.099445417523384000E-3, 
 5.430886056274176000E-3, 
 -7.855222560465336000E-3, 
 8.953475393354893000E-3, 
 -1.970097888261080000E-3, 
 2.049054019153118000E-3, 
 -1.327273622155189500E-2, 
 1.212987676262855500E-2, 
 -8.381635881960392000E-3, 
 -1.042174547910690300E-2, 
 -6.991030182689428000E-3, 
 3.504252061247825600E-3, 
 -1.678906846791505800E-4, 
 8.339211926795542000E-4, 
 8.097489364445210000E-3, 
 -2.086623338982463000E-3, 
 3.345250152051449000E-3, 
 -2.616659738123417000E-3, 
 1.328588929027319000E-2, 
 3.780476050451398000E-3, 
 -1.133133540861308600E-3, 
 1.140582468360662500E-2, 
 1.452741306275129300E-2, 
 6.636966485530138000E-3, 
 3.141850000247359300E-3, 
 -9.153741411864758000E-3, 
 -2.942336490377783800E-3, 
 7.919711992144585000E-3, 
 -4.569767508655786500E-3, 
 -1.155145233497023600E-3, 
 -2.520528621971607000E-3, 
 -1.939559169113636000E-2, 
 1.358339656144380600E-2, 
 1.442708075046539300E-3, 
 -6.855156272649765000E-3, 
 6.151102483272552500E-3, 
 -1.061363655026070800E-4, 
 2.834218554198742000E-3, 
 -3.674575127661228000E-3, 
 -1.483456511050462700E-2, 
 5.498788785189390000E-3, 
 -3.634401131421327600E-3, 
 1.059487112797796700E-3, 
 2.347158268094063000E-3, 
 -7.933937013149261000E-3, 
 -4.809730220586061500E-3, 
 5.306581035256386000E-3, 
 -8.625037036836147000E-3, 
 2.652977360412478400E-3, 
 4.414098802953958500E-3, 
 3.456346224993467300E-3, 
 6.403533741831779500E-3, 
 -8.179443888366222000E-3, 
 -2.729496220126748000E-3, 
 -7.581773679703474000E-4, 
 -5.602563265711069000E-3, 
 -5.380470538511872000E-4, 
 4.454906098544598000E-3, 
 -8.463419042527676000E-3, 
 -2.896202262490987800E-3, 
 -4.252729006111622000E-3, 
 -3.348622471094131500E-3, 
 4.981194506399333000E-4, 
 -9.390209801495075000E-3, 
 -4.972894210368395000E-3, 
 -8.101182058453560000E-3, 
 2.868835290428251000E-4, 
 -7.136723026633263000E-3, 
 1.540302019566297500E-2, 
 -3.904292534571141000E-4, 
 -9.693236090242863000E-3, 
 5.373209249228239000E-3, 
 4.027522634714842000E-3, 
 -4.356334917247295000E-3, 
 2.394616371020674700E-3, 
 4.080276470631361000E-3, 
 1.519635319709777800E-3, 
 1.482913037762045900E-3, 
 3.236029297113418600E-3, 
 9.186228853650391000E-4, 
 6.832838989794254000E-3, 
 -2.767492784187197700E-3, 
 1.759911305271089000E-3, 
 1.941780938068404800E-4, 
 4.419933538883924500E-3, 
 1.270752213895320900E-2, 
 9.766958653926850000E-3, 
 -6.663186475634575000E-3, 
 -2.862696710508317000E-4, 
 1.742277527227997800E-3, 
 1.783381216228008300E-3, 
 5.086773075163364000E-3, 
 2.660720609128475000E-3, 
 -4.511190112680197000E-3, 
 -2.771667437627911600E-3, 
 -7.434140425175428000E-3, 
 -2.824743278324604000E-3, 
 4.271165002137422600E-3, 
 -2.962929196655750300E-3, 
 6.146692321635783000E-4, 
 -2.202874980866909000E-2, 
 -1.121682696975767600E-3, 
 -1.081178896129131300E-2, 
 -7.664320059120655000E-3, 
 1.257519610226154300E-2, 
 -4.858430183958262000E-4, 
 1.080816582543775400E-4, 
 3.233606228604912800E-3, 
 -2.985782455652952000E-3, 
 -3.161655738949775700E-3, 
 6.913034711033106000E-3, 
 -7.068342994898558000E-3, 
 -1.033450942486524600E-2, 
 2.556780818849802000E-3, 
 1.712844939902424800E-3, 
 9.857798926532269000E-3, 
 1.426631957292556800E-2, 
 -2.732214343268424300E-4, 
 -1.875587506219744700E-3, 
 1.226982916705310300E-3, 
 4.289590753614902500E-3, 
 3.419634653255343400E-3, 
 -2.166407211916521200E-4, 
 3.040095791220665000E-3, 
 2.756805391982197800E-3, 
 -1.232738024555146700E-3, 
 -2.727302722632885000E-3, 
 -5.624779500067234000E-3, 
 2.986544976010918600E-3, 
 1.604760065674781800E-3, 
 -5.456677172333002000E-4, 
 4.578362219035625500E-3, 
 6.920266896486282000E-3, 
 2.791932492982596000E-4, 
 -1.209358684718608900E-2, 
 7.755415281280875000E-4, 
 6.328704766929150000E-4, 
 3.501680213958025000E-3, 
 9.197367355227470000E-3, 
 -4.446102306246757500E-3, 
 -5.255129653960466000E-3, 
 4.062074702233076000E-3, 
 5.138749722391367000E-3, 
 5.697809159755707000E-3, 
 -8.096210076473653000E-4, 
 -1.380975265055894900E-2, 
 -3.595461603254080000E-3, 
 -7.418997120112181000E-3, 
 -1.026597619056701700E-2, 
 2.877109218388796000E-3, 
 -1.281224656850099600E-3, 
 6.379090249538422000E-3, 
 8.365806192159653000E-3, 
 1.172067876905202900E-2, 
 1.795068755745887800E-2, 
 -2.110223285853862800E-3, 
 5.488289520144463000E-3, 
 1.178762968629598600E-2, 
 -3.284952370449900600E-3, 
 1.262354757636785500E-2, 
 5.709783174097538000E-3, 
 3.940741997212171600E-3, 
 -2.833157312124967600E-3, 
 -5.412101745605469000E-3, 
 4.709154367446899000E-3, 
 6.385860964655876000E-3, 
 -1.279108691960573200E-3, 
 -5.702401511371136000E-3, 
 -1.297710579819977300E-3, 
 1.247285283170640500E-3, 
 -4.353110678493977000E-3, 
 -1.458452735096216200E-2, 
 7.344265002757311000E-3, 
 8.763212244957685000E-4, 
 1.533988118171691900E-2, 
 -8.287308737635612000E-4, 
 -3.031792817637324300E-3, 
 -8.645188063383102000E-3, 
 4.922768566757441000E-3, 
 7.848297245800495000E-3, 
 -1.341409608721733100E-2, 
 5.564513150602579000E-3, 
 2.435079542919993400E-3, 
 1.642470597289502600E-3, 
 3.807855537161231000E-4, 
 1.250215992331504800E-2, 
 2.267427509650588000E-3, 
 4.540025256574154000E-3, 
 5.228363908827305000E-3, 
 1.080475468188524200E-2, 
 2.444660756736994000E-3, 
 9.983276017010212000E-3, 
 -1.468560285866260500E-2, 
 -7.070868741720915000E-3, 
 -5.603319033980370000E-3, 
 -8.673430420458317000E-3, 
 1.330481469631195000E-2, 
 -9.171788115054369000E-4, 
 1.307464670389890700E-2, 
 -9.461199864745140000E-3, 
 8.483779383823276000E-4, 
 2.901107538491487500E-3, 
 1.129987370222807000E-2, 
 5.103072151541710000E-3, 
 -1.393891870975494400E-3, 
 4.837993183173239000E-4, 
 -1.465385034680366500E-2, 
 1.251939800567925000E-3, 
 -5.863806232810020400E-3, 
 4.980779252946377000E-3, 
 -4.439543467015028000E-3, 
 -1.590294949710369000E-2, 
 -5.641255993396044000E-3, 
 -9.731481783092022000E-3, 
 -1.022111345082521400E-2, 
 1.757649006322026300E-3, 
 -3.236861433833837500E-3, 
 1.503427512943744700E-3, 
 -2.605447312816977500E-3, 
 -5.260158330202103000E-3, 
 -1.503568841144442600E-3, 
 2.941480139270425000E-3, 
 -1.174891553819179500E-2, 
 1.475014840252697500E-3, 
 3.228333545848727200E-3, 
 -1.132638542912900400E-3, 
 -3.258569166064262400E-3, 
 1.099110860377550100E-2, 
 1.277137198485434000E-5, 
 1.040783803910017000E-2, 
 -4.139876924455166000E-3, 
 9.251524694263935000E-3, 
 5.349641200155020000E-3, 
 1.418460346758365600E-2, 
 -9.765163995325565000E-3, 
 -3.482564585283398600E-3, 
 1.299443538300693000E-3, 
 5.860791075974703000E-3, 
 1.281251851469278300E-2, 
 6.837145425379276000E-3, 
 7.369183003902435000E-3, 
 2.990565961226821000E-3, 
 8.012868463993073000E-3, 
 7.669765502214432000E-3, 
 4.569651719066314400E-5, 
 8.279148023575544000E-4, 
 1.530869025737047200E-2, 
 -6.381733343005180000E-3, 
 -6.569142919033766000E-3, 
 1.426107599399983900E-3, 
 -1.106050889939069700E-2, 
 1.917233166750520500E-4, 
 4.578356631100178000E-3, 
 -8.401704253628850000E-4, 
 -6.163203157484531000E-3, 
 5.366916302591562000E-4, 
 -4.250899422913790000E-3, 
 9.064285084605217000E-3, 
 1.436524180462584000E-4, 
 -6.962626357562840000E-4, 
 -8.970088325440884000E-3, 
 -6.328277289867401000E-3, 
 -8.187907747924328000E-3, 
 -6.018312647938728000E-3, 
 1.500602159649133700E-2, 
 5.458420142531395000E-3, 
 5.566991399973631000E-3, 
 -2.933233510702848400E-3, 
 5.750442855060100600E-3, 
 1.672294363379478500E-2, 
 -8.161067962646484000E-3, 
 -9.650892578065395000E-3, 
 -7.930225692689419000E-3, 
 4.091899376362562000E-3, 
 -5.269685294479132000E-3, 
 -1.198997022584080700E-3, 
 -3.934387583285570000E-3, 
 -1.861776458099484400E-3, 
 1.610215753316879300E-3, 
 -9.342458099126816000E-3, 
 -8.603113237768412000E-4, 
 2.213992411270737600E-3, 
 7.721631787717342000E-3, 
 -1.209297776222229000E-2, 
 3.626818303018808400E-3, 
 1.498725358396768600E-2, 
 4.051509313285351000E-3, 
 -1.592072308994829700E-3, 
 4.034014884382486000E-3, 
 1.412057754350826100E-4, 
 1.814224640838801900E-3, 
 -8.133134688250720000E-4, 
 1.452841795980930300E-3, 
 -1.721613574773073200E-3, 
 1.006372855044901400E-3, 
 -6.436370313167572000E-3, 
 3.388412995263934000E-3, 
 4.425850347615778400E-4, 
 -3.003220772370696000E-4, 
 1.623780699446797400E-3, 
 6.795021705329418000E-3, 
 1.453410368412733000E-3, 
 1.729353144764900200E-2, 
 2.933885203674435600E-3, 
 -2.554757054895162600E-3, 
 7.385808508843183500E-3, 
 4.322504159063101000E-3, 
 -1.199691742658615100E-2, 
 3.456388134509325000E-3, 
 -1.843197271227836600E-3, 
 -6.468389183282852000E-3, 
 -6.981915328651667000E-3, 
 -1.067169755697250400E-2, 
 1.072311121970415100E-2, 
 -3.836955642327666300E-3, 
 -1.007399335503578200E-2, 
 2.630937378853559500E-3, 
 -1.090888958424329800E-2, 
 4.782668780535459500E-3, 
 -4.844064358621836000E-3, 
 1.686081849038601000E-2, 
 1.107376068830490100E-2, 
 7.708878256380558000E-3, 
 -7.074899971485138000E-3, 
 -1.807158440351486200E-2, 
 -1.160901505500078200E-3, 
 1.102309860289096800E-2, 
 1.946038566529750800E-2, 
 4.594474565237760500E-3, 
 3.409903962165117300E-3, 
 -9.851372800767422000E-3, 
 2.388961846008897000E-3, 
 -4.343248147051781400E-4, 
 -1.607558340765535800E-3, 
 8.023250848054886000E-3, 
 -8.958804421126842000E-3, 
 3.337188856676221000E-3, 
 -7.830895483493805000E-3, 
 1.238681375980377200E-3, 
 -2.889175666496157600E-4, 
 1.960805151611566500E-3, 
 -3.443669760599732400E-3, 
 -1.824281993322074400E-3, 
 5.179081577807665000E-3, 
 8.705858141183853000E-3, 
 -1.311787217855453500E-2, 
 9.422628500033170000E-5, 
 -5.397737957537174000E-3, 
 1.818069140426814600E-3, 
 -7.716950960457325000E-3, 
 -2.881051041185856000E-3, 
 1.309846993535757000E-2, 
 -3.720397828146815300E-3, 
 6.727844011038542000E-3, 
 7.235599681735039000E-3, 
 -2.343328297138214000E-2, 
 -6.247669458389282000E-3, 
 2.760072704404592500E-3, 
 -1.943633658811450000E-3, 
 -1.165079511702060700E-2, 
 -7.583939004689455000E-3, 
 8.108559995889664000E-3, 
 -2.550266915932297700E-3, 
 4.882041364908218000E-3, 
 1.012626942247152300E-2, 
 2.518813591450453000E-3, 
 -2.854608232155442200E-3, 
 9.833727031946182000E-3, 
 1.507408334873616700E-3, 
 1.533592003397643600E-3, 
 5.735297221690416000E-3, 
 -8.872021920979023000E-3, 
 -6.293330807238817000E-3, 
 1.209079008549451800E-2, 
 -1.047375961206853400E-3, 
 9.005676954984665000E-3, 
 4.753066692501306500E-3, 
 3.688656957820058000E-3, 
 5.704393144696951000E-3, 
 -9.974769316613674000E-3, 
 1.265755202621221500E-2, 
 8.649326860904694000E-3, 
 2.538352273404598200E-3, 
 -4.136706236749887500E-3, 
 -4.847473930567503000E-3, 
 1.169449370354414000E-2, 
 5.750964046455920000E-4, 
 2.456215210258960700E-3, 
 -4.034385085105896000E-3, 
 1.295594032853841800E-2, 
 3.919542767107487000E-3, 
 -3.527357941493392000E-3, 
 2.398148551583290000E-2, 
 -1.573350862599909300E-3, 
 -5.030062515288591000E-3, 
 -2.321077976375818300E-3, 
 -3.972141072154045000E-3, 
 -6.605839007534087000E-5, 
 -1.319988514296710500E-3, 
 4.212175495922565500E-3, 
 -2.872826764360070200E-3, 
 1.669729128479957600E-2, 
 -2.907892921939492200E-3, 
 -3.920734860002994500E-3, 
 -1.673962920904159500E-3, 
 1.239160308614373200E-3, 
 2.594651887193322000E-3, 
 -1.145200897008180600E-2, 
 1.780094765126705000E-2, 
 9.401353891007602000E-4, 
 -6.462567020207643500E-3, 
 -4.979144432581961000E-4, 
 -5.376412533223629000E-3, 
 -2.468295162543654400E-3, 
 -1.091753784567117700E-2, 
 -3.734094789251685000E-3, 
 5.198854953050613000E-3, 
 8.163825259543955000E-4, 
 -2.624235348775983000E-3, 
 -9.609420783817768000E-3, 
 -1.283729099668562400E-3, 
 -1.412144280038774000E-3, 
 -1.017170213162899000E-2, 
 2.082665450870990800E-2, 
 -5.280175711959600400E-3, 
 8.771591819822788000E-3, 
 7.349472958594561000E-3, 
 1.563861966133117700E-2, 
 1.167809963226318400E-2, 
 -1.300243753939867000E-2, 
 6.154714152216911000E-3, 
 -1.021408825181424600E-3, 
 2.657694742083549500E-3, 
 2.646202687174082000E-3, 
 -1.396778598427772500E-2, 
 -5.584601312875748000E-3, 
 -1.015977654606103900E-2, 
 -1.368396478937938800E-4, 
 -3.968334291130304000E-3, 
 -6.563478382304311000E-4, 
 -8.282157359644771000E-4, 
 5.088272970169783000E-3, 
 2.443038159981370000E-3, 
 2.064723288640380000E-3, 
 1.132122986018657700E-2, 
 -1.032471749931573900E-2, 
 -3.054435597732663000E-3, 
 3.245347877964377400E-3, 
 -1.504715625196695300E-2, 
 -1.018829736858606300E-2, 
 -1.291587483137846000E-2, 
 -3.050731495022773700E-3, 
 3.820104058831930000E-3, 
 -2.545233117416501000E-3, 
 -5.130307748913765000E-3, 
 -1.220084354281425500E-2, 
 1.570832449942827200E-3, 
 1.022325269877910600E-2, 
 -2.310285344719886800E-3, 
 -1.434511039406061200E-2, 
 3.562772413715720000E-3, 
 3.045064862817526000E-3, 
 -5.971126724034548000E-3, 
 5.379488691687584000E-3, 
 -7.075817789882421500E-3, 
 -1.064226869493723000E-2, 
 9.290917776525020000E-3, 
 2.020554849877953500E-3, 
 -4.135326016694307000E-3, 
 3.110627876594662700E-3, 
 1.176442485302686700E-2, 
 -8.173615788109601000E-4, 
 1.621328294277191200E-3, 
 -4.563466645777225500E-3, 
 4.216510336846113000E-3, 
 -2.867313451133668400E-4, 
 1.335572917014360400E-3, 
 1.319745904766023200E-3, 
 -1.831065490841865500E-2, 
 3.947047982364893000E-3, 
 3.304058220237493500E-3, 
 -4.608786664903164000E-3, 
 4.050358664244413000E-3, 
 -7.765051443129778000E-3, 
 -5.667550023645163000E-3, 
 -6.825169082731008500E-3, 
 6.664019078016281000E-3, 
 -6.921702064573765000E-3, 
 -1.528040156699717000E-3, 
 4.468418192118406000E-3, 
 1.045432500541210200E-2, 
 4.144757986068726000E-3, 
 1.094419881701469400E-2, 
 2.361895749345422000E-3, 
 -1.624885573983192400E-2, 
 6.845210678875446000E-3, 
 -7.598485797643661500E-3, 
 -2.670421730726957300E-3, 
 -1.101473718881607000E-2, 
 -1.017510518431663500E-2, 
 -1.099965069442987400E-2, 
 -1.193436793982982600E-2, 
 -9.309962391853333000E-3, 
 3.136782441288233000E-3, 
 -3.550691762939095500E-3, 
 3.622295917011797400E-4, 
 8.095160010270774000E-4, 
 -5.752492230385542000E-3, 
 7.781427819281816500E-3, 
 3.519126446917653000E-3, 
 1.417095400393009200E-2, 
 6.956697441637516000E-3, 
 -6.129755172878504000E-3, 
 3.607311518862843500E-3, 
 1.871584565378725500E-3, 
 3.653971478343010000E-3, 
 7.139135152101517000E-3, 
 1.311090774834156000E-3, 
 -1.201364770531654400E-2, 
 -3.623923112172633400E-4, 
 -1.321492949500680000E-3, 
 7.565476465970278000E-3, 
 -5.271086934953928000E-3, 
 -1.141266524791717500E-2, 
 -9.641948156058788000E-3, 
 -9.900436270982027000E-4, 
 2.343105385079980000E-3, 
 -7.353920489549637000E-3, 
 -7.962830364704132000E-3, 
 -2.396877622231841000E-3, 
 -5.053059663623571000E-3, 
 -6.774412933737039600E-3, 
 6.167561747133732000E-3, 
 -1.051623560488224000E-2, 
 -6.784532684832811000E-3, 
 1.510299462825059900E-2, 
 1.385121885687112800E-2, 
 -7.195178885012865000E-3, 
 6.932795047760010000E-3, 
 4.603296518325806000E-3, 
 -1.879803277552128000E-2, 
 -7.001777645200491000E-3, 
 7.636523805558681500E-3, 
 -1.077388064004480800E-3, 
 1.168598234653472900E-2, 
 -8.307603187859058000E-3, 
 -2.928350120782852000E-3, 
 3.181705251336097700E-3, 
 -1.495232689194381200E-3, 
 1.814249204471707300E-3, 
 4.677325021475553500E-3, 
 6.066319532692432000E-3, 
 -3.309105290099978400E-3, 
 -8.916371501982212000E-3, 
 -2.018482424318790400E-3, 
 -8.975841919891536000E-4, 
 -4.842311609536409000E-3, 
 4.973280709236860000E-3, 
 5.703139118850231000E-3, 
 6.003322079777718000E-3, 
 7.815690711140633000E-3, 
 1.870458363555371800E-3, 
 -1.622960204258561100E-3, 
 -2.790879923850298000E-3, 
 -8.085745386779308000E-3, 
 7.596887648105621000E-3, 
 -8.846780285239220000E-3, 
 4.215655848383903500E-3, 
 3.744310466572642300E-3, 
 -3.603819641284644600E-4, 
 1.047408586600795400E-4, 
 1.824725605547428000E-2, 
 -9.770660661160946000E-3, 
 2.682727936189621700E-4, 
 4.546847194433212000E-3, 
 -8.373372256755829000E-3, 
 4.319227300584316000E-3, 
 1.231286395341157900E-2, 
 9.073452092707157000E-3, 
 8.506055921316147000E-3, 
 3.247663611546159000E-3, 
 6.623005960136652000E-3, 
 -6.770893000066280000E-3, 
 -1.506699831224978000E-3, 
 -4.383411142043769400E-4, 
 1.694329665042460000E-3, 
 -2.995110116899013500E-3, 
 5.762479268014431000E-3, 
 7.311666850000620000E-3, 
 -2.086230088025331500E-3, 
 1.776423677802086000E-2, 
 2.058999147266149500E-3, 
 3.295881440863013300E-3, 
 7.141523994505405000E-3, 
 1.338488142937421800E-2, 
 6.894108373671770000E-3, 
 1.054366305470466600E-2, 
 -8.290385827422142000E-3, 
 -6.694883108139038000E-3, 
 -2.837058389559388000E-3, 
 -3.283600017311983000E-5, 
 3.109218785539269400E-3, 
 -1.910291757667437200E-4, 
 1.035930309444665900E-2, 
 6.664606276899576000E-3, 
 8.662430569529533000E-3, 
 -3.789465874433517500E-3, 
 5.752123426645994000E-3, 
 8.983734995126724000E-3, 
 8.304856717586517000E-3, 
 -4.024785943329334000E-3, 
 5.436250474303961000E-3, 
 -4.599752370268106500E-3, 
 -4.393916111439466500E-3, 
 6.458775140345097000E-3, 
 2.577042207121849000E-3, 
 -5.679381545633078000E-3, 
 2.970718313008547000E-3, 
 5.367342848330736000E-3, 
 -6.944214459508657500E-3, 
 8.092394098639488000E-3, 
 -4.591446369886398000E-3, 
 6.832585670053959000E-3, 
 2.409081207588315000E-3, 
 -3.821180434897542000E-3, 
 2.295693149790168000E-3, 
 1.758931204676628100E-3, 
 -1.194402296096086500E-2, 
 -5.187104921787977000E-3, 
 3.229013178497553000E-3, 
 1.819182652980089200E-3, 
 -9.265786968171597000E-3, 
 -4.697534721344709000E-3, 
 -2.154306130250916000E-4, 
 -5.168992560356855000E-3, 
 -5.814072210341692000E-3, 
 -6.977602839469910000E-3, 
 -1.795388758182525600E-3, 
 -4.271413199603558000E-3, 
 -4.454087466001511000E-3, 
 -2.217421540990472000E-3, 
 1.295137312263250400E-2, 
 -1.771287177689373500E-3, 
 -1.202088408172130600E-2, 
 4.665206186473370000E-3, 
 -8.409236557781696000E-3, 
 5.919138900935650000E-3, 
 8.448882959783077000E-3, 
 -1.057686004787683500E-2, 
 -1.431269571185112000E-2, 
 -6.771723274141550000E-3, 
 1.112192403525114000E-2, 
 -7.376607973128557000E-3, 
 4.055730998516083000E-3, 
 -4.817910026758909000E-3, 
 -1.146715693175792700E-2, 
 6.484116427600384000E-3, 
 -1.215182524174451800E-2, 
 1.019273232668638200E-2, 
 -4.851521924138069000E-3, 
 4.770200699567795000E-3, 
 -9.666461497545242000E-3, 
 1.120796950999647400E-4, 
 4.347430076450109500E-3, 
 8.009999059140682000E-3, 
 -4.878303036093712000E-3, 
 -1.706895069219172000E-3, 
 -6.367897731252015000E-4, 
 -1.441092696040868800E-2, 
 -3.181695239618420600E-3, 
 -2.122194739058613800E-3, 
 9.827218018472195000E-3, 
 5.920542404055595000E-3, 
 -2.461254363879561400E-3, 
 -2.240627654828131200E-4, 
 1.343328040093183500E-2, 
 -2.111992565914988500E-3, 
 1.066123135387897500E-2, 
 -1.153203379362821600E-2, 
 1.847781054675579000E-2, 
 5.534541327506304000E-3, 
 -8.115780539810658000E-3, 
 5.074322689324617000E-3, 
 9.830855764448643000E-3, 
 6.140142679214477500E-3, 
 -1.294019166380167000E-2, 
 -6.179240066558123000E-3, 
 -6.147341802716255000E-3, 
 4.004501271992922000E-3, 
 1.235052361153066200E-3, 
 -4.719024058431387000E-3, 
 7.501199375838041000E-3, 
 -1.412280398653820200E-4, 
 9.203221648931503000E-3, 
 4.639242310076952000E-3, 
 -3.523618914186954500E-3, 
 -3.377888118848204600E-3, 
 2.031591162085533000E-2, 
 4.171757958829403000E-3, 
 -5.007926840335131000E-3, 
 3.572476096451282500E-3, 
 -9.679095237515867000E-4, 
 -1.526409992948174500E-3, 
 -1.456056348979473100E-2, 
 -1.867542858235538000E-3, 
 7.834235206246376000E-3, 
 3.739820327609777500E-3, 
 -5.670989863574505000E-3, 
 -6.249724887311459000E-3, 
 -3.118902677670121000E-3, 
 -7.146176067180932000E-4, 
 -4.066159017384052000E-3, 
 2.723704092204570800E-3, 
 6.123360712081194000E-3, 
 -3.692933823913336000E-3, 
 -2.684623468667268800E-3, 
 7.017358671873808000E-3, 
 -1.705595292150974300E-3, 
 -4.566339775919914000E-3, 
 -3.287869971245527300E-3, 
 -5.001412937417626000E-4, 
 -7.632479537278414000E-3, 
 5.822274368256330500E-3, 
 -1.144862544606439800E-4, 
 7.895763963460922000E-3, 
 -7.958275265991688000E-3, 
 5.584409926086664000E-3, 
 1.408930774778127700E-2, 
 8.001239970326424000E-3, 
 1.280551217496395100E-2, 
 9.189883247017860000E-3, 
 1.320763304829597500E-2, 
 2.378435106948018000E-3, 
 2.567937131971121000E-3, 
 -1.369851455092430100E-2, 
 -8.668029680848122000E-3, 
 2.186528407037258000E-3, 
 4.917001351714134000E-3, 
 -6.404606159776449000E-3, 
 -4.382327664643526000E-3, 
 1.418082229793071700E-2, 
 -1.212700176984071700E-2, 
 3.259943332523107500E-3, 
 -1.120934821665287000E-2, 
 -2.011933596804738000E-3, 
 7.017347961664200000E-3, 
 2.632563002407551000E-3, 
 -8.944466710090637000E-3, 
 -5.016053328290582000E-4, 
 -1.539065851829946000E-5, 
 -7.015530951321125000E-3, 
 2.130141947418451300E-3, 
 -5.036750808358192400E-3, 
 3.145496360957622500E-3, 
 2.628087997436523400E-3, 
 9.875173680484295000E-3, 
 3.651523729786277000E-3, 
 7.891115732491016000E-3, 
 -2.578569110482931000E-3, 
 -1.087274635210633300E-3, 
 -2.675223164260387400E-3, 
 -1.271152403205633200E-2, 
 -5.022690631449222600E-3, 
 -1.133576687425375000E-2, 
 -3.530681715346873000E-5, 
 5.592329427599907000E-3, 
 -6.436233408749103500E-3, 
 -6.901967339217663000E-3, 
 -1.162676606327295300E-2, 
 1.506187859922647500E-2, 
 -1.284287776798009900E-2, 
 1.087464974261820300E-3, 
 -3.685585921630263300E-3, 
 -4.766255151480436000E-3, 
 2.225978067144751500E-3, 
 5.107114557176828000E-3, 
 -6.909541785717010500E-3, 
 -8.950327755883336000E-4, 
 -9.250578470528126000E-3, 
 2.373280934989452400E-3, 
 -7.104819174855947500E-3, 
 4.723851103335619000E-3, 
 3.376441542059183000E-3, 
 8.327056653797626000E-3, 
 1.830017566680908200E-2, 
 -5.536239594221115000E-3, 
 3.605711041018367000E-3, 
 -7.101903203874826000E-3, 
 4.096596501767635000E-3, 
 -7.770754396915436000E-3, 
 -3.854344831779599000E-3, 
 6.591747514903545000E-4, 
 7.805615197867155000E-3, 
 -1.379728782922029500E-2, 
 -3.562145633623004000E-3, 
 3.836150048300624000E-3, 
 1.883957185782492200E-3, 
 5.652748979628086000E-3, 
 9.539345279335976000E-3, 
 1.384941674768924700E-2, 
 9.337452356703579000E-4, 
 -1.195500604808330500E-3, 
 6.919644307345152000E-3, 
 -2.959100296720862400E-3, 
 -1.187167596071958500E-2, 
 -1.459109596908092500E-3, 
 -5.878616124391556000E-3, 
 2.752374894043896300E-5, 
 -9.008217602968216000E-3, 
 2.069790847599506400E-3, 
 4.618218168616295000E-3, 
 -5.878317635506391500E-3, 
 -5.517107434570789000E-3, 
 -6.427685264497995000E-3, 
 -1.030381303280592000E-2, 
 -1.114707207307219500E-3, 
 7.059573661535978000E-3, 
 -1.050246227532625200E-2, 
 -3.428298441576771400E-5, 
 9.757288731634617000E-3, 
 2.009075600653887000E-3, 
 -4.770511295646429000E-3, 
 -3.407833864912390700E-4, 
 -5.765207111835480000E-3, 
 6.006458308547735000E-3, 
 3.421167843043804000E-3, 
 4.078170284628868000E-3, 
 4.048436414450407000E-3, 
 4.338638857007027000E-3, 
 9.847145527601242000E-3, 
 2.490851562470197700E-3, 
 -3.186194691807031600E-3, 
 8.197142160497606000E-4, 
 -1.831162720918655400E-3, 
 -7.366250734776258500E-3, 
 5.489782895892858500E-3, 
 -1.108604483306408000E-2, 
 -3.305980470031500000E-3, 
 9.011510759592056000E-3, 
 4.259021952748299000E-3, 
 -3.901941468939185000E-3, 
 -1.726540969684720000E-3, 
 -1.020175591111183200E-2, 
 9.571965783834457000E-4, 
 1.170368748717010000E-3, 
 2.721670316532254200E-3, 
 -7.804156281054020000E-3, 
 1.607578434050083000E-2, 
 -4.560397937893867500E-3, 
 1.268397830426693000E-2, 
 9.715235792100430000E-3, 
 -9.037170559167862000E-3, 
 -5.903398152440786000E-3, 
 4.579844884574413000E-3, 
 1.876074093161150800E-4, 
 1.100462675094604500E-2, 
 2.399700460955500600E-3, 
 1.421313080936670300E-2, 
 -4.989930894225836000E-4, 
 4.598809871822596000E-3, 
 -1.275628432631492600E-2, 
 9.846096858382225000E-3, 
 2.257378073409199700E-3, 
 -9.001284837722778000E-3, 
 -2.326032845303416300E-4, 
 9.914002381265163000E-3, 
 -1.110910903662443200E-2, 
 2.356714801862836000E-3, 
 -1.071873959153890600E-2, 
 -2.228489029221236700E-4, 
 1.273511210456490500E-3, 
 -2.583934180438518500E-2, 
 -1.549913827329874000E-2, 
 -1.000509830191731500E-3, 
 -1.387690659612417200E-2, 
 4.957315046340227000E-3, 
 -5.280270241200924000E-3, 
 -5.233106203377247000E-3, 
 -3.260846715420484500E-3, 
 -3.298385767266154300E-3, 
 -4.268772434443235000E-3, 
 -1.214462914504110800E-3, 
 -1.442008931189775500E-2, 
 -1.162283867597580000E-2, 
 -2.761122537776828000E-3, 
 -4.023976624011993000E-3, 
 -1.173535711131990000E-3, 
 -1.662854105234146000E-2, 
 -5.162652581930160500E-3, 
 -7.859150064177811000E-4, 
 -5.991027224808931000E-3, 
 -4.573926329612732000E-3, 
 4.092209972441196400E-3, 
 3.954268468078226000E-4, 
 2.190642291679978400E-3, 
 -1.956329494714737000E-2, 
 1.055673323571682000E-2, 
 -1.120967883616685900E-2, 
 -4.237692337483168000E-3, 
 1.121191680431366000E-2, 
 -1.407946273684501600E-2, 
 -2.871685894206166300E-3, 
 -1.169419009238481500E-2, 
 -5.294478032737970000E-3, 
 -1.589906401932239500E-2, 
 -5.969905294477940000E-3, 
 1.264999900013208400E-2, 
 -3.305297810584306700E-3, 
 -1.413410413078963800E-3, 
 5.313926842063665000E-3, 
 7.269448600709438000E-3, 
 -4.277547821402550000E-3, 
 8.427112479694188000E-4, 
 1.773040858097374400E-3, 
 1.843147561885416500E-3, 
 6.578919943422079000E-3, 
 9.342482662759721000E-4, 
 -6.585434544831514000E-3, 
 2.006082609295845000E-2, 
 3.028798382729292000E-3, 
 6.180781638249755000E-4, 
 -1.270788535475730900E-2, 
 -3.786706831306219000E-3, 
 -4.734844842460006500E-4, 
 -1.950951846083626200E-4, 
 2.937906654551625300E-3, 
 6.453378591686487000E-3, 
 6.286438554525375000E-3, 
 -7.886518724262714000E-3, 
 1.076790411025285700E-2, 
 3.377913031727075600E-3, 
 -6.559793837368488000E-3, 
 -6.546251825056970000E-4, 
 1.340844552032649500E-3, 
 1.046533603221178000E-2, 
 -2.860625041648745500E-3, 
 6.689443718641996000E-3, 
 9.114581160247326000E-3, 
 1.327719190157950000E-3, 
 4.388983827084303000E-3, 
 -4.109625704586506000E-3, 
 1.051185932010412200E-2, 
 -7.987123681232333000E-4, 
 -1.260064309462905000E-3, 
 -6.845925468951464000E-3, 
 1.928584463894367200E-2, 
 -5.457119186758064000E-5, 
 7.377330213785171500E-3, 
 5.961215356364846000E-4, 
 -1.640461268834769700E-3, 
 -6.877820007503033000E-3, 
 1.507017528638243700E-3, 
 6.778922397643328000E-3, 
 2.954825991764664600E-3, 
 4.855133593082428000E-3, 
 3.413237398490309700E-3, 
 8.295978419482708000E-3, 
 -3.926988691091537500E-3, 
 4.525387194007635000E-4, 
 7.615025155246258000E-3, 
 -8.690655231475830000E-3, 
 2.569452626630664000E-3, 
 -9.369044564664364000E-3, 
 -5.109004676342010500E-3, 
 2.247906057164073000E-3, 
 1.666502328589558600E-3, 
 -3.180559258908033400E-3, 
 2.153105847537517500E-2, 
 -1.457027858123183300E-3, 
 1.324473600834608000E-2, 
 -1.317219226621091400E-3, 
 2.098253229632973700E-3, 
 6.965929176658392000E-3, 
 1.905863755382597400E-3, 
 1.889655739068985000E-2, 
 3.478883067145943600E-3, 
 4.806139506399631500E-3, 
 -1.909754355438053600E-3, 
 -3.151664743199944500E-3, 
 1.896956819109618700E-3, 
 8.316059596836567000E-3, 
 -1.931579667143523700E-3, 
 -4.297887440770864500E-3, 
 1.061763055622577700E-2, 
 6.684228777885437000E-3, 
 -7.715309038758278000E-4, 
 6.331574171781540000E-3, 
 -4.197177477180958000E-3, 
 -3.775044751819223000E-4, 
 -8.419357240200043000E-3, 
 2.495796419680118600E-3, 
 8.720283396542072000E-3, 
 3.920305054634809500E-3, 
 1.604555360972881300E-2, 
 1.006696559488773300E-2, 
 -1.606760815775487600E-5, 
 -9.879560209810734000E-3, 
 -9.804839268326760000E-3, 
 2.720087300986051600E-3, 
 -8.865970186889172000E-3, 
 2.183969132602215000E-3, 
 -9.129866026341915000E-3, 
 8.101521991193295000E-3, 
 4.815736319869757000E-3, 
 4.569598007947206500E-3, 
 -8.593000471591950000E-3, 
 -5.917971488088369000E-3, 
 -9.436674416065216000E-3, 
 1.883599092252552500E-3, 
 -1.817586249671876400E-3, 
 1.288295723497867600E-3, 
 -1.187447179108858100E-2, 
 -3.441264852881431600E-3, 
 1.233567949384450900E-2, 
 -1.315417978912592000E-2, 
 -9.299237281084060000E-3, 
 7.765669375658035000E-2, 
 3.979252651333809000E-3, 
 1.715180114842951300E-3, 
 -1.611103769391775100E-3, 
 -6.160704419016838000E-3, 
 -3.362275601830333500E-4, 
 1.136058662086725200E-2, 
 -5.932986736297607000E-3, 
 8.474336005747318000E-3, 
 -7.099939044564962000E-3, 
 1.050170790404081300E-2, 
 -1.035626232624054000E-2, 
 6.010357290506363000E-3, 
 -2.177645219489932000E-3, 
 1.798707060515880600E-2, 
 -1.119850948452949500E-2, 
 -5.676326807588339000E-3, 
 -6.638352759182453000E-3, 
 -2.914163051173091000E-4, 
 -5.325582344084978000E-3, 
 -2.125408966094255400E-3, 
 1.241943915374577000E-3, 
 -1.057815365493297600E-2, 
 -1.151386648416519200E-2, 
 9.388914331793785000E-3, 
 -3.066209377720952000E-3, 
 2.541477093473077000E-3, 
 -9.752946905791760000E-3, 
 1.739347726106643700E-2, 
 1.355890766717493500E-3, 
 1.060324348509311700E-2, 
 8.275494910776615000E-3, 
 5.778294871561229000E-4, 
 9.833491407334805000E-3, 
 4.094326402992010000E-3, 
 -1.247009844519198000E-3, 
 -1.515986677259206800E-2, 
 3.889348823577165600E-3, 
 -7.711306679993868000E-3, 
 5.796771962195635000E-3, 
 -4.045871552079916000E-3, 
 -5.761295091360807000E-3, 
 -1.393677480518817900E-2, 
 1.209319219924509500E-3, 
 -1.245879475027322800E-2, 
 6.494284607470035600E-3, 
 -1.265282626263797300E-3, 
 1.066185941454023100E-4, 
 -8.658157894387841000E-4, 
 -1.234173425473272800E-3, 
 1.966735115274787000E-3, 
 9.267716668546200000E-3, 
 6.392516661435366000E-3, 
 -2.526167780160904000E-3, 
 -1.280458737164735800E-2, 
 3.824316663667559600E-3, 
 3.222274826839566200E-3, 
