{
"filefrom": "dl4j",
"ordering": "c",
"shape":	[5001, 1],
"data":
[5.899681244045496000E-3, 
 2.831279998645186400E-3, 
 -1.486380212008953100E-2, 
 1.331595424562692600E-2, 
 -1.953176222741604000E-2, 
 -2.438708767294883700E-2, 
 5.986349424347281000E-4, 
 7.213260512799025000E-3, 
 -2.931411005556583400E-2, 
 -1.218774472363293200E-3, 
 -1.956919021904468500E-2, 
 -1.514822803437709800E-2, 
 8.696016855537891000E-3, 
 1.254520099610090300E-2, 
 -1.707090251147747000E-2, 
 -1.475496962666511500E-2, 
 5.969589110463858000E-3, 
 -5.662069655954838000E-3, 
 -1.329175662249326700E-2, 
 1.330080348998308200E-2, 
 1.042820047587156300E-2, 
 -1.360733620822429700E-2, 
 -2.828650642186403300E-3, 
 3.705622395500540700E-3, 
 5.830580368638039000E-3, 
 8.880269713699818000E-3, 
 -1.656510122120380400E-2, 
 2.808912191540003000E-3, 
 1.904957555234432200E-2, 
 -8.461634628474712000E-3, 
 2.158562652766704600E-2, 
 1.426779013127088500E-2, 
 -4.754445049911737400E-3, 
 -1.569635351188480900E-3, 
 7.644055876880884000E-3, 
 -3.379042027518153000E-3, 
 2.844272414222359700E-3, 
 -4.938543308526277500E-3, 
 -1.412048819474876000E-3, 
 2.737425826489925400E-2, 
 -2.760109724476933500E-3, 
 7.764495909214020000E-3, 
 -5.355288740247488000E-4, 
 -1.409826707094907800E-2, 
 1.807405985891819000E-2, 
 -3.865969600155949600E-3, 
 1.159051805734634400E-2, 
 1.291023218072950800E-3, 
 3.527966793626547000E-3, 
 -8.905624970793724000E-3, 
 1.441342383623123200E-2, 
 -1.228070538491010700E-2, 
 -1.483562961220741300E-2, 
 -3.484735207166523000E-4, 
 1.327367732301354400E-3, 
 6.255320273339748000E-3, 
 -7.042291574180126000E-3, 
 2.030346170067787000E-2, 
 1.769313775002956400E-2, 
 1.382000395096838500E-3, 
 3.755006194114685000E-2, 
 6.578819360584021000E-3, 
 1.777698099613189700E-2, 
 9.245030232705176000E-4, 
 1.073215994983911500E-2, 
 -6.421739235520363000E-3, 
 4.700834862887859000E-3, 
 -2.221241407096386000E-2, 
 -7.971289567649364000E-3, 
 3.186481818556785600E-2, 
 -2.772361971437931000E-2, 
 9.780011605471373000E-4, 
 1.858138665556907700E-2, 
 1.470715651521459200E-4, 
 3.410876961424947000E-3, 
 1.428232528269291000E-2, 
 8.192666806280613000E-3, 
 -9.087553247809410000E-3, 
 7.874256931245327000E-3, 
 3.784964326769113500E-3, 
 -2.567831799387931800E-2, 
 2.263648621737957000E-2, 
 9.808985516428947000E-3, 
 3.821794409304857300E-3, 
 1.942472159862518300E-2, 
 -1.359004806727171000E-2, 
 1.340597984381020000E-3, 
 2.277758903801441000E-3, 
 -8.043294772505760000E-3, 
 -4.956692457199097000E-3, 
 6.174917798489332000E-3, 
 -1.430152170360088300E-2, 
 -2.271188236773014000E-2, 
 2.492037229239940600E-2, 
 -6.527458317577839000E-3, 
 1.464885473251342800E-2, 
 2.581393579021096200E-3, 
 -4.311780910938978000E-3, 
 1.398199889808893200E-2, 
 -3.181470790877938300E-3, 
 4.961170256137848000E-3, 
 -2.797301858663559000E-2, 
 4.176599532365799000E-2, 
 -6.618231069296598400E-3, 
 7.530538830906153000E-3, 
 -2.263619937002659000E-2, 
 -2.113133482635021200E-2, 
 -2.232282608747482300E-2, 
 -1.677590771578252300E-3, 
 1.750957965850830000E-2, 
 -1.373824570327997200E-2, 
 5.926903337240219000E-3, 
 -3.242703527212143000E-2, 
 1.553437765687704000E-2, 
 1.164576783776283300E-2, 
 -2.438706532120704700E-2, 
 1.406933739781379700E-2, 
 3.375028492882848000E-3, 
 1.385184703394770600E-3, 
 -1.060253102332353600E-2, 
 1.908450201153755200E-2, 
 -8.237211033701897000E-3, 
 -2.369459485635161400E-3, 
 1.407456677407026300E-2, 
 -4.234582185745239000E-3, 
 2.345726359635591500E-3, 
 1.411127950996160500E-2, 
 2.612281125038862200E-3, 
 -9.417272172868252000E-3, 
 -3.166762366890907000E-2, 
 -1.418149936944246300E-2, 
 3.097838722169399300E-2, 
 1.740771532058715800E-2, 
 2.679161261767149000E-3, 
 -7.891107350587845000E-3, 
 2.043927647173404700E-2, 
 -1.047286670655012100E-2, 
 -7.467651274055242500E-3, 
 1.442023832350969300E-2, 
 -6.330720148980617500E-3, 
 4.896906018257141000E-2, 
 -1.010620407760143300E-2, 
 4.123119637370109600E-3, 
 -1.088847126811742800E-2, 
 2.200744347646832500E-3, 
 2.103501930832863000E-3, 
 1.254934072494506800E-2, 
 4.268033429980278000E-3, 
 -3.434733720496297000E-3, 
 -2.224800176918506600E-3, 
 -1.007615868002176300E-2, 
 6.794156506657600000E-3, 
 3.225266933441162000E-2, 
 2.179572172462940200E-2, 
 -4.604323301464319000E-3, 
 6.425277329981327000E-3, 
 2.531214803457260000E-2, 
 1.146840304136276200E-2, 
 -1.221825927495956400E-2, 
 -6.723260972648859000E-3, 
 3.295377129688859000E-3, 
 6.263174116611481000E-3, 
 -3.752075508236885000E-2, 
 -5.842036101967096000E-3, 
 -1.238972134888172100E-2, 
 1.142606884241104100E-2, 
 5.025572609156370000E-4, 
 1.644916459918022000E-2, 
 -3.254813491366803600E-4, 
 -8.100945502519608000E-3, 
 -6.508545484393835000E-3, 
 -4.116641357541084000E-3, 
 1.077917031943798000E-2, 
 -1.152314245700836200E-3, 
 3.136352822184563000E-2, 
 7.399913389235735000E-3, 
 9.998755529522896000E-3, 
 -1.536373794078826900E-2, 
 -5.505342502146959000E-3, 
 1.812655851244926500E-2, 
 -2.990285493433475500E-2, 
 1.194546278566122000E-2, 
 -1.349735632538795500E-2, 
 3.101211972534656500E-2, 
 8.537602610886097000E-3, 
 -1.096913404762744900E-2, 
 1.480963081121444700E-2, 
 2.902903826907277000E-3, 
 -3.277288749814033500E-2, 
 -1.010800804942846300E-2, 
 3.207350894808769000E-2, 
 2.926894091069698300E-2, 
 1.706536859273910500E-2, 
 -1.656151376664638500E-2, 
 -4.619860090315342000E-3, 
 1.139449048787355400E-2, 
 1.097726169973611800E-2, 
 1.370544545352459000E-3, 
 -4.313684068620205000E-3, 
 6.306439172476530000E-3, 
 -2.194204553961754000E-2, 
 5.620782729238272000E-3, 
 -1.495415624231100000E-2, 
 4.802200943231583000E-3, 
 3.328562527894974000E-2, 
 -1.270410418510437000E-2, 
 2.732532797381282000E-3, 
 -7.911647669970990000E-3, 
 2.553035877645015700E-2, 
 3.724178532138467000E-3, 
 -1.024443842470645900E-2, 
 8.751666173338890000E-3, 
 1.986388815566897400E-4, 
 -2.707667276263237000E-2, 
 1.376989763230085400E-2, 
 3.796249628067016600E-2, 
 -6.546193733811378500E-3, 
 -2.473592571914196000E-2, 
 -7.458193693310022000E-3, 
 5.350588355213404000E-3, 
 8.941262960433960000E-3, 
 4.677399992942810000E-3, 
 -9.653463028371334000E-3, 
 4.361916217021644000E-4, 
 7.190801668912172000E-3, 
 8.372241631150246000E-3, 
 1.255874894559383400E-2, 
 -2.008496411144733400E-2, 
 5.332352593541145000E-3, 
 -1.568433246575296000E-3, 
 7.690248079597950000E-3, 
 1.613295637071132700E-3, 
 -4.332419950515032000E-3, 
 -4.568018484860659000E-3, 
 5.348604172468185000E-3, 
 2.015873417258262600E-2, 
 -2.355379611253738400E-2, 
 6.957639940083027000E-3, 
 -1.401965692639350900E-2, 
 -4.563021473586559000E-3, 
 -3.103000577539205600E-3, 
 1.630894653499126400E-2, 
 1.940282061696052600E-2, 
 -5.240184720605612000E-3, 
 3.498473763465881300E-2, 
 6.560470792464912000E-4, 
 -4.499763716012239500E-3, 
 -3.007231093943119000E-2, 
 -1.603371277451515200E-2, 
 7.585894782096147500E-3, 
 -1.924465596675872800E-2, 
 2.540318295359611500E-2, 
 2.077511698007583600E-2, 
 8.235114626586437000E-3, 
 -2.409113105386495600E-3, 
 -1.280594523996114700E-2, 
 -8.742385543882847000E-3, 
 1.008643023669719700E-2, 
 -2.292698482051491700E-3, 
 2.170505002140999000E-2, 
 8.981924504041672000E-3, 
 7.835296913981438000E-3, 
 -6.217273417860269500E-3, 
 6.135283969342709000E-3, 
 -1.778225600719452000E-2, 
 -1.490764133632183000E-2, 
 -1.194020733237266500E-2, 
 9.642885066568851000E-3, 
 -1.639081537723541300E-2, 
 8.925328147597611000E-4, 
 5.747038521803916000E-4, 
 3.473058677627705000E-5, 
 -1.328994147479534100E-2, 
 -4.311073571443558000E-3, 
 -4.100046586245298000E-3, 
 -9.371040388941765000E-3, 
 1.592533476650715000E-2, 
 1.137321349233388900E-2, 
 1.014260575175285300E-2, 
 3.792146220803261000E-3, 
 -1.812416315078735400E-2, 
 -2.290217764675617200E-2, 
 -4.478136822581291000E-2, 
 -1.215707510709762600E-2, 
 1.783816888928413400E-2, 
 6.954892538487911000E-3, 
 -1.456984691321849800E-2, 
 1.868678070604801200E-2, 
 1.832889765501022300E-2, 
 -3.568520396947861000E-2, 
 3.626796184107661200E-3, 
 6.858737207949161500E-3, 
 -1.555435080081224400E-2, 
 4.149663145653903500E-4, 
 -1.627445966005325300E-2, 
 -2.068294398486614200E-2, 
 4.415050894021988000E-2, 
 -8.048246614634990000E-3, 
 -4.372554365545511000E-3, 
 1.950298622250557000E-2, 
 1.033111568540334700E-2, 
 3.148636594414711000E-2, 
 1.158385165035724600E-2, 
 -6.630197633057833000E-3, 
 3.523225197568536000E-3, 
 -1.146460976451635400E-2, 
 -1.953903026878833800E-2, 
 -1.361497305333614300E-2, 
 3.500512242317200000E-2, 
 3.018886316567659400E-3, 
 8.216147311031818000E-3, 
 2.940044505521655000E-4, 
 -2.629579976201057400E-2, 
 5.142813082784414000E-3, 
 -2.271513454616069800E-2, 
 2.685740776360035000E-2, 
 -1.919035334140062300E-3, 
 -1.077072788029909100E-2, 
 -5.582116544246674000E-3, 
 -7.877723313868046000E-3, 
 -7.881005294620990000E-3, 
 9.740087552927434000E-4, 
 -2.258476987481117200E-2, 
 -1.891078613698482500E-2, 
 -4.793637897819281000E-3, 
 -8.103559724986553000E-3, 
 3.054789267480373400E-3, 
 1.899621076881885500E-2, 
 -5.097117274999618500E-3, 
 -2.724186051636934300E-4, 
 -4.973640665411949000E-3, 
 -1.560705364681780300E-3, 
 5.520548671483993500E-3, 
 -2.715716511011123700E-2, 
 1.870157942175865000E-2, 
 -1.696665212512016300E-2, 
 -7.485232315957546000E-3, 
 -1.106525585055351300E-2, 
 -7.511499803513288500E-3, 
 3.284235298633575400E-2, 
 4.237755667418241500E-3, 
 8.789468556642532000E-3, 
 1.014725305140018500E-2, 
 -1.832697913050651600E-2, 
 -4.346096829976886500E-4, 
 -2.134511247277260000E-2, 
 -1.956458576023578600E-2, 
 2.354376483708620000E-3, 
 2.661128528416156800E-2, 
 -3.540252568200230600E-3, 
 4.959025420248508500E-3, 
 1.248517259955406200E-2, 
 2.975028473883867300E-3, 
 1.077746599912643400E-2, 
 1.095841266214847600E-2, 
 -2.322516590356826800E-2, 
 1.673769205808639500E-2, 
 4.054367914795875500E-2, 
 3.996154293417931000E-3, 
 8.925941772758960000E-3, 
 1.695240847766399400E-2, 
 -6.639370694756508000E-3, 
 -2.985012158751487700E-2, 
 1.687403419055044700E-3, 
 1.454041153192520100E-2, 
 1.747285947203636000E-2, 
 -3.575896099209785500E-2, 
 2.469375962391495700E-3, 
 -1.089253183454275100E-2, 
 -1.405642833560705200E-2, 
 -1.996987499296665000E-3, 
 -2.602392807602882400E-3, 
 6.564708426594734000E-3, 
 7.539380807429552000E-3, 
 -4.405956715345382700E-4, 
 9.217876009643078000E-3, 
 1.934262178838253000E-2, 
 3.753293771296739600E-3, 
 2.892064396291971000E-3, 
 -1.674270257353782700E-3, 
 1.218867022544145600E-2, 
 2.263203635811805700E-2, 
 -1.235184632241726000E-2, 
 3.670990932732820500E-3, 
 1.713952980935573600E-2, 
 -4.333719611167908000E-3, 
 6.178098730742931000E-3, 
 -1.900071278214454700E-2, 
 5.535786040127277000E-3, 
 3.300634445622563400E-3, 
 6.886824849061668000E-4, 
 -1.993354409933090200E-2, 
 -1.431659422814846000E-2, 
 -1.160854008048772800E-2, 
 -3.115475177764892600E-2, 
 -2.219367306679487200E-3, 
 2.087510377168655400E-2, 
 -9.169867262244225000E-3, 
 -1.859012432396412000E-2, 
 -1.343434676527977000E-2, 
 -2.266096696257591200E-2, 
 -7.284439168870449000E-3, 
 1.031423639506101600E-2, 
 2.432195236906409300E-3, 
 1.660090126097202300E-2, 
 -2.121533267199993000E-2, 
 -1.476444769650697700E-3, 
 2.421463653445244000E-2, 
 5.207760259509087000E-3, 
 1.829076185822487000E-2, 
 7.999999448657036000E-3, 
 -4.899069201201200500E-3, 
 2.395466528832912400E-2, 
 -1.374308392405510000E-2, 
 -2.448550984263420000E-2, 
 1.506164949387312000E-2, 
 -6.813702173531055500E-3, 
 -4.937489982694387400E-3, 
 -8.328049443662167000E-3, 
 -1.250793784856796300E-2, 
 4.112940747290850000E-3, 
 4.549589473754167600E-3, 
 1.422473229467868800E-2, 
 -2.306354790925979600E-2, 
 -2.863210625946521800E-2, 
 1.066844165325164800E-2, 
 1.114611607044935200E-2, 
 -1.899421215057373000E-2, 
 -3.006388247013092000E-2, 
 -7.524973625550047000E-5, 
 1.951401494443416600E-2, 
 4.443746525794268000E-3, 
 1.344140339642763100E-2, 
 -5.078272894024849000E-3, 
 -2.825722284615039800E-2, 
 1.708554662764072400E-2, 
 1.267105434089899000E-2, 
 1.821858994662761700E-2, 
 -1.798482262529432800E-4, 
 1.854369230568409000E-2, 
 -8.678976446390152000E-3, 
 -9.219011291861534000E-3, 
 -1.655610464513302000E-2, 
 -3.289127722382545500E-3, 
 8.957496029324830000E-4, 
 1.429415494203567500E-2, 
 -6.783769465982914000E-3, 
 3.796799108386039700E-3, 
 3.864063881337642700E-3, 
 -8.332127472385764000E-4, 
 -1.739185117185115800E-2, 
 -2.905750647187233000E-2, 
 1.264405716210603700E-2, 
 -1.993362791836261700E-2, 
 9.122984483838081000E-3, 
 -7.722144015133381000E-3, 
 4.661802574992180000E-2, 
 8.298600092530250000E-3, 
 3.394494205713272000E-2, 
 1.215951424092054400E-2, 
 4.398870281875133500E-3, 
 -1.249779947102069900E-2, 
 -2.486286219209432600E-3, 
 4.350032284855842600E-2, 
 -2.555205672979355000E-2, 
 1.076140208169818000E-3, 
 -7.385222241282463000E-3, 
 1.117864344269037200E-2, 
 -3.773296624422073400E-2, 
 6.145674735307693500E-3, 
 -8.296670392155647000E-3, 
 -2.374042756855487800E-2, 
 9.138149209320545000E-3, 
 -5.125205032527447000E-3, 
 -2.099324949085712400E-2, 
 -1.077931839972734500E-2, 
 3.959145769476890600E-2, 
 1.685347594320774000E-2, 
 -3.093700669705867800E-2, 
 -1.849641092121601000E-2, 
 -4.602526780217886000E-3, 
 -2.219039201736450200E-2, 
 2.127887867391109500E-2, 
 -2.505793794989586000E-2, 
 -3.540248796343803400E-2, 
 -7.317075040191412000E-3, 
 -8.600137196481228000E-3, 
 -2.650086022913456000E-2, 
 7.519118953496218000E-3, 
 3.317100554704666000E-2, 
 -1.659847982227802300E-2, 
 -1.240445417352020700E-3, 
 1.958013512194156600E-2, 
 7.440397515892982500E-3, 
 -1.435188762843608900E-2, 
 -1.768774352967739000E-2, 
 -1.070311386138200800E-2, 
 1.373260747641325000E-3, 
 2.117754425853491000E-3, 
 2.734352461993694300E-2, 
 8.023415692150593000E-3, 
 -2.787918550893664400E-3, 
 -1.798495836555957800E-2, 
 -1.743424683809280400E-2, 
 -1.273340638726949700E-2, 
 -1.174090546555817100E-3, 
 1.236733701080083800E-2, 
 8.241531322710216000E-4, 
 -1.504916884005069700E-2, 
 -3.093484416604042000E-2, 
 8.885143324732780000E-3, 
 -3.467245399951935000E-2, 
 2.726761624217033400E-2, 
 3.147819777950644500E-3, 
 -3.527307137846947000E-2, 
 -8.001498878002167000E-3, 
 -1.752585731446743000E-2, 
 1.212216634303331400E-2, 
 -2.312284521758556400E-2, 
 -3.309170482680201500E-3, 
 -1.155341789126396200E-2, 
 8.605024777352810000E-3, 
 -8.951098658144474000E-3, 
 3.483042120933532700E-3, 
 9.541260078549385000E-3, 
 -1.749866059981286500E-3, 
 2.510599233210086800E-2, 
 8.300386369228363000E-3, 
 3.770790528506040600E-3, 
 1.304968632757663700E-2, 
 3.106310963630676300E-2, 
 6.018782500177622000E-3, 
 -2.160337381064891800E-2, 
 2.243055403232574500E-2, 
 -3.071878338232636500E-3, 
 -3.334164991974830600E-2, 
 -3.000412834808230400E-3, 
 8.138197474181652000E-3, 
 -6.650771014392376000E-3, 
 1.425565406680107100E-2, 
 -1.074224896728992500E-2, 
 -1.354734040796756700E-2, 
 -6.123640108853579000E-3, 
 -3.360341070219874400E-3, 
 -3.704866161569953000E-3, 
 2.248135581612587000E-2, 
 9.709124453365803000E-3, 
 -3.106170566752553000E-3, 
 -1.728613674640655500E-2, 
 -1.652227900922298400E-2, 
 1.953003183007240300E-2, 
 -1.355165336281061200E-2, 
 5.704764276742935000E-3, 
 -1.130133774131536500E-2, 
 4.020929802209139000E-3, 
 5.040385201573372000E-2, 
 1.251331530511379200E-2, 
 2.523586712777614600E-2, 
 4.283542931079864500E-2, 
 -1.697447337210178400E-2, 
 2.287514740601182000E-3, 
 -2.224298194050789000E-2, 
 9.845745749771595000E-3, 
 2.255492145195603400E-3, 
 -1.321874279528856300E-2, 
 -9.053287794813514000E-4, 
 1.813974464312195800E-3, 
 3.757422789931297300E-3, 
 -1.502358727157116000E-2, 
 2.486807666718959800E-2, 
 -1.747499406337738000E-2, 
 3.534791176207363600E-4, 
 1.672750152647495300E-2, 
 2.263071760535240000E-2, 
 -2.519891224801540400E-2, 
 -1.543516875244677000E-3, 
 5.667536985129118000E-3, 
 4.866731166839599600E-2, 
 2.410192042589187600E-2, 
 -1.514921244233846700E-2, 
 1.261911820620298400E-2, 
 -1.411154214292764700E-2, 
 1.908040978014469000E-2, 
 2.782414294779300700E-2, 
 -2.987548476085067000E-3, 
 -7.593555492348969000E-4, 
 2.074248902499675800E-2, 
 -5.584418307989836000E-3, 
 1.132554095238447200E-2, 
 2.280615642666816700E-2, 
 -7.319782394915819000E-3, 
 1.062560454010963400E-2, 
 -8.002191781997680000E-3, 
 -2.529189223423600000E-3, 
 2.949628746137023000E-3, 
 1.522860862314701000E-2, 
 1.405489258468151100E-2, 
 4.391003772616386400E-2, 
 3.382530063390732000E-3, 
 1.542657800018787400E-2, 
 -3.649746626615524000E-2, 
 1.558293122798204400E-2, 
 1.017794478684663800E-2, 
 -5.062236916273832000E-3, 
 -3.299473784863949000E-3, 
 3.351856768131256000E-2, 
 4.302085377275944000E-3, 
 9.436706081032753000E-3, 
 -2.226934023201465600E-2, 
 1.258462481200695000E-2, 
 7.090420462191105000E-3, 
 1.948753930628299700E-2, 
 -3.268830012530088400E-3, 
 1.591696776449680300E-2, 
 2.393006347119808200E-2, 
 6.528951227664947500E-3, 
 -7.517392281442881000E-3, 
 2.144434116780758000E-2, 
 -2.317896485328674300E-2, 
 2.448855200782418300E-3, 
 -2.247797138988971700E-2, 
 -1.377807557582855200E-2, 
 1.237810403108596800E-2, 
 -4.286536481231451000E-3, 
 -3.170955181121826000E-2, 
 -2.447664737701416000E-2, 
 -4.286022856831551000E-3, 
 -1.998381689190864600E-2, 
 -1.051526330411434200E-2, 
 7.562959566712379500E-3, 
 -1.424014661461114900E-2, 
 -9.310494060628116000E-4, 
 1.726968586444854700E-2, 
 2.319180965423584000E-2, 
 -1.554358168505132200E-3, 
 5.936810048297048000E-4, 
 -3.814077703282237000E-3, 
 2.029010467231273700E-2, 
 -5.003828089684248000E-3, 
 7.384126074612141000E-3, 
 1.155086234211921700E-2, 
 1.176577433943748500E-2, 
 -4.730573389679193500E-3, 
 -7.595291361212730000E-3, 
 -2.867238596081733700E-3, 
 -1.410843920893967200E-3, 
 6.430019624531269000E-3, 
 2.153422310948372000E-2, 
 -1.954958960413932800E-2, 
 -1.552092097699642200E-2, 
 7.294585928320885000E-3, 
 -4.889387637376785000E-3, 
 -1.239560451358556700E-2, 
 9.717779234051704000E-3, 
 -1.627113856375217400E-2, 
 2.824931591749191300E-2, 
 1.275813486427068700E-2, 
 2.412538975477218600E-2, 
 -6.658343970775604000E-2, 
 -1.016524061560630800E-2, 
 4.453841224312782000E-2, 
 3.818691894412041000E-2, 
 1.813450455665588400E-2, 
 5.849276669323444000E-3, 
 -6.329435855150223000E-3, 
 1.224877871572971300E-2, 
 2.288986369967460600E-2, 
 -1.503930054605007200E-2, 
 1.356111466884613000E-2, 
 2.203009277582168600E-2, 
 -2.759981527924537700E-2, 
 3.419065847992897000E-3, 
 -5.891726352274418000E-3, 
 -8.857873268425465000E-3, 
 -2.179256640374660500E-2, 
 1.642966642975807200E-2, 
 8.668878115713596000E-3, 
 4.519364796578884000E-3, 
 -3.801676444709301000E-3, 
 1.766632078215479900E-3, 
 -2.646739035844803000E-2, 
 -7.361052092164755000E-3, 
 -3.658361732959747000E-2, 
 2.216224931180477000E-2, 
 6.703928811475635000E-4, 
 -2.114212512969970700E-2, 
 -5.748471594415605000E-4, 
 -4.977882839739323000E-3, 
 1.040404289960861200E-2, 
 -3.289802372455597000E-2, 
 1.533407717943191500E-2, 
 8.237859234213829000E-3, 
 8.366685360670090000E-3, 
 -1.349174138158559800E-2, 
 -4.377885255962610000E-3, 
 1.994663290679454800E-2, 
 2.156258560717106000E-2, 
 -2.486892510205507300E-3, 
 -6.482917524408549000E-5, 
 3.089964762330055200E-2, 
 -2.640327438712120000E-2, 
 -2.203223295509815200E-2, 
 9.121689945459366000E-3, 
 -6.729694083333015400E-3, 
 1.933081634342670400E-2, 
 -1.743988320231437700E-2, 
 -7.655407302081585000E-3, 
 -1.935487263835966600E-3, 
 -7.636817172169685000E-3, 
 3.730613971129060000E-3, 
 -9.329259046353400000E-4, 
 2.663263585418462800E-3, 
 -2.280176058411598200E-2, 
 -1.801441656425595300E-3, 
 1.000959146767854700E-2, 
 -2.005043067038059200E-2, 
 -1.838007010519504500E-2, 
 1.611853763461113000E-2, 
 3.122281050309539000E-3, 
 -3.450313583016395600E-2, 
 2.994971349835395800E-2, 
 -2.073645032942295000E-2, 
 1.288593746721744500E-2, 
 4.135350754950195600E-4, 
 -2.305598556995392000E-2, 
 -2.461710944771766700E-2, 
 2.409843914210796400E-2, 
 -2.707321196794510000E-3, 
 1.894253678619861600E-2, 
 1.802301849238574500E-3, 
 2.571400813758373300E-2, 
 1.853941194713115700E-2, 
 -1.007053721696138400E-2, 
 -9.007742628455162000E-3, 
 6.282869260758161500E-3, 
 1.528031472116708800E-2, 
 1.466034096665680400E-3, 
 1.724680536426603800E-3, 
 -3.081790404394269000E-3, 
 -2.724573202431202000E-2, 
 -9.460475295782090000E-3, 
 3.382262075319886000E-3, 
 8.047397248446941000E-3, 
 -1.537893991917371700E-2, 
 -1.661931164562702200E-2, 
 3.440643660724163000E-3, 
 -5.423512775450945000E-3, 
 1.822375133633613600E-2, 
 -1.739665120840072600E-2, 
 -1.363858487457037000E-2, 
 2.331355586647987400E-2, 
 -1.363403815776109700E-2, 
 -7.412379607558250000E-3, 
 2.477460308000445400E-3, 
 -4.378382116556168000E-3, 
 -2.034569717943668400E-2, 
 1.833591796457767500E-2, 
 5.446677096188068000E-3, 
 -4.325466230511665000E-2, 
 1.009537652134895300E-2, 
 1.449546893127262600E-3, 
 6.401375867426395000E-3, 
 -4.004031419754028000E-3, 
 -2.568323165178299000E-2, 
 7.498378865420818000E-3, 
 1.514106430113315600E-2, 
 1.085728220641613000E-2, 
 -1.884281821548938800E-2, 
 -3.159527108073234600E-2, 
 1.231506653130054500E-2, 
 -2.022178284823894500E-2, 
 -3.699991153553128200E-3, 
 -1.831603981554508200E-2, 
 -5.656306631863117000E-3, 
 1.402088999748230000E-2, 
 -1.890918612480163600E-2, 
 -1.785301044583320600E-2, 
 -1.560120936483144800E-2, 
 6.035201717168093000E-3, 
 -9.571709670126438000E-3, 
 -1.400418486446142200E-2, 
 -1.475267577916383700E-2, 
 -1.250363606959581400E-2, 
 5.541163031011820000E-3, 
 7.207718212157488000E-3, 
 -7.285058032721281000E-3, 
 -9.072344400919974000E-4, 
 2.103558741509914400E-2, 
 -2.799759060144424400E-2, 
 -1.598573289811611200E-2, 
 6.954538403078914000E-4, 
 -2.297850139439106000E-2, 
 -2.636728994548320800E-2, 
 2.472197078168392200E-2, 
 3.020904492586851000E-3, 
 -1.309963501989841500E-2, 
 -1.279425225220620600E-3, 
 -8.996432647109032000E-3, 
 6.229623220860958000E-3, 
 1.689119637012481700E-2, 
 -9.276725351810455000E-3, 
 1.753960922360420200E-2, 
 1.252277009189128900E-2, 
 1.056883856654167200E-2, 
 -5.119831860065460000E-2, 
 2.413496747612953200E-2, 
 -8.325457572937012000E-3, 
 1.027203816920518900E-2, 
 -1.076374668627977400E-2, 
 1.943126134574413300E-2, 
 -3.219297528266907000E-2, 
 1.023771241307258600E-2, 
 7.099229376763105000E-3, 
 -7.794644217938185000E-3, 
 7.279552519321442000E-3, 
 2.591199241578579000E-2, 
 -4.214279353618622000E-3, 
 1.564013399183750000E-2, 
 -1.851473748683929400E-2, 
 -4.417563229799270600E-2, 
 -2.853317186236381500E-3, 
 1.814752444624900800E-2, 
 2.496065339073538800E-3, 
 1.062860898673534400E-2, 
 7.044432684779167000E-3, 
 5.402580834925175000E-3, 
 2.788611454889178300E-4, 
 9.680035524070263000E-3, 
 -1.536304503679275500E-2, 
 2.466757595539093000E-2, 
 2.217495115473866500E-3, 
 1.286629866808652900E-2, 
 2.644896507263183600E-3, 
 -3.610866377130151000E-3, 
 -1.414916757494211200E-2, 
 3.402087464928627000E-2, 
 7.422706577926874000E-3, 
 -1.301598176360130300E-2, 
 -1.018654182553291300E-2, 
 8.010989986360073000E-3, 
 -6.559661589562893000E-3, 
 -8.709107525646687000E-3, 
 1.621858589351177200E-2, 
 -2.171465381979942300E-2, 
 3.125930204987526000E-3, 
 -7.926973514258862000E-3, 
 -6.403874605894089000E-3, 
 -1.732045039534568800E-2, 
 2.125497534871101400E-2, 
 7.196546532213688000E-3, 
 -8.557727560400963000E-3, 
 -7.839086465537548000E-3, 
 -1.228215079754591000E-2, 
 -9.414101950824260000E-3, 
 -1.098077511414885500E-3, 
 1.486269291490316400E-2, 
 -1.767098344862461000E-2, 
 -2.198950015008449600E-2, 
 5.422620568424463000E-3, 
 -7.315708789974451000E-3, 
 -4.825328011065721500E-3, 
 9.772342629730701000E-3, 
 -7.910511456429958000E-3, 
 1.981955766677856400E-2, 
 -1.122882124036550500E-3, 
 -3.919453173875809000E-2, 
 7.490419782698154400E-3, 
 1.797393709421158000E-2, 
 6.108728237450123000E-3, 
 1.320601999759674000E-2, 
 4.862266592681408000E-3, 
 9.190959855914116000E-3, 
 -1.637334376573562600E-2, 
 -2.190123079344630200E-3, 
 -8.957364596426487000E-3, 
 -9.386673569679260000E-3, 
 -1.376311411149799800E-3, 
 1.012457907199859600E-2, 
 -2.215542457997799000E-2, 
 -1.483118161559105000E-2, 
 2.040849253535270700E-2, 
 -9.630388580262661000E-3, 
 6.369280163198709500E-3, 
 2.394364587962627400E-2, 
 -9.710027836263180000E-3, 
 -1.665990427136421200E-2, 
 8.909301832318306000E-3, 
 5.802644416689873000E-3, 
 -1.053420174866914700E-2, 
 1.476896461099386200E-2, 
 5.305550293996930000E-4, 
 2.369817160069942500E-2, 
 -2.966781612485647000E-3, 
 2.114917896687984500E-2, 
 3.077050857245922000E-2, 
 -1.362493075430393200E-2, 
 2.683998085558414500E-2, 
 6.167208775877953000E-3, 
 -2.649788744747638700E-2, 
 2.424377482384443300E-3, 
 4.527626559138298000E-3, 
 1.707011461257934600E-2, 
 9.222551248967648000E-3, 
 -1.259544165804982200E-3, 
 -7.496384438127279000E-3, 
 1.290731877088546800E-2, 
 1.723481714725494400E-2, 
 -2.018305659294128400E-2, 
 2.762933028861880300E-3, 
 -4.200058989226818000E-3, 
 1.457320060580968900E-2, 
 2.309135161340236700E-3, 
 1.209005620330572100E-2, 
 3.973772749304771000E-3, 
 7.729126140475273000E-3, 
 2.474272856488824000E-3, 
 1.611553132534027000E-2, 
 9.993719868361950000E-3, 
 1.390696596354246100E-2, 
 -7.135880179703236000E-3, 
 -4.497900605201721000E-3, 
 -1.047591771930456200E-2, 
 8.499937132000923000E-3, 
 -6.335581187158823000E-3, 
 -3.603575378656387000E-2, 
 2.475291118025779700E-2, 
 -2.429847791790962200E-2, 
 1.155947893857956000E-2, 
 -6.363515276461840000E-3, 
 -2.339776791632175400E-2, 
 1.354769710451364500E-2, 
 1.376055926084518400E-2, 
 -1.243579294532537500E-2, 
 -9.049892425537110000E-3, 
 -3.193240845575928700E-3, 
 1.404385361820459400E-2, 
 4.714955575764179000E-3, 
 3.451929660513997000E-3, 
 6.272121798247099000E-3, 
 -3.041518386453390000E-3, 
 7.717655389569700000E-4, 
 -1.154000128735788200E-4, 
 -1.854698732495308000E-2, 
 -2.396581927314400700E-3, 
 -1.378745771944522900E-3, 
 -3.267192048951983500E-3, 
 -9.099505841732025000E-3, 
 1.621580496430397000E-2, 
 2.112644910812378000E-2, 
 2.720537036657333400E-2, 
 6.565362680703401600E-3, 
 -7.204735185950994500E-3, 
 1.463319640606641800E-2, 
 -1.768069900572300000E-2, 
 -4.066669847816229000E-3, 
 1.500984281301498400E-2, 
 1.654863171279430400E-2, 
 8.898520842194557000E-3, 
 2.305565960705280300E-2, 
 1.109459437429905000E-2, 
 2.232750505208969000E-2, 
 -2.413873327895999000E-3, 
 4.125665291212499000E-4, 
 -9.858428500592709000E-3, 
 -1.477305125445127500E-2, 
 1.183961704373359700E-2, 
 1.904925564303994200E-3, 
 -1.395329483784735200E-3, 
 5.757950711995363000E-3, 
 -8.883894421160221000E-3, 
 -5.490903276950121000E-4, 
 -2.852202669600956000E-5, 
 6.066428031772375000E-3, 
 -7.588453590869903600E-3, 
 7.322885096073151000E-3, 
 -1.380654796957969700E-2, 
 1.698548719286918600E-2, 
 2.911792602390051000E-3, 
 -1.178508391603827500E-3, 
 -9.367648512125015000E-3, 
 -1.954227499663829800E-2, 
 -4.431478679180145000E-3, 
 2.541833370923996000E-2, 
 1.464112009853124600E-2, 
 -1.025322172790765800E-2, 
 -7.131784688681364000E-3, 
 1.136562973260879500E-2, 
 9.527161717414856000E-3, 
 7.890328764915466000E-3, 
 -2.682340517640114000E-2, 
 5.418562144041061400E-2, 
 1.904006674885749800E-2, 
 -1.246567815542221000E-2, 
 2.571080578491091700E-3, 
 -1.360586658120155300E-2, 
 1.057461369782686200E-2, 
 -1.399317849427461600E-2, 
 -2.212621085345745000E-2, 
 -5.540843121707439000E-3, 
 -1.174646522849798200E-2, 
 1.025579520501196400E-3, 
 -1.453762967139482500E-2, 
 1.267384504899382600E-3, 
 6.340024527162313500E-3, 
 2.395150251686573000E-2, 
 1.505839638411998700E-2, 
 -3.531951690092683000E-3, 
 -1.045900397002697000E-2, 
 -1.677704276517033600E-3, 
 2.683219267055392300E-3, 
 -1.737541751936078000E-3, 
 -3.857601899653673000E-3, 
 -9.932297281920910000E-3, 
 -8.795782923698425000E-3, 
 9.258664213120937000E-3, 
 2.803403185680508600E-3, 
 4.774542059749365000E-3, 
 2.345720492303371400E-2, 
 -2.007945254445076000E-2, 
 3.496516263112426000E-3, 
 -1.656967587769031500E-2, 
 1.278416253626346600E-2, 
 -1.289286091923713700E-2, 
 9.597039781510830000E-3, 
 7.902977988123894000E-3, 
 -9.838168509304523000E-3, 
 2.368937805294990500E-2, 
 1.128543168306350700E-3, 
 -7.565602194517851000E-3, 
 -9.929566644132137000E-3, 
 -1.545371487736702000E-2, 
 2.481714077293873000E-2, 
 -1.444567553699016600E-2, 
 -2.818401716649532300E-2, 
 1.774424314498901400E-2, 
 -1.855066232383251200E-2, 
 -1.317398995161056500E-2, 
 8.318330161273480000E-3, 
 2.941434038802981400E-3, 
 -1.756335957907140300E-3, 
 -3.587608225643635000E-4, 
 1.718405447900295300E-2, 
 -4.979755263775587000E-3, 
 -8.027746342122555000E-3, 
 1.876177638769149800E-2, 
 -5.965335760265589000E-3, 
 3.948793746531010000E-3, 
 -1.610477338545024400E-3, 
 -1.989012770354747800E-2, 
 -1.361529063433408700E-2, 
 -7.980039343237877000E-3, 
 7.665233686566353000E-3, 
 2.061256021261215200E-2, 
 -5.117781111039221000E-4, 
 2.488787099719047500E-2, 
 -1.172679662704467800E-2, 
 5.504110828042030000E-3, 
 5.499584949575365000E-4, 
 8.694995194673538000E-3, 
 1.766187138855457300E-2, 
 -1.919830404222011600E-2, 
 -3.833052760455757400E-4, 
 1.947912573814392000E-2, 
 -2.672987803816795300E-2, 
 -1.885680598206818000E-3, 
 -1.558983605355024300E-2, 
 8.721914142370224000E-3, 
 1.686316356062889000E-2, 
 1.530099473893642400E-2, 
 -1.328001823276281400E-2, 
 4.771544598042965000E-3, 
 2.486258558928966500E-2, 
 2.946080174297094300E-3, 
 1.398473978042602500E-2, 
 -2.732536010444164300E-2, 
 5.072505678981543000E-3, 
 8.499070070683956000E-3, 
 5.793819669634104000E-3, 
 -3.865973558276891700E-3, 
 -4.193447995930910000E-3, 
 -3.240969730541110000E-3, 
 1.550300419330597000E-2, 
 8.527585305273533000E-4, 
 -1.463224645704031000E-2, 
 -5.411354359239340000E-3, 
 4.080698266625404400E-2, 
 1.773973181843757600E-2, 
 -1.217398047447204600E-2, 
 -2.740670740604400600E-2, 
 -6.600506603717804000E-3, 
 3.626845078542828600E-3, 
 3.133096173405647000E-2, 
 -1.334231719374656700E-2, 
 1.452434994280338300E-2, 
 1.583043369464576200E-3, 
 3.896948182955384300E-3, 
 -1.944888941943645500E-2, 
 -6.652305368334055000E-3, 
 -4.450963751878589400E-4, 
 -4.936230368912220000E-3, 
 -3.502290323376655600E-2, 
 -2.080225944519043000E-2, 
 -6.491102278232574500E-3, 
 -1.363334711641073200E-2, 
 1.574050285853445500E-3, 
 2.774559194222092600E-3, 
 1.171638071537017800E-2, 
 -2.628559013828635000E-3, 
 1.223782543092966000E-2, 
 -7.690697908401489000E-3, 
 -8.771014399826527000E-3, 
 -1.107545942068100000E-2, 
 -3.006802638992667000E-3, 
 -6.119405850768089000E-3, 
 -2.256512269377708400E-2, 
 -3.984626382589340000E-3, 
 2.601587958633899700E-2, 
 -8.115653879940510000E-3, 
 -1.223856001161038900E-3, 
 -1.163095980882644700E-2, 
 -9.133440442383290000E-3, 
 5.251588299870491000E-3, 
 1.059315633028745700E-2, 
 2.564349444583058400E-3, 
 2.279438544064760000E-3, 
 -1.290961541235447000E-2, 
 -1.825191453099250800E-2, 
 1.941215060651302300E-2, 
 1.580622605979442600E-2, 
 -1.664485409855842600E-2, 
 9.497700259089470000E-3, 
 9.027676656842232000E-3, 
 -1.831372268497944000E-2, 
 -1.030933856964111300E-2, 
 2.255844417959451700E-3, 
 -8.892162702977657000E-3, 
 1.076521165668964400E-2, 
 9.506386704742908000E-3, 
 -5.945759359747171000E-3, 
 -1.850396022200584400E-2, 
 -4.582847934216261000E-3, 
 -2.436368167400360000E-2, 
 1.634174957871437000E-2, 
 -1.633945386856794400E-3, 
 1.820133649744093400E-3, 
 1.126267481595277800E-2, 
 -3.903055563569069000E-2, 
 1.255923043936491000E-2, 
 1.507488172501325600E-2, 
 -1.169721595942974100E-2, 
 -3.159506712108850500E-3, 
 4.405607283115387000E-2, 
 1.102895010262727700E-3, 
 -1.271202508360147500E-2, 
 -4.062853753566742000E-3, 
 -2.484712284058332400E-3, 
 7.171486970037222000E-3, 
 1.308328006416559200E-3, 
 -8.610712364315987000E-3, 
 -9.235826320946217000E-3, 
 -3.465796262025833000E-2, 
 -2.211722172796726200E-2, 
 -4.706765990704298000E-3, 
 -3.242935240268707000E-2, 
 -9.867287240922451000E-3, 
 -3.600920084863901000E-3, 
 -3.160128742456436000E-2, 
 -8.007043041288853000E-3, 
 1.908599585294723500E-2, 
 -1.157314423471689200E-2, 
 1.476128678768873200E-2, 
 -1.517868693917989700E-2, 
 1.119753438979387300E-2, 
 1.233250182121992100E-2, 
 1.260548457503318800E-2, 
 -1.772130466997623400E-2, 
 1.539732329547405200E-2, 
 -8.234316483139992000E-3, 
 -2.096539735794067400E-2, 
 4.114843439310789000E-3, 
 4.741536919027567000E-3, 
 -1.516937743872404100E-2, 
 -5.260755773633718500E-3, 
 -6.830536760389805000E-3, 
 -4.776995629072189000E-3, 
 5.167819326743484000E-4, 
 -3.156824037432670600E-2, 
 -1.452403701841831200E-2, 
 -7.214995566755533000E-3, 
 -6.517639849334955000E-3, 
 8.119434351101518000E-4, 
 -3.496689721941948000E-2, 
 -4.365354543551802600E-4, 
 -1.576563157141208600E-2, 
 1.838880404829979000E-2, 
 -2.254015207290649400E-2, 
 1.614728011190891300E-2, 
 -8.145560510456562000E-3, 
 -1.472056610509753200E-3, 
 9.511077776551247000E-3, 
 -1.165464892983436600E-2, 
 -8.653870783746243000E-3, 
 -2.262194827198982200E-2, 
 7.909013889729977000E-3, 
 4.081936553120613000E-3, 
 1.037075649946928000E-2, 
 1.413620635867118800E-2, 
 -8.157078991644084000E-4, 
 4.609315656125545500E-4, 
 7.562114857137203000E-3, 
 7.451907149516046000E-4, 
 4.533793835435062600E-4, 
 1.110070571303367600E-2, 
 2.190368622541427600E-2, 
 9.658584371209145000E-3, 
 1.066012121737003300E-2, 
 1.137780956923961600E-2, 
 -1.308325864374637600E-2, 
 -1.195571571588516200E-2, 
 -5.582076031714678000E-3, 
 9.015343384817243000E-4, 
 1.765412464737892000E-2, 
 2.471390471328050000E-4, 
 1.373754348605871200E-2, 
 1.206789165735244800E-2, 
 1.260440424084663400E-2, 
 8.213212713599205000E-3, 
 -3.066332312300801300E-3, 
 1.599777489900589000E-3, 
 3.059386648237705200E-2, 
 8.313219062983990000E-3, 
 -5.358702968806028000E-3, 
 -1.432516518980264700E-2, 
 3.463857993483543400E-2, 
 1.879068836569786000E-2, 
 -9.047445841133595000E-3, 
 -6.506283767521381000E-3, 
 -5.104696028865874000E-4, 
 -1.951762475073337600E-2, 
 -2.393778041005134600E-2, 
 -5.619286559522152000E-3, 
 -3.813424380496144300E-3, 
 9.859732352197170000E-3, 
 -7.622892502695322000E-3, 
 8.817247115075588000E-3, 
 1.507788547314703500E-3, 
 -9.706410928629339000E-4, 
 -2.390736714005470300E-3, 
 3.585573984310031000E-3, 
 1.038007903844118100E-2, 
 -1.343589182943105700E-2, 
 9.337740018963814000E-3, 
 4.868810996413231000E-3, 
 3.469965653494000400E-3, 
 -7.715798448771238000E-3, 
 -2.908905223011970500E-2, 
 -7.070598192512989000E-3, 
 1.766644231975078600E-2, 
 -9.861248545348644000E-3, 
 2.860858850181102800E-2, 
 -2.836133539676666300E-2, 
 4.733206704258919000E-3, 
 2.593938633799553000E-2, 
 1.121650077402591700E-2, 
 -5.602337885648012000E-3, 
 1.011396944522857700E-2, 
 1.229148171842098200E-2, 
 2.840708475559950000E-3, 
 -6.697489880025387000E-3, 
 1.660982891917228700E-2, 
 6.317750550806522000E-3, 
 -1.655590720474720000E-2, 
 -3.023685887455940200E-2, 
 -3.109402954578399700E-3, 
 1.351375598460435900E-2, 
 -1.019852235913276700E-2, 
 1.195151358842849700E-2, 
 -6.745816208422184000E-4, 
 9.034947725012898000E-4, 
 3.573180874809622800E-3, 
 3.186588361859321600E-2, 
 1.623493246734142300E-2, 
 -4.812178667634726000E-3, 
 8.838027715682983000E-3, 
 9.159487672150135000E-3, 
 -3.215066716074943500E-2, 
 2.050612680613994600E-2, 
 -1.868608174845576300E-3, 
 -1.035173144191503500E-2, 
 1.307688280940055800E-2, 
 2.066595852375030500E-2, 
 -4.516945220530033000E-3, 
 -8.174588903784752000E-3, 
 9.523118846118450000E-3, 
 1.856063143350184000E-3, 
 2.328731492161750800E-2, 
 2.428200282156467400E-2, 
 -1.921596936881542200E-2, 
 5.317103117704391500E-3, 
 2.377201430499553700E-2, 
 -5.309030413627624500E-3, 
 -7.281465921550989000E-3, 
 4.185847006738186000E-3, 
 -4.334803204983473000E-3, 
 -1.181654911488294600E-2, 
 -2.470792084932327300E-2, 
 2.693116664886474600E-2, 
 1.507368963211774800E-2, 
 1.276032300665974600E-3, 
 4.488200880587101000E-3, 
 -1.933563128113746600E-2, 
 -2.228000573813915300E-2, 
 -5.327166523784399000E-3, 
 -3.886600490659475300E-3, 
 2.720550447702408000E-2, 
 4.831193014979362500E-2, 
 -2.288475167006254000E-3, 
 -2.945765480399131800E-2, 
 -3.305460559204220800E-3, 
 7.763116620481014000E-3, 
 4.913472570478916000E-3, 
 -2.010540291666984600E-2, 
 2.857499755918979600E-3, 
 4.981234669685364000E-3, 
 5.346070043742657000E-3, 
 5.052107851952314000E-3, 
 -4.815291985869408000E-2, 
 -3.716696426272392000E-2, 
 -8.318488253280520000E-4, 
 2.545672282576561000E-2, 
 -3.200341947376728000E-3, 
 5.589095875620842000E-3, 
 1.911831088364124300E-3, 
 1.173905003815889400E-2, 
 7.366043515503406500E-3, 
 -9.939935989677906000E-3, 
 1.350077707320451700E-2, 
 1.855406723916530600E-2, 
 -5.753373727202415500E-3, 
 9.058963507413864000E-3, 
 4.347294569015503000E-3, 
 2.833997597917914400E-3, 
 3.088327939622104000E-4, 
 2.069849148392677300E-2, 
 1.469161827117204700E-3, 
 1.755716651678085300E-2, 
 2.770896814763546000E-2, 
 1.691835117526352400E-3, 
 -2.350634336471557600E-2, 
 1.615376025438308700E-2, 
 -1.531073357909917800E-4, 
 2.381910011172294600E-2, 
 1.232312805950641600E-2, 
 -9.097483940422535000E-3, 
 9.361407719552517000E-3, 
 4.062908235937357000E-3, 
 2.131171757355332400E-3, 
 -1.595553569495678000E-2, 
 -3.504827152937650700E-3, 
 4.412549734115600600E-2, 
 1.471247617155313500E-2, 
 1.248159445822239000E-2, 
 -1.473915646784007500E-3, 
 -9.776712395250797000E-3, 
 -1.516478136181831400E-2, 
 -1.844918727874756000E-2, 
 6.008922588080168000E-3, 
 2.164281206205487300E-3, 
 1.982327550649643000E-2, 
 -3.471822477877140000E-3, 
 -3.654798259958625000E-3, 
 3.280659206211567000E-3, 
 -1.398267783224582700E-2, 
 -6.271868012845516000E-3, 
 -1.581241004168987300E-2, 
 -4.929361864924431000E-3, 
 -7.958062924444675000E-3, 
 2.207295037806034000E-2, 
 -3.215494379401207000E-2, 
 -2.130126580595970000E-2, 
 1.322490349411964400E-2, 
 1.050191465765237800E-2, 
 -3.596682334318757000E-3, 
 9.486624039709568000E-3, 
 9.500239975750446000E-3, 
 -9.260421618819237000E-3, 
 1.834759674966335300E-2, 
 -1.331506017595529600E-2, 
 2.658229693770408600E-2, 
 -1.915487833321094500E-2, 
 9.556347504258156000E-4, 
 2.455938421189785000E-2, 
 8.933856151998043000E-3, 
 1.517235301434993700E-2, 
 7.697244174778461500E-3, 
 -2.479782141745090500E-2, 
 -7.572537288069725000E-3, 
 -2.474239282310009000E-2, 
 -1.597953774034977000E-2, 
 1.424259599298238800E-2, 
 -1.382749155163765000E-2, 
 -1.989539340138435400E-2, 
 3.030556021258235000E-3, 
 2.180130453780293500E-3, 
 -2.591789886355400000E-2, 
 -2.544412622228265000E-3, 
 1.761429011821746800E-2, 
 8.489762432873249000E-3, 
 7.231284398585558000E-3, 
 -1.434316113591194200E-2, 
 3.299885429441929000E-3, 
 -3.871530061587691300E-3, 
 -4.279962740838528000E-3, 
 2.757142763584852200E-3, 
 1.026177033782005300E-2, 
 -6.269473582506180000E-3, 
 2.341698668897152000E-2, 
 1.479823980480432500E-2, 
 1.376119721680879600E-2, 
 2.426150627434253700E-2, 
 -1.125823892652988400E-2, 
 -6.585419643670320500E-3, 
 -2.367525594308972400E-3, 
 1.819220744073391000E-2, 
 4.415905848145485000E-2, 
 2.017550170421600300E-2, 
 -1.380659174174070400E-2, 
 2.118775993585586500E-2, 
 -5.065669305622578000E-3, 
 -1.621432043612003300E-2, 
 -4.369954019784927400E-2, 
 6.852444726973772000E-3, 
 9.087081067264080000E-3, 
 8.919260464608670000E-3, 
 -6.176708731800318000E-3, 
 -4.989986307919025000E-3, 
 -9.563744999468327000E-3, 
 -3.531005233526230000E-3, 
 3.932183142751455000E-3, 
 -1.688041165471077000E-2, 
 -2.313966490328312000E-2, 
 6.551140453666449000E-3, 
 -1.760363951325416600E-2, 
 -1.452253852039575600E-2, 
 1.960498280823230700E-2, 
 -6.538857240229845000E-3, 
 2.234174124896526300E-2, 
 -5.786978872492909000E-4, 
 -3.331056237220764000E-2, 
 -4.988058935850859000E-3, 
 -2.012608014047146000E-2, 
 -1.636923477053642300E-2, 
 2.229098463431000700E-3, 
 1.788887195289135000E-2, 
 -1.655230671167373700E-2, 
 1.083367690443992600E-2, 
 2.728930849116295600E-4, 
 1.932388637214899000E-3, 
 1.501056738197803500E-2, 
 -5.001966375857592000E-3, 
 1.641745562665164500E-3, 
 -9.199399501085281000E-3, 
 -2.108002454042434700E-2, 
 -1.044574193656444500E-2, 
 8.161620236933231000E-3, 
 1.035314169712364700E-3, 
 -7.080802693963051000E-3, 
 -8.164981845766306000E-4, 
 1.267614215612411500E-2, 
 -1.586043648421764400E-2, 
 -8.779743802733719000E-4, 
 1.495176553726196300E-2, 
 1.442193053662777000E-2, 
 -1.665002293884754200E-2, 
 -6.455438677221537000E-3, 
 -5.816348828375339500E-3, 
 4.404914565384388000E-3, 
 1.128571573644876500E-2, 
 1.944487728178501000E-2, 
 1.206220500171184500E-2, 
 2.288326807320118000E-2, 
 -9.149755351245403000E-3, 
 -2.006270922720432300E-2, 
 -8.227686630561948000E-4, 
 3.873077221214771000E-4, 
 -1.346199307590723000E-3, 
 -3.735121572390198700E-3, 
 -9.674473665654660000E-3, 
 -9.273772127926350000E-3, 
 3.528938395902514500E-3, 
 8.792763575911522000E-3, 
 -4.890376585535705000E-4, 
 3.246598178520798700E-3, 
 -7.190953474491835000E-3, 
 -5.614468362182379000E-3, 
 -1.343526877462864000E-3, 
 1.717814244329929400E-2, 
 -1.418101508170366300E-2, 
 1.613007299602031700E-2, 
 -2.777245128527283700E-3, 
 -5.878506693989038500E-3, 
 5.442216992378235000E-3, 
 -2.447798382490873300E-3, 
 -5.118364351801574000E-4, 
 -8.393273688852787000E-3, 
 2.812689542770385700E-2, 
 -1.559116318821907000E-2, 
 2.349442103877663600E-3, 
 -4.002229310572147000E-3, 
 3.524282015860080700E-3, 
 -1.698616519570350600E-2, 
 8.044766262173653000E-3, 
 -2.565744519233703600E-2, 
 2.033559419214725500E-2, 
 -2.886265143752098000E-2, 
 -1.316972263157367700E-2, 
 1.764436997473240000E-2, 
 -7.462430745363235500E-3, 
 -2.182361856102943400E-2, 
 7.717482279986143000E-3, 
 -1.829573325812816600E-2, 
 8.261097595095634000E-3, 
 -8.921559900045395000E-3, 
 -2.579215914011001600E-2, 
 -3.432872146368027000E-2, 
 8.994719828478992000E-4, 
 5.839666817337274600E-3, 
 1.314145792275667200E-2, 
 1.737315207719803000E-2, 
 1.805639639496803300E-2, 
 2.082870528101921000E-2, 
 1.420708838850259800E-2, 
 1.480597350746393200E-2, 
 3.223348408937454000E-2, 
 1.980416290462017000E-2, 
 -1.634104922413826000E-2, 
 -1.106376759707927700E-3, 
 -2.684333920478820800E-2, 
 3.891437780112028000E-3, 
 -1.413187291473150300E-2, 
 -9.358079172670841000E-3, 
 2.818484790623188000E-2, 
 -1.423212420195341100E-2, 
 -2.813522005453706000E-3, 
 2.418564073741436000E-2, 
 5.937071517109871000E-3, 
 9.087509475648403000E-3, 
 -1.267341990023851400E-2, 
 -2.114933216944337000E-3, 
 -7.710796780884266000E-3, 
 -1.695945113897323600E-2, 
 -1.309913583099842000E-2, 
 1.146377157419920000E-2, 
 -4.872789140790701000E-3, 
 -8.069006726145744000E-3, 
 -2.895821258425712600E-2, 
 2.277466468513012000E-2, 
 -2.721776021644473000E-3, 
 1.935654785484075500E-3, 
 3.050263039767742000E-2, 
 -1.976745575666427600E-2, 
 2.565627731382847000E-2, 
 -8.169632405042648000E-3, 
 6.124131614342332000E-4, 
 1.006812788546085400E-2, 
 -8.819287642836570000E-3, 
 1.736489869654178600E-2, 
 6.555701140314341000E-3, 
 -3.108353540301323000E-2, 
 2.507508918642997700E-2, 
 1.986243203282356300E-2, 
 -4.971846193075180000E-2, 
 1.289753057062625900E-2, 
 -1.597421802580356600E-2, 
 2.325532026588916800E-2, 
 -1.578576117753982500E-2, 
 -2.275896444916725000E-2, 
 1.001533772796392400E-2, 
 6.340628606267273000E-4, 
 1.395700406283140200E-2, 
 -1.724752411246299700E-2, 
 -1.024267077445983900E-2, 
 4.412669222801924000E-3, 
 1.971199177205562600E-2, 
 -9.620755910873413000E-3, 
 7.064856123179197000E-3, 
 9.846063330769539000E-3, 
 2.028592489659786200E-2, 
 2.053077332675457000E-3, 
 1.928123645484447500E-2, 
 -5.713747348636389000E-3, 
 1.026854850351810500E-2, 
 -2.217830158770084400E-2, 
 -1.842987723648548100E-3, 
 -2.809525467455387000E-2, 
 -9.614476002752781000E-3, 
 1.496380940079689000E-2, 
 -9.280627593398094000E-3, 
 4.239512607455254000E-3, 
 -2.253463119268417400E-2, 
 2.663577347993850700E-2, 
 3.530858829617500000E-2, 
 4.872574936598539000E-3, 
 4.772601649165153500E-3, 
 1.601389795541763300E-2, 
 -3.357076644897461000E-2, 
 2.324971370398998300E-2, 
 3.715080767869949000E-2, 
 -6.933250115253031000E-4, 
 9.564523585140705000E-3, 
 1.318879425525665300E-2, 
 3.847817331552505500E-2, 
 -4.123094957321882000E-3, 
 2.598363207653165000E-3, 
 -1.534389797598123600E-2, 
 -1.958663109689951000E-3, 
 1.166987419128418000E-2, 
 1.666993834078312000E-2, 
 -2.823418704792857000E-3, 
 -5.814861506223679000E-3, 
 -1.605577021837234500E-2, 
 1.372045651078224200E-2, 
 -3.182004205882549300E-3, 
 -8.533783839084208000E-4, 
 -2.504009753465652500E-2, 
 -6.008458789438009000E-3, 
 1.740868575870990800E-2, 
 -1.519702747464180000E-2, 
 7.821630686521530000E-3, 
 -7.474387995898724000E-3, 
 -1.313446555286645900E-2, 
 2.253611804917454700E-3, 
 -1.311927195638418200E-2, 
 -7.076949346810579000E-3, 
 8.449490182101727000E-3, 
 -1.845416799187660200E-2, 
 6.784519180655479000E-3, 
 6.655763834714889500E-3, 
 1.543792244046926500E-2, 
 -9.004243649542332000E-3, 
 -1.720049232244491600E-2, 
 -2.415060065686702700E-3, 
 -1.938674971461296000E-2, 
 1.414929516613483400E-2, 
 1.965893059968948400E-2, 
 -1.876973547041416000E-2, 
 1.416091434657573700E-2, 
 3.098842455074191000E-3, 
 -1.146235596388578400E-2, 
 -1.195628289133310300E-2, 
 2.724367193877697000E-2, 
 -1.425150968134403200E-2, 
 1.563172414898872400E-2, 
 2.857835777103901000E-2, 
 -1.137364376336336100E-2, 
 -4.861580207943916000E-2, 
 -1.454860554076731200E-3, 
 2.460595406591892200E-2, 
 6.642133928835392000E-3, 
 -4.171180538833141000E-3, 
 -4.517264198511839000E-3, 
 1.734831370413303400E-2, 
 1.439908333122730300E-2, 
 6.530497223138809000E-3, 
 1.300112530589103700E-2, 
 1.081068534404039400E-3, 
 -3.452342748641968000E-2, 
 9.468494914472103000E-3, 
 1.008571498095989200E-2, 
 2.045848779380321500E-2, 
 2.136034332215786000E-2, 
 -7.466473616659641000E-3, 
 6.333827972412109000E-3, 
 -9.912806563079357000E-3, 
 -1.730532385408878300E-2, 
 4.920349922031164000E-3, 
 -1.792406290769577000E-2, 
 -1.343139447271823900E-3, 
 -5.199130973778665000E-4, 
 2.039668150246143300E-3, 
 4.221643321216106000E-3, 
 -2.311586588621139500E-2, 
 -1.472451724112033800E-2, 
 2.118085324764251700E-2, 
 -7.781439926475286500E-3, 
 6.958414800465107000E-3, 
 2.412462374195456500E-3, 
 -2.273335820063948600E-3, 
 -2.684595063328743000E-2, 
 8.241578936576843000E-3, 
 -1.663982681930065000E-2, 
 -7.416029460728168500E-3, 
 5.833368748426437000E-3, 
 -1.142011115007335300E-5, 
 2.234375569969415700E-3, 
 -9.199663065373898000E-3, 
 -7.122363429516554000E-3, 
 1.773674786090851000E-2, 
 8.178171701729298000E-3, 
 8.143408223986626000E-3, 
 7.929354906082153000E-3, 
 5.739547777920961000E-3, 
 -2.711812499910593000E-3, 
 -1.401223335415124900E-2, 
 2.488517574965954000E-2, 
 2.564370399340987000E-3, 
 -1.341117080301046400E-3, 
 3.241467103362083400E-2, 
 -9.255391545593739000E-3, 
 -1.550593040883541100E-2, 
 -5.472026299685240000E-3, 
 1.680053584277630000E-2, 
 -9.808916365727782000E-4, 
 -9.560798294842243000E-3, 
 -9.893050882965326000E-4, 
 -1.708075031638145400E-2, 
 -1.316001079976558700E-2, 
 -3.014316782355308500E-3, 
 3.014555200934410000E-2, 
 2.749044261872768400E-2, 
 1.470146700739860500E-2, 
 -1.015458069741726000E-2, 
 8.404044434428215000E-3, 
 4.445671569555998000E-3, 
 -8.427393622696400000E-3, 
 1.755925267934799200E-2, 
 3.526380658149719000E-2, 
 2.288491930812597300E-3, 
 5.933279637247324000E-3, 
 6.186367478221655000E-3, 
 7.568125613033771500E-3, 
 -1.056616567075252500E-2, 
 -5.152596160769463000E-3, 
 6.825293414294720000E-3, 
 2.401511371135711700E-2, 
 -4.807454533874988600E-3, 
 1.443029846996069000E-2, 
 5.998906213790178000E-3, 
 1.388440094888210300E-2, 
 -2.428793814033270000E-3, 
 -1.833278685808181800E-2, 
 1.076943520456552500E-2, 
 5.882980301976204000E-3, 
 1.018946431577205700E-2, 
 5.449851509183645000E-3, 
 -6.493664346635342000E-3, 
 -1.126105524599552200E-2, 
 2.073761075735092000E-3, 
 4.093349445611238500E-3, 
 -9.173245169222355000E-3, 
 3.360221860930323600E-3, 
 -3.198554366827011000E-2, 
 3.941486356779933000E-4, 
 -1.126982271671295200E-2, 
 -2.927833981812000300E-2, 
 -1.239709090441465400E-2, 
 9.154330473393202000E-4, 
 1.894658803939819300E-2, 
 1.662151701748371000E-2, 
 7.019284646958113000E-3, 
 2.199730649590492200E-2, 
 1.705396734178066300E-2, 
 7.117017637938261000E-3, 
 3.370664641261101000E-2, 
 2.446129545569420000E-2, 
 3.929827362298965500E-3, 
 -2.366253174841404000E-2, 
 1.255725231021642700E-2, 
 -1.418596599251031900E-3, 
 -1.282790396362543100E-2, 
 1.510485913604497900E-2, 
 -1.614692248404026000E-2, 
 3.643747046589851400E-2, 
 6.109740585088730000E-3, 
 1.566900755278766200E-3, 
 -1.514196395874023400E-3, 
 -2.180663123726844800E-2, 
 -2.519862540066242200E-2, 
 1.885962672531604800E-2, 
 -1.951319724321365400E-2, 
 1.508476398885250100E-2, 
 4.065041895955801000E-3, 
 -1.932673715054989000E-2, 
 1.650761254131794000E-2, 
 -2.089188434183597600E-2, 
 -1.083050575107336000E-2, 
 -5.768944043666124000E-3, 
 -1.032802276313304900E-2, 
 -1.167462766170501700E-2, 
 -1.792711019515991200E-2, 
 3.686919063329697000E-2, 
 -5.951317492872477000E-3, 
 2.851563505828380600E-2, 
 -2.526620402932167000E-3, 
 -3.320695832371712000E-2, 
 -3.342836350202560400E-2, 
 1.510443910956382800E-2, 
 -2.045307308435440000E-2, 
 2.300109248608350800E-3, 
 -1.173438783735036800E-2, 
 -2.892435155808925600E-2, 
 -2.248531952500343300E-2, 
 -2.682986436411738400E-3, 
 5.839753430336714000E-3, 
 2.749522682279348400E-3, 
 9.925177320837975000E-3, 
 1.094796136021614000E-2, 
 -1.716511510312557200E-2, 
 -1.142022665590047800E-2, 
 2.646399475634098000E-2, 
 -1.422794768586754800E-3, 
 1.059082802385091800E-2, 
 8.507639169692993000E-3, 
 1.080589741468429600E-2, 
 3.824783489108085600E-2, 
 1.012948527932167000E-2, 
 -2.820277120918035500E-3, 
 -2.743192599155009000E-4, 
 1.120903808623552300E-2, 
 2.843193709850311300E-2, 
 -2.528605051338672600E-2, 
 3.380298614501953000E-2, 
 3.172771632671356000E-2, 
 1.097525842487812000E-2, 
 -3.128411015495658000E-3, 
 1.780625781975686600E-3, 
 1.018918305635452300E-2, 
 1.145508140325546300E-2, 
 -1.717081852257251700E-2, 
 -2.040195744484663000E-3, 
 -1.387196965515613600E-2, 
 -2.301224973052740000E-3, 
 1.892173849046230300E-2, 
 -6.170399021357298000E-3, 
 3.357894718647003000E-3, 
 1.296600233763456300E-2, 
 -1.149703934788704000E-2, 
 -1.169764809310436200E-2, 
 1.749239629134535800E-3, 
 1.329615898430347400E-2, 
 -8.151165209710598000E-3, 
 1.780224614776671000E-3, 
 -4.604542627930641000E-3, 
 -6.849423516541719400E-3, 
 1.798199862241745000E-2, 
 5.596435628831386600E-3, 
 -8.840540423989296000E-3, 
 2.165761590003967300E-2, 
 -2.464435063302517000E-2, 
 1.769628003239631700E-2, 
 1.196895912289619400E-2, 
 2.631580270826816600E-2, 
 1.933311484754085500E-2, 
 -9.807060472667217000E-3, 
 5.890582688152790000E-3, 
 -1.907191798090934800E-2, 
 1.087597664445638700E-2, 
 -2.047244459390640300E-2, 
 -1.804537605494260800E-3, 
 3.669766010716557500E-3, 
 3.881160169839859000E-2, 
 -1.281751040369272200E-2, 
 4.320423305034637500E-2, 
 1.549835409969091400E-2, 
 -6.348277442157268500E-3, 
 6.946546491235495000E-3, 
 2.170566003769636000E-3, 
 -2.468640729784965500E-2, 
 -2.361052902415394800E-4, 
 -1.488394662737846400E-2, 
 2.207747101783752400E-2, 
 1.591575518250465400E-2, 
 4.752772394567728000E-3, 
 4.091188777238131000E-3, 
 1.254733186215162300E-2, 
 -8.852984756231308000E-3, 
 -1.796849817037582400E-2, 
 -1.349920406937599200E-2, 
 -1.319709327071905100E-2, 
 -4.803486168384552000E-3, 
 -2.534894971176982000E-3, 
 -9.694859385490417000E-3, 
 1.564883626997471000E-2, 
 1.104747061617672400E-3, 
 -1.019793003797531100E-2, 
 -9.223656728863716000E-3, 
 -7.024728110991418000E-4, 
 -6.403725128620863000E-3, 
 5.516062024980783500E-3, 
 -5.546753294765949000E-3, 
 -3.341265022754669000E-3, 
 -6.741879624314606000E-4, 
 2.133657224476337400E-2, 
 2.369902795180678400E-3, 
 1.429883763194084200E-3, 
 -8.178122341632843000E-3, 
 -8.651444688439370000E-3, 
 1.091882679611444500E-2, 
 4.638040263671428000E-4, 
 2.172465808689594300E-2, 
 5.104600451886654000E-3, 
 -1.577182300388813000E-2, 
 -3.801590204238891600E-2, 
 1.578630297444760800E-3, 
 1.956585947482381000E-5, 
 8.884366834536195000E-4, 
 -9.834723547101020000E-3, 
 -1.014622766524553300E-2, 
 1.543076895177364300E-2, 
 1.966608688235283000E-2, 
 3.087589330971241000E-2, 
 5.587588530033827000E-3, 
 -2.179891429841518400E-2, 
 1.192674972116947200E-2, 
 4.062500782310963000E-3, 
 -1.977312192320823700E-2, 
 -2.585111930966377300E-2, 
 6.820809561759233500E-3, 
 -1.742692850530147600E-2, 
 1.581904664635658300E-2, 
 -1.124460759456269400E-4, 
 -6.069684401154518000E-3, 
 -9.970245882868767000E-4, 
 3.243826702237129000E-2, 
 -8.070549927651882000E-3, 
 1.040486805140972100E-2, 
 1.250212546437978700E-2, 
 2.277805469930172000E-2, 
 3.254170715808868400E-2, 
 2.097934670746326400E-2, 
 3.458852320909500000E-2, 
 -2.368268556892872000E-2, 
 -8.083494380116463000E-3, 
 1.040340960025787400E-2, 
 -5.909116473048925000E-3, 
 -1.106728240847587600E-2, 
 -3.762321313843131000E-3, 
 -1.329303532838821400E-2, 
 -3.479788312688470000E-3, 
 -1.453948020935058600E-2, 
 5.139967426657677000E-3, 
 -2.219602232798934000E-3, 
 2.626042813062668000E-2, 
 -9.006997570395470000E-3, 
 8.959734812378883000E-3, 
 6.410954985767603000E-3, 
 -1.590760238468647000E-2, 
 1.836122828535735600E-3, 
 -8.854540064930916000E-3, 
 -1.493940502405166600E-2, 
 4.628986120223999000E-3, 
 -8.226887322962284000E-3, 
 -4.722556914202869000E-4, 
 5.215720157139003000E-4, 
 7.447035051882267000E-3, 
 -2.254587784409523000E-2, 
 -1.498410198837518700E-2, 
 -8.049820549786090000E-3, 
 4.904544446617365000E-3, 
 -2.669766917824745200E-2, 
 -3.017587121576071000E-3, 
 1.689836941659450500E-2, 
 -2.869087830185890200E-2, 
 -2.282209694385528600E-3, 
 -3.441284969449043000E-2, 
 1.042750045598950200E-5, 
 1.778769656084478000E-3, 
 2.333153388462960700E-4, 
 2.832513488829136000E-2, 
 1.602288149297237400E-2, 
 -2.251637168228626300E-2, 
 -1.259377878159284600E-2, 
 2.468645386397838600E-2, 
 -7.149056531488895000E-3, 
 -2.160464599728584300E-2, 
 7.625493220984936000E-3, 
 -1.799817546270787700E-3, 
 9.120150469243526000E-3, 
 -6.764964666217565500E-3, 
 -1.314810290932655300E-2, 
 -7.313811220228672000E-4, 
 2.668065391480922700E-2, 
 -6.147591862827539400E-3, 
 -1.298559736460447300E-2, 
 -2.019385062158107800E-2, 
 2.901057014241814600E-3, 
 -2.686633262783289000E-3, 
 -1.117339357733726500E-2, 
 1.001508533954620400E-2, 
 2.079382725059986000E-2, 
 1.785176806151867000E-2, 
 5.004361271858215000E-3, 
 -1.493302918970584900E-2, 
 9.657524526119232000E-3, 
 2.071427181363105800E-2, 
 1.741520129144191700E-2, 
 -7.949632592499256000E-3, 
 9.518216364085674000E-3, 
 -1.459053810685873000E-2, 
 -2.578217349946499000E-2, 
 8.831897750496864000E-3, 
 -5.937816458754241000E-4, 
 -9.765743277966976000E-3, 
 -9.062912315130234000E-3, 
 2.277142368257045700E-3, 
 -1.157743670046329500E-2, 
 1.092515187337994600E-3, 
 1.823194511234760300E-2, 
 3.321396559476852400E-2, 
 -1.261721597984433200E-3, 
 -3.756601829081773800E-3, 
 -1.765526598319411300E-3, 
 1.481322105973959000E-3, 
 -6.134132854640484000E-3, 
 3.013076446950435600E-2, 
 1.012400165200233500E-2, 
 -1.401893235743045800E-2, 
 -9.588987566530704000E-3, 
 -2.373472973704338000E-2, 
 -2.740356512367725400E-2, 
 -1.840461976826191000E-2, 
 -5.783894448541105000E-4, 
 -1.661072857677936600E-2, 
 -1.154138823039829700E-3, 
 1.173952501267194700E-2, 
 2.243579924106598000E-2, 
 3.813413204625249000E-4, 
 1.042731758207082700E-2, 
 1.236649323254823700E-2, 
 -6.793766282498836500E-3, 
 7.435977458953857000E-3, 
 8.992084302008152000E-3, 
 1.143904961645603200E-2, 
 -1.553752692416310300E-3, 
 -2.380868420004844700E-2, 
 1.484352536499500300E-2, 
 -1.574664935469627400E-2, 
 1.342810038477182400E-2, 
 7.428410463035107000E-3, 
 -2.504404261708259600E-2, 
 -1.584775373339653000E-2, 
 2.366501465439796400E-2, 
 1.832225476391613500E-3, 
 -2.250608615577221000E-2, 
 -2.933107130229473000E-2, 
 3.304692730307579000E-2, 
 3.895712317898869500E-3, 
 -2.323233149945736000E-2, 
 3.166123642586171600E-4, 
 4.107581917196512000E-3, 
 2.027020324021578000E-3, 
 -1.688653253950178600E-3, 
 -7.559278048574924500E-3, 
 3.119030594825744600E-2, 
 5.325068254023790000E-3, 
 7.768234238028526000E-3, 
 -1.780205219984054600E-2, 
 -2.899202145636081700E-2, 
 -8.174718357622623000E-3, 
 -1.511793676763773000E-2, 
 -9.872688911855220000E-3, 
 1.711821742355823500E-2, 
 1.328922621905803700E-2, 
 1.770454575307667300E-3, 
 1.148140523582697000E-2, 
 9.815036319196224000E-3, 
 -1.022181287407875000E-2, 
 -3.845902858301997000E-3, 
 -2.191437594592571300E-2, 
 -2.579390071332454700E-2, 
 -6.396700628101826000E-3, 
 -6.433787755668163000E-3, 
 -2.232948690652847300E-2, 
 -1.116922940127551600E-3, 
 -1.006878353655338300E-2, 
 1.967815309762954700E-2, 
 3.523672232404351200E-3, 
 -1.450916379690170300E-2, 
 -1.954164169728756000E-2, 
 -3.940003924071789000E-3, 
 1.008617132902145400E-2, 
 1.713371276855468800E-2, 
 -1.618775539100170000E-2, 
 2.003842219710350000E-2, 
 -2.151031978428363800E-2, 
 1.964320661500096300E-3, 
 2.533563412725925400E-3, 
 -9.609651751816273000E-4, 
 1.113105006515979800E-2, 
 -1.574675366282463000E-2, 
 9.851172566413880000E-3, 
 -4.228256642818451000E-3, 
 -1.629266701638698600E-2, 
 4.102400690317154000E-2, 
 1.885737851262092600E-2, 
 1.076645962893962900E-2, 
 2.821006346493959400E-3, 
 -1.242326572537422200E-2, 
 -2.466630935668945300E-2, 
 9.052895009517670000E-3, 
 -3.442178294062614400E-2, 
 1.618584804236889000E-2, 
 1.522905845195055000E-2, 
 8.944342844188213000E-3, 
 -1.710166782140731800E-2, 
 -2.485691197216510800E-2, 
 -5.538388155400753000E-3, 
 5.353718064725399000E-3, 
 -5.453068763017654000E-3, 
 2.481225132942199700E-2, 
 1.400386076420545600E-2, 
 2.202703431248665000E-2, 
 9.335071663372219000E-4, 
 3.440336883068085000E-2, 
 6.870955228805542000E-3, 
 -2.090933360159397000E-2, 
 1.093831565231084800E-2, 
 -1.094297692179679900E-2, 
 7.575997151434421500E-3, 
 4.292784724384546000E-3, 
 -1.590835978277027600E-3, 
 -1.283567049540579300E-3, 
 1.522460486739873900E-2, 
 8.411221206188202000E-3, 
 8.874453604221344000E-3, 
 -1.916706003248691600E-2, 
 -4.123392980545759000E-3, 
 8.342842571437359000E-3, 
 -1.022207364439964300E-2, 
 -1.024155691266059900E-2, 
 1.644326001405716000E-2, 
 -1.571502722799778000E-2, 
 -1.805408485233783700E-2, 
 2.145612984895706200E-2, 
 2.102764789015054700E-3, 
 -1.535677257925272000E-2, 
 1.096137985587120000E-2, 
 -5.539598409086466000E-3, 
 -3.444333374500275000E-2, 
 -3.252328559756279000E-2, 
 5.592932924628258000E-3, 
 3.804313018918037400E-3, 
 1.636235788464546200E-2, 
 -3.848889842629432700E-3, 
 -2.075223438441753400E-2, 
 -1.270629186183214200E-2, 
 -6.302984897047281000E-3, 
 2.177156973630190000E-3, 
 9.392492473125458000E-3, 
 -1.445634197443723700E-2, 
 8.160050027072430000E-3, 
 -5.777190439403057000E-3, 
 -9.255655109882355000E-3, 
 1.696108840405941000E-3, 
 1.823533326387405400E-2, 
 -1.195026654750108700E-2, 
 -7.698545814491808000E-4, 
 5.430074408650398000E-3, 
 -3.160588443279266400E-2, 
 1.130433194339275400E-2, 
 -2.096658386290073400E-2, 
 -1.175415003672242200E-3, 
 -7.773058023303747000E-3, 
 -1.247150171548128100E-2, 
 -3.172056050971150400E-3, 
 3.817665157839656000E-3, 
 -8.058663457632065000E-3, 
 1.573763415217399600E-2, 
 6.649360526353121000E-3, 
 2.029563300311565400E-3, 
 1.896520145237446000E-2, 
 -2.050179522484541000E-3, 
 -2.243157289922237400E-2, 
 -2.576963603496551500E-2, 
 -2.884669520426541600E-4, 
 -4.519963171333075000E-3, 
 -9.511038661003113000E-3, 
 -2.875075116753578200E-2, 
 -1.268301741220057000E-3, 
 -3.508921014145016700E-3, 
 4.303803667426109000E-3, 
 -2.718405239284038500E-2, 
 -4.047752823680639000E-3, 
 -7.984795607626438000E-3, 
 -2.959923818707466000E-3, 
 -6.019479129463434000E-3, 
 8.465212769806385000E-3, 
 -1.683344691991806000E-2, 
 1.867903769016266000E-2, 
 -1.645210548304021400E-3, 
 1.130416989326477000E-2, 
 -1.088187564164400100E-2, 
 2.107677608728408800E-2, 
 2.896031131967902000E-3, 
 7.471364922821522000E-3, 
 6.360824219882488000E-3, 
 -1.996969105675816500E-3, 
 1.473891362547874500E-2, 
 2.059156261384487000E-2, 
 4.854704719036817600E-3, 
 1.924677193164825400E-2, 
 2.929561771452427000E-2, 
 -2.405250445008278000E-2, 
 -1.854585483670234700E-2, 
 8.794004097580910000E-3, 
 -1.321968738920986700E-3, 
 5.751638091169298000E-4, 
 2.005169913172722000E-2, 
 2.017991244792938200E-2, 
 4.133284557610750000E-3, 
 -5.621930118650198000E-3, 
 -2.754430472850799600E-2, 
 -1.297945622354745900E-3, 
 -2.579360269010067000E-2, 
 -9.515360929071903000E-3, 
 6.087480578571558000E-4, 
 -1.098408363759517700E-2, 
 -5.070744547992945000E-3, 
 -8.596007712185383000E-3, 
 1.201123523060232400E-4, 
 -4.634728829842061000E-4, 
 -2.305413829162717000E-3, 
 -9.358594194054604000E-3, 
 -3.148778155446052600E-2, 
 1.109934318810701400E-2, 
 -8.736580610275269000E-3, 
 6.949317175894976000E-3, 
 -9.162139147520065000E-3, 
 -2.007611794397235000E-3, 
 -3.339781984686851500E-2, 
 -3.912379220128059400E-2, 
 -1.827014202717691700E-4, 
 -2.466377988457679700E-2, 
 2.179726958274841300E-3, 
 1.601388305425644000E-2, 
 2.311628311872482300E-2, 
 8.577125146985054000E-3, 
 -3.439461812376976000E-3, 
 1.523992395959794500E-3, 
 -3.105501458048820500E-2, 
 7.002757862210274000E-3, 
 -2.384178078500554000E-4, 
 -2.285595610737800600E-2, 
 -2.657781913876533500E-2, 
 4.190370906144381000E-3, 
 1.961881481111049700E-2, 
 3.122071549296379000E-2, 
 -5.200680810958147000E-3, 
 9.775471873581410000E-3, 
 1.305543445050716400E-2, 
 -2.549607772380113600E-3, 
 1.206907164305448500E-2, 
 -5.671994760632515000E-3, 
 -2.066432964056730300E-3, 
 2.407336980104446400E-2, 
 1.594742992892861400E-3, 
 -2.396817784756422000E-3, 
 -3.302337601780891400E-2, 
 1.075298618525266600E-2, 
 7.813042029738426000E-3, 
 1.112200133502483400E-2, 
 -8.319901302456856000E-3, 
 -1.488072983920574200E-2, 
 -2.260248735547065700E-2, 
 7.054151967167854000E-3, 
 5.233712727203965000E-4, 
 -1.216925773769617000E-2, 
 1.331866718828678100E-2, 
 1.778368651866913000E-2, 
 -2.902882406488061000E-3, 
 3.134793043136597000E-2, 
 -1.249735616147518200E-2, 
 8.510712534189224000E-3, 
 1.037397328764200200E-2, 
 1.118045486509800000E-2, 
 -6.472125649452209500E-3, 
 1.221550162881612800E-3, 
 -5.168203264474869000E-3, 
 4.657636396586895000E-3, 
 2.123681333614513300E-4, 
 1.343034673482179600E-2, 
 1.888769795186817600E-3, 
 -3.854418871924281000E-3, 
 1.447367854416370400E-2, 
 -1.535737700760364500E-2, 
 1.950800791382789600E-2, 
 6.548819364979863000E-4, 
 8.843778632581234000E-3, 
 -7.290341891348362000E-3, 
 4.068707581609487500E-3, 
 -8.181894198060036000E-3, 
 -2.322237240150571000E-3, 
 1.096057984977960600E-2, 
 1.045248063746839800E-4, 
 1.784975291229784500E-3, 
 -1.003486569970846200E-2, 
 -1.307470840401947500E-3, 
 1.338193751871585800E-2, 
 1.850174972787499400E-3, 
 -7.620977703481913000E-3, 
 1.485410262830555400E-3, 
 -1.682393066585064000E-2, 
 2.171749062836170200E-2, 
 -6.491427309811115000E-3, 
 -2.083993889391422300E-2, 
 -8.375954814255238000E-3, 
 -2.044919133186340300E-2, 
 -1.537062926217913600E-3, 
 -4.486425593495369000E-2, 
 -1.125992857851088000E-4, 
 -4.697164986282587000E-3, 
 -1.452323282137513200E-3, 
 -5.034985952079296000E-4, 
 -1.736600510776043000E-2, 
 2.789702266454696700E-4, 
 -3.024222142994404000E-2, 
 1.780082657933235000E-2, 
 -8.724586106836796000E-3, 
 9.127194061875343000E-3, 
 -1.117850095033645600E-2, 
 -1.236794330179691300E-2, 
 -1.426151255145669000E-3, 
 -1.149476412683725400E-2, 
 8.804451674222946000E-3, 
 2.302641421556472800E-2, 
 -2.073979564011097000E-2, 
 3.233373537659645000E-2, 
 4.766559228301048000E-3, 
 3.762773424386978000E-2, 
 -7.785466965287924000E-3, 
 9.269760921597480000E-3, 
 -1.635388284921646000E-2, 
 -7.047649472951889000E-3, 
 1.196519099175930000E-2, 
 -7.477505132555962000E-3, 
 -2.263671346008777600E-2, 
 8.217941038310528000E-3, 
 -1.292062085121870000E-2, 
 -2.040971070528030400E-3, 
 -8.867762982845306000E-3, 
 2.511561848223209400E-2, 
 -1.608646847307682000E-2, 
 2.083923900499940000E-3, 
 -2.531827799975872000E-2, 
 3.071814030408859300E-2, 
 8.752821013331413000E-3, 
 2.004280500113964000E-2, 
 1.478413958102464700E-2, 
 -1.393370912410318900E-3, 
 1.996764168143272400E-2, 
 -3.885869868099689500E-3, 
 -9.383806958794594000E-3, 
 8.486337959766388000E-3, 
 1.648404449224472000E-2, 
 -2.109673246741295000E-2, 
 6.481285206973553000E-3, 
 3.048192150890827200E-2, 
 2.302603051066398600E-2, 
 -7.278295699506998000E-3, 
 -9.812883799895644000E-4, 
 -2.839717781171202700E-3, 
 -8.637015707790852000E-3, 
 2.501565031707287000E-2, 
 -7.316854316741228000E-3, 
 -1.159424800425767900E-2, 
 4.588577896356583000E-3, 
 1.123200263828039200E-2, 
 -2.602791786193847700E-2, 
 1.489522121846675900E-2, 
 2.097182348370552000E-2, 
 -1.514592394232750000E-2, 
 2.954083902295679000E-4, 
 -2.175064012408256500E-2, 
 -6.822495255619287500E-3, 
 1.938760466873645800E-2, 
 -2.773078391328454000E-3, 
 2.165096066892147000E-2, 
 -1.425820589065551800E-2, 
 -1.302541233599186000E-2, 
 -3.724197158589959000E-3, 
 -2.102304808795452000E-2, 
 9.650933556258678000E-3, 
 1.777627854607999300E-3, 
 -7.545941043645143500E-3, 
 2.831872180104255700E-2, 
 -8.007535710930824000E-3, 
 -2.345449849963188000E-2, 
 4.121063742786646000E-3, 
 7.354423403739929000E-3, 
 1.430365629494190200E-2, 
 -9.743023663759232000E-3, 
 7.243691361509264000E-4, 
 1.064399071037769300E-2, 
 2.753243222832679700E-2, 
 -2.808704786002636000E-2, 
 3.017388982698321300E-3, 
 -2.478562854230404000E-2, 
 7.776958402246237000E-3, 
 -2.006504917517304400E-3, 
 -1.058227010071277600E-2, 
 8.478823117911816000E-3, 
 -5.223128944635391000E-3, 
 -1.488496782258153000E-3, 
 -7.794149219989777000E-3, 
 -8.650896139442920000E-3, 
 6.934196688234806000E-3, 
 -1.729506440460682000E-2, 
 1.475975383073091500E-2, 
 -2.590568736195564300E-2, 
 -5.825341679155827000E-3, 
 7.259487640112638500E-3, 
 1.989864557981491000E-2, 
 -5.460456945002079000E-3, 
 8.680828846991062000E-3, 
 1.201219670474529300E-2, 
 -2.715757675468921700E-2, 
 4.595822611008771000E-5, 
 9.592821821570396000E-3, 
 3.824531566351652000E-3, 
 6.706101819872856000E-3, 
 9.387931786477566000E-3, 
 1.183785032480955100E-3, 
 -2.483024494722485500E-3, 
 -9.218833409249783000E-3, 
 -1.124735688790679000E-3, 
 2.718051522970199600E-2, 
 8.249422535300255000E-3, 
 1.689893938601017000E-2, 
 4.422643035650253000E-2, 
 -1.332230772823095300E-2, 
 1.276584225706756100E-3, 
 1.604340970516205000E-2, 
 3.349532932043075600E-2, 
 1.119489874690771100E-2, 
 -6.486626807600260000E-4, 
 3.593167522922158200E-3, 
 -4.332180600613356000E-3, 
 -6.488421000540256500E-3, 
 -3.213718906044960000E-2, 
 2.370481379330158200E-3, 
 6.573125254362822000E-3, 
 -8.779037743806839000E-3, 
 1.658018864691257500E-2, 
 -5.215676967054605500E-3, 
 1.981845870614051800E-2, 
 5.938668269664049000E-3, 
 5.826088134199381000E-3, 
 7.006774656474590000E-3, 
 -1.506827585399150800E-2, 
 7.344343699514866000E-3, 
 8.023824542760849000E-3, 
 1.501386170275509400E-3, 
 1.391268218867480800E-3, 
 9.707516059279442000E-3, 
 -9.687876328825950000E-3, 
 -1.073007564991712600E-2, 
 4.992790520191193000E-3, 
 2.897437894716859000E-3, 
 -2.414674032479524600E-3, 
 9.022518992424011000E-3, 
 1.401670277118682900E-2, 
 1.468931883573532100E-2, 
 1.825717772589996500E-4, 
 -3.328393446281552300E-3, 
 -6.386260967701673500E-3, 
 6.472530774772167000E-3, 
 -3.248127177357673600E-3, 
 1.373897586017847000E-2, 
 -2.975785732269287000E-2, 
 -2.456296607851982000E-2, 
 -1.493207062594592600E-3, 
 -6.642682012170553000E-3, 
 -6.077309139072895000E-3, 
 -1.204994786530733100E-2, 
 -9.967760182917118000E-3, 
 3.184431418776512000E-2, 
 2.120153047144413000E-2, 
 -1.146552897989749900E-2, 
 -4.190211184322834000E-3, 
 -2.239452209323644600E-3, 
 1.032641530036926300E-2, 
 -1.196416281163692500E-2, 
 1.762670726748183400E-4, 
 3.914124891161918600E-2, 
 -2.621238492429256400E-2, 
 -1.323006115853786500E-2, 
 -2.764622494578361500E-2, 
 1.198414433747530000E-2, 
 2.388987457379698800E-3, 
 -2.310049533843994000E-2, 
 1.242315024137497000E-2, 
 -2.546885609626770000E-2, 
 -4.089559894055128000E-3, 
 2.466652542352676400E-2, 
 1.223823800683021500E-2, 
 2.474353276193142000E-2, 
 -1.751029118895530700E-2, 
 1.687212847173214000E-2, 
 -9.111361578106880000E-4, 
 7.204753346741199500E-3, 
 4.727255727630108600E-4, 
 3.546448890119791000E-3, 
 1.729540526866912800E-3, 
 2.582701388746500000E-3, 
 3.599325427785516000E-3, 
 2.007906697690487000E-2, 
 6.740041542798281000E-3, 
 2.077135816216468800E-2, 
 9.852054528892040000E-3, 
 -6.146465893834829000E-3, 
 4.349560942500830000E-3, 
 -1.261134538799524300E-2, 
 -5.858142394572496000E-3, 
 -7.701207883656025000E-3, 
 7.463139947503805000E-3, 
 -1.302983798086643200E-2, 
 -1.082924101501703300E-2, 
 -2.825730293989181500E-2, 
 5.031180568039417000E-3, 
 1.513335853815078700E-2, 
 2.136195637285709400E-2, 
 -9.870996698737144000E-3, 
 -2.695090882480144500E-2, 
 -1.314466120675206200E-3, 
 1.633645221590995800E-2, 
 -1.068291999399662000E-2, 
 -3.040623292326927200E-2, 
 1.881289854645729000E-2, 
 -8.638589642941952000E-3, 
 -3.906064201146364000E-3, 
 2.141825482249260000E-2, 
 -2.876341575756669000E-3, 
 -8.535578846931458000E-3, 
 1.067907270044088400E-2, 
 -1.701621152460575000E-2, 
 -4.608394578099251000E-3, 
 3.110380610451102300E-3, 
 -4.502817522734404000E-3, 
 1.903485506772995000E-3, 
 3.585110884159803400E-3, 
 -8.826292119920254000E-3, 
 1.865694212028756700E-4, 
 -9.713266044855118000E-3, 
 1.013842225074768000E-2, 
 1.090612914413213700E-2, 
 8.124002255499363000E-3, 
 -2.317018061876297000E-2, 
 -1.284625381231308000E-2, 
 -1.013089716434478800E-2, 
 1.505471020936966000E-2, 
 1.494588423520326600E-2, 
 -4.988359753042459500E-3, 
 2.106536738574505000E-2, 
 8.957441896200180000E-3, 
 -1.329612359404563900E-2, 
 1.353252399712801000E-2, 
 1.958799315616488500E-3, 
 -3.017833223566413000E-3, 
 -9.420490823686123000E-3, 
 -1.959185115993023000E-2, 
 -7.462384179234505000E-3, 
 7.703232113271952000E-4, 
 2.570942742750048600E-3, 
 -3.515566699206829000E-3, 
 3.741146996617317000E-2, 
 5.243637133389711000E-3, 
 -2.169298939406871800E-2, 
 -8.333708159625530000E-3, 
 -1.745203882455825800E-2, 
 -1.028425805270671800E-2, 
 -8.889007382094860000E-3, 
 5.678713787347078000E-4, 
 1.437611412256956100E-2, 
 1.225625537335872700E-2, 
 6.379179656505585000E-3, 
 2.850478887557983400E-2, 
 2.789789112284779500E-3, 
 -8.922117762267590000E-3, 
 4.626298323273659000E-3, 
 1.286602113395929300E-3, 
 -6.388033507391810000E-4, 
 2.368827909231186000E-2, 
 -2.188341692090034500E-2, 
 2.130252867937088000E-2, 
 -1.212117075920105000E-2, 
 -9.174593724310398000E-3, 
 -1.729095703922212100E-3, 
 6.905850954353809000E-3, 
 1.605478115379810300E-2, 
 9.647074155509472000E-3, 
 -5.135599523782730000E-2, 
 -2.393930219113826800E-3, 
 1.583935809321701500E-3, 
 1.646494492888450600E-2, 
 -2.248266711831093000E-3, 
 7.797748548910022000E-4, 
 -1.191302668303251300E-2, 
 4.189675964880734700E-4, 
 -2.402912359684705700E-3, 
 -7.112196180969477000E-3, 
 -3.228472080081701300E-3, 
 -9.818894788622856000E-3, 
 2.096347324550151800E-2, 
 -2.399619109928608000E-2, 
 1.704699918627739000E-2, 
 3.574816044420004000E-3, 
 -2.958553284406662000E-2, 
 5.914735607802868000E-3, 
 -1.375986076891422300E-2, 
 -2.759708790108561500E-3, 
 4.829650279134512000E-3, 
 8.661163970828056000E-3, 
 -1.043273322284221600E-2, 
 1.691889576613903000E-2, 
 -2.032537758350372300E-2, 
 -2.809341822285205000E-4, 
 1.440854649990797000E-2, 
 -1.752603240311145800E-2, 
 1.819075085222721000E-2, 
 -1.555315777659416200E-2, 
 -4.021547734737396000E-3, 
 -7.821156643331051000E-3, 
 -9.509919211268425000E-3, 
 1.152719371020794000E-2, 
 4.007257055491209000E-3, 
 1.875428482890129000E-2, 
 1.497292704880237600E-2, 
 1.284700632095337000E-2, 
 -1.398673746734857600E-2, 
 -1.441304199397564000E-2, 
 -7.529262802563608000E-4, 
 1.210905797779560100E-2, 
 4.418469965457916000E-3, 
 1.373885548673570200E-3, 
 9.364611469209194000E-3, 
 6.590585224330425000E-3, 
 -1.618664525449276000E-2, 
 8.419959805905819000E-3, 
 -9.945812635123730000E-3, 
 -1.364936679601669300E-2, 
 -3.329886496067047000E-2, 
 1.038646604865789400E-2, 
 2.100704051554203000E-2, 
 -1.183397788554430000E-2, 
 -1.213894039392471300E-2, 
 6.336689461022615000E-3, 
 -5.089736543595791000E-3, 
 8.905775845050812000E-3, 
 6.387687753885984000E-4, 
 3.249449282884598000E-2, 
 2.660441212356090500E-2, 
 -2.980015473440289500E-3, 
 1.290236413478851300E-2, 
 2.527180314064026000E-2, 
 -1.177016383735463000E-4, 
 1.463841088116169000E-2, 
 9.237506892532110000E-4, 
 -9.108333848416805000E-3, 
 7.361002266407013000E-3, 
 2.559474110603332500E-2, 
 -7.157159037888050000E-3, 
 2.790410444140434300E-2, 
 -3.057329915463924400E-2, 
 9.892321191728115000E-3, 
 1.175876893103122700E-2, 
 -1.880807988345623000E-2, 
 1.754447934217751000E-3, 
 -1.810331642627716000E-2, 
 -4.155699163675308000E-3, 
 1.012509316205978400E-2, 
 1.214050338603556200E-3, 
 3.610071493312716500E-3, 
 -9.603449143469334000E-3, 
 -9.624745696783066000E-3, 
 1.310962019488215400E-3, 
 9.806635789573193000E-3, 
 3.285609651356935500E-3, 
 2.473049238324165300E-2, 
 -1.719491556286812000E-2, 
 -5.512559320777655000E-3, 
 -2.462774142622947700E-2, 
 -1.099006831645965600E-2, 
 -1.746612228453159300E-2, 
 -2.520162425935268400E-2, 
 5.073256324976683000E-3, 
 1.454788167029619200E-2, 
 -5.510326474905014000E-3, 
 -7.247244007885456000E-3, 
 -1.879025064408779000E-2, 
 -1.919982396066188800E-2, 
 -7.416068110615015000E-3, 
 -1.487784832715988200E-2, 
 1.175780966877937300E-2, 
 -2.351964451372623400E-2, 
 -1.765698753297329000E-2, 
 2.154864743351936300E-2, 
 -1.551156677305698400E-2, 
 1.675555296242237000E-2, 
 8.359084837138653000E-3, 
 -1.920462585985660600E-2, 
 -1.005273428745567800E-3, 
 -6.911010015755892000E-3, 
 -3.800533246248960500E-3, 
 1.356210093945264800E-2, 
 1.286934968084096900E-2, 
 2.868880331516266000E-2, 
 8.454621420241892000E-4, 
 -5.313681438565254000E-3, 
 -1.271119061857462000E-2, 
 -1.985959894955158200E-2, 
 1.311259251087904000E-2, 
 1.415238063782453500E-2, 
 1.811534538865089400E-2, 
 2.981395274400711000E-2, 
 -2.320503443479538000E-2, 
 -3.323927894234657000E-2, 
 -8.326811715960503000E-3, 
 1.067434530705213500E-2, 
 -2.608796581625938400E-2, 
 1.235927804373204700E-3, 
 -7.414966821670532000E-3, 
 7.162633817642927000E-3, 
 -3.222260158509016000E-3, 
 -3.940476104617119000E-3, 
 -2.724601654335856400E-3, 
 2.050810679793358000E-2, 
 3.855119692161679300E-3, 
 -8.391737937927246000E-3, 
 3.044321015477180500E-2, 
 -5.020543467253447000E-3, 
 -1.144058723002672200E-2, 
 -1.608900539577007300E-2, 
 1.240693673025816700E-4, 
 7.101754657924175000E-3, 
 -1.134535670280456500E-2, 
 -8.633124642074108000E-3, 
 -1.310861902311444300E-3, 
 -4.003787413239479000E-2, 
 1.203323248773813200E-2, 
 -3.485719487071037000E-2, 
 2.514373883605003400E-2, 
 4.332022368907928500E-2, 
 1.161396969109773600E-2, 
 2.961643040180206300E-2, 
 -2.703505009412765500E-2, 
 2.883999422192573500E-2, 
 3.335995366796851000E-3, 
 8.860072121024132000E-3, 
 1.056643202900886500E-2, 
 1.278453692793846100E-2, 
 -6.001662928611040000E-3, 
 2.534224092960357700E-2, 
 1.068932749330997500E-2, 
 1.362411398440599400E-2, 
 -1.571088470518589000E-2, 
 -4.009210504591465000E-3, 
 5.723972804844379000E-3, 
 -5.918734706938267000E-3, 
 -1.878027431666851000E-2, 
 -1.120862551033496900E-2, 
 -8.502126671373844000E-3, 
 -1.580110192298889000E-2, 
 -4.033350385725498000E-3, 
 5.870544351637363400E-3, 
 -1.198816951364278800E-2, 
 1.898174360394478000E-2, 
 -2.520215930417180000E-3, 
 -6.876276456750929000E-4, 
 8.711976930499077000E-3, 
 -1.833769842050969600E-3, 
 -2.339714765548706000E-2, 
 -4.775360226631164600E-3, 
 2.612989954650402000E-2, 
 -1.636623218655586200E-2, 
 -1.469883695244789100E-2, 
 6.952194962650537000E-4, 
 -4.837633110582828500E-3, 
 -2.751704491674900000E-2, 
 4.702287726104259500E-3, 
 -3.207084722816944000E-3, 
 3.344835340976715000E-2, 
 -1.046300120651722000E-2, 
 -1.249357685446739200E-2, 
 3.321333229541778600E-2, 
 1.952591724693775200E-2, 
 -1.881735771894455000E-2, 
 1.984235597774386400E-3, 
 -2.060819184407592000E-3, 
 -9.043148718774319000E-3, 
 3.222753480076790000E-2, 
 3.657810855656862300E-3, 
 1.320830546319484700E-2, 
 2.595752105116844200E-2, 
 -1.034877169877290700E-2, 
 -1.891914056614041300E-3, 
 -1.308779604732990300E-2, 
 6.864689639769495000E-4, 
 -1.802948117256164600E-2, 
 -1.119254156947136000E-2, 
 -1.943082734942436200E-2, 
 1.872692815959453600E-2, 
 2.453417703509330700E-2, 
 -1.708072796463966400E-2, 
 2.858374454081058500E-2, 
 2.377314120531082000E-2, 
 -1.337706763297319400E-2, 
 -2.372970618307590500E-2, 
 -2.871710620820522300E-2, 
 -6.962910760194063000E-3, 
 4.002759524155408000E-4, 
 -6.929040886461735000E-3, 
 5.954239051789045000E-3, 
 9.493517689406872000E-3, 
 1.714268140494823500E-2, 
 1.710389181971550000E-2, 
 3.266848158091306700E-3, 
 9.697048924863338000E-3, 
 6.363172433339059000E-4, 
 -1.380040403455495800E-2, 
 -2.632736926898360300E-3, 
 4.312581848353147500E-3, 
 -2.342880517244339000E-2, 
 2.195666171610355400E-2, 
 2.842803020030260000E-3, 
 -2.342477068305015600E-2, 
 -9.467285126447678000E-3, 
 3.063066862523555800E-2, 
 8.061170578002930000E-3, 
 7.540283724665642000E-3, 
 9.251496754586697000E-3, 
 1.189306844025850300E-3, 
 8.607789874076843000E-3, 
 2.228051610291004200E-2, 
 7.535435259342194000E-3, 
 -1.505328156054020000E-2, 
 6.352154538035393000E-3, 
 -4.123725742101669000E-2, 
 6.505289929918945000E-4, 
 -9.713394683785737000E-4, 
 -2.801274135708809000E-2, 
 -8.120027370750904000E-3, 
 5.379525013267994000E-3, 
 -1.346943434327840800E-2, 
 8.252438157796860000E-3, 
 -1.051690522581338900E-2, 
 2.727221883833408400E-2, 
 -5.800208076834679000E-3, 
 -1.674892567098140700E-2, 
 1.781002618372440300E-2, 
 1.919832266867160800E-2, 
 -1.447506062686443300E-2, 
 -6.711582653224468000E-3, 
 -1.219147536903619800E-2, 
 1.366642490029335000E-2, 
 -1.378921326249837900E-2, 
 8.933252654969692000E-3, 
 5.486457608640194000E-3, 
 -2.395013347268104600E-2, 
 -1.842005550861358600E-2, 
 -1.461724098771810500E-2, 
 -1.537707541137933700E-2, 
 1.220223144628107500E-3, 
 1.582287368364632100E-3, 
 -1.713191159069538100E-3, 
 1.079876814037561400E-2, 
 8.496583439409733000E-3, 
 -1.160249672830104800E-2, 
 1.118165161460638000E-2, 
 -2.384781464934349000E-2, 
 1.089166197925806000E-2, 
 -3.769263997673988000E-2, 
 -1.362257287837565000E-3, 
 1.265729684382677000E-2, 
 1.461344026029110000E-2, 
 9.194676764309406000E-3, 
 -8.944178931415081000E-3, 
 -1.233449857681989700E-2, 
 -1.412748172879219000E-2, 
 -1.321790274232626000E-2, 
 -1.017605070956051300E-3, 
 -5.599468946456909000E-3, 
 -8.282702416181564000E-3, 
 1.449674274772405600E-2, 
 1.377419941127300300E-2, 
 -2.516697160899639000E-2, 
 1.159408967941999400E-2, 
 6.280963774770498000E-3, 
 2.369743958115577700E-2, 
 -1.060063671320676800E-2, 
 1.493941177614033200E-3, 
 1.567283831536770000E-2, 
 -2.493200451135635400E-2, 
 3.512958809733391000E-2, 
 1.327645126730203600E-2, 
 9.531742893159390000E-3, 
 3.131925314664841000E-2, 
 8.684461005032063000E-3, 
 -1.473031006753444700E-3, 
 -4.307374474592507000E-4, 
 -1.077167224138975100E-2, 
 -2.121482102666050200E-4, 
 -3.157772589474916500E-3, 
 3.224311396479606600E-3, 
 -3.120009787380695300E-3, 
 2.460213005542755000E-2, 
 -1.748816668987274000E-2, 
 -9.949498809874058000E-3, 
 5.722735542804003000E-3, 
 6.603926420211792000E-3, 
 4.103152081370354000E-3, 
 2.660109102725982700E-2, 
 1.499430183321237600E-2, 
 -1.637951470911503000E-2, 
 3.717296523973345800E-3, 
 -1.216065790504217100E-2, 
 1.652918569743633300E-2, 
 -1.141506154090166100E-2, 
 5.817324854433536500E-3, 
 -1.404616329818964000E-2, 
 1.634638570249080700E-2, 
 1.555536757223308000E-3, 
 -1.052973791956901600E-2, 
 7.959340699017048000E-3, 
 -3.101167269051075000E-2, 
 1.523866783827543300E-2, 
 1.972230710089206700E-2, 
 -7.079804316163063000E-3, 
 1.549790427088737500E-2, 
 -1.454969961196184200E-2, 
 2.156927436590194700E-2, 
 3.749735420569777500E-3, 
 -1.221960969269275700E-2, 
 -9.715711697936058000E-3, 
 -4.780596587806940000E-3, 
 2.478505717590451200E-3, 
 2.167121879756450700E-2, 
 -3.578589297831058500E-3, 
 -5.733817815780640000E-3, 
 3.026186674833297700E-2, 
 -4.650766775012016000E-2, 
 6.304382346570492000E-3, 
 -8.968223817646503000E-3, 
 2.053496427834034000E-2, 
 -3.173557575792074000E-3, 
 -2.360711991786956800E-2, 
 -1.775826886296272300E-2, 
 -1.627449132502079000E-2, 
 -4.585237707942724000E-3, 
 1.562006957828998600E-2, 
 1.766573823988437700E-2, 
 -3.683212678879499400E-3, 
 -1.259355992078781100E-2, 
 8.679111488163471000E-3, 
 5.250680726021528000E-3, 
 -3.007613355293870000E-3, 
 -8.294035680592060000E-3, 
 -7.610991597175598000E-3, 
 -1.669662073254585300E-2, 
 3.380119055509567000E-2, 
 -9.823785163462162000E-3, 
 -4.841468296945095000E-3, 
 1.961962552741170000E-3, 
 9.180024266242981000E-3, 
 9.146549738943577000E-3, 
 4.187619779258966400E-4, 
 2.111549302935600300E-2, 
 -8.916201069951057000E-3, 
 6.976015865802765000E-3, 
 -2.886592876166105300E-3, 
 1.292253495194017900E-3, 
 -3.289168700575828600E-3, 
 1.183538115583360200E-3, 
 -1.565323770046234000E-2, 
 1.854270347394049200E-3, 
 -1.501004397869110100E-2, 
 5.573399830609560000E-3, 
 -4.393771756440401000E-3, 
 -4.001114517450333000E-3, 
 -3.506414964795112600E-2, 
 -5.809660535305738400E-3, 
 -6.272288970649242000E-3, 
 1.434439513832330700E-2, 
 -7.203668355941772500E-3, 
 2.323976345360279000E-2, 
 -3.414135053753853000E-2, 
 3.126083174720406500E-3, 
 -1.112561090849340000E-3, 
 1.797159551642835100E-3, 
 2.101234532892704000E-2, 
 -3.501579631119966500E-3, 
 -4.323707427829504000E-3, 
 1.164764445275068300E-2, 
 1.959416083991527600E-3, 
 6.397484336048365000E-3, 
 1.022028829902410500E-2, 
 4.340453539043665000E-3, 
 -1.557932328432798400E-2, 
 -2.191094867885112800E-2, 
 -2.675156295299530000E-2, 
 -1.061930973082780800E-2, 
 4.277892876416445000E-3, 
 -6.004667375236750000E-3, 
 -1.590660028159618400E-2, 
 5.711044743657112000E-2, 
 3.755411133170128000E-3, 
 1.496440614573657500E-3, 
 -3.566205035895109000E-3, 
 -1.568809500895440600E-3, 
 8.375298231840134000E-3, 
 6.490817293524742000E-3, 
 -1.790210604667663600E-2, 
 6.904994603246450000E-3, 
 1.715420559048652600E-2, 
 2.558510191738605500E-2, 
 -3.965835203416645500E-4, 
 -3.524906700477004000E-3, 
 1.632844330742955200E-3, 
 7.822799496352673000E-3, 
 8.147034794092178000E-3, 
 -1.759414561092853500E-2, 
 -1.747472211718559300E-3, 
 -1.850811764597892800E-3, 
 6.402822211384773000E-3, 
 -5.166285205632448000E-3, 
 9.898028802126646000E-4, 
 -1.133881881833076500E-2, 
 -6.347321439534426000E-3, 
 5.325373262166977000E-3, 
 1.923238392919302000E-3, 
 4.557068459689617000E-3, 
 1.151315518654883000E-3, 
 1.018361002206802400E-2, 
 6.336915772408247000E-3, 
 -1.042407657951116600E-2, 
 -1.439294219017028800E-2, 
 7.526792120188475000E-3, 
 5.115202162414789000E-3, 
 7.838049903512001000E-3, 
 2.040102332830429000E-2, 
 2.522454829886555700E-3, 
 -2.539321593940258000E-2, 
 6.383277010172605500E-3, 
 -6.066703703254461000E-3, 
 -1.744737662374973300E-2, 
 -4.330950230360031000E-2, 
 -9.919471107423306000E-3, 
 2.119702659547329000E-2, 
 -1.107355300337076200E-2, 
 -2.688413951545953800E-3, 
 2.980913501232862500E-3, 
 1.329049281775951400E-2, 
 -1.824742369353771200E-2, 
 2.343948744237423000E-2, 
 7.190887699835002000E-4, 
 -2.160214073956012700E-2, 
 -2.884657867252826700E-2, 
 -1.922683557495474800E-3, 
 1.100618741475045700E-3, 
 -1.662502624094486200E-2, 
 1.805005781352520000E-2, 
 -6.143873091787100000E-3, 
 -2.212001243606209800E-3, 
 5.832215305417776000E-3, 
 2.174531295895576500E-2, 
 8.914873003959656000E-3, 
 -2.937473356723785400E-2, 
 3.278292343020439000E-2, 
 1.090324204415083000E-2, 
 -2.135352045297622700E-2, 
 2.985199354588985400E-2, 
 5.819219164550304000E-3, 
 -5.111707840114832000E-3, 
 -1.094395481050014500E-2, 
 1.159982010722160300E-2, 
 7.731752004474401500E-3, 
 1.301624812185764300E-2, 
 9.589844383299350000E-3, 
 1.917643286287784600E-2, 
 3.647556528449058500E-2, 
 5.314755253493786000E-3, 
 -1.952185109257698000E-2, 
 -3.291369415819645000E-3, 
 1.830075308680534400E-2, 
 -5.345175042748451000E-3, 
 -8.185110054910183000E-3, 
 -9.822223335504532000E-3, 
 5.932183470577002000E-3, 
 -6.656470708549023000E-3, 
 -7.267883513122797000E-3, 
 -7.149884477257729000E-3, 
 6.669674068689346000E-3, 
 -3.387482371181249600E-3, 
 7.100654765963554000E-3, 
 1.706397905945778000E-2, 
 -1.299273502081632600E-2, 
 -1.681974530220031700E-2, 
 -1.856275461614132000E-2, 
 2.707941690459847500E-3, 
 -1.784828305244445800E-2, 
 4.918439313769340500E-3, 
 5.639339331537485000E-3, 
 1.679268199950456600E-3, 
 -5.220980849117041000E-3, 
 1.792830601334572000E-2, 
 -2.637792145833373000E-3, 
 -1.895153522491455000E-2, 
 1.723078079521656000E-2, 
 2.840955927968025200E-2, 
 2.728957869112491600E-2, 
 -7.751664612442255000E-3, 
 -2.806512266397476200E-2, 
 1.613616757094860000E-2, 
 2.910644747316837300E-3, 
 -5.299284122884273500E-3, 
 -2.140951837645843600E-4, 
 3.274760674685240000E-3, 
 -1.000734511762857400E-2, 
 -8.381315506994724000E-3, 
 3.239938616752624500E-2, 
 8.312603458762169000E-3, 
 9.882888756692410000E-3, 
 -1.295452658087015200E-2, 
 1.321601215749979000E-2, 
 -3.330270200967789000E-2, 
 -1.846652361564338200E-3, 
 -2.489062026143074000E-2, 
 1.032422762364149100E-2, 
 4.667812958359718000E-3, 
 -2.128488011658191700E-2, 
 1.678718440234661000E-2, 
 -2.302287332713604000E-2, 
 -1.176877506077289600E-2, 
 -1.217783521860838000E-2, 
 7.825885899364948000E-3, 
 3.423181176185608000E-2, 
 -1.093035470694303500E-2, 
 -3.387456526979804000E-3, 
 6.774090230464935000E-3, 
 1.704801246523857000E-2, 
 -1.226439792662859000E-2, 
 2.063674852252006500E-3, 
 9.609100408852100000E-3, 
 1.745329983532428700E-2, 
 -1.036299485713243500E-2, 
 -1.101937331259250600E-2, 
 5.091002210974693000E-3, 
 1.601759903132915500E-2, 
 1.834735739976167700E-3, 
 -1.098002027720213000E-2, 
 4.599899519234896000E-3, 
 -3.204758837819099400E-2, 
 2.783999545499682400E-3, 
 -1.575717818923294500E-3, 
 -1.161575131118297600E-2, 
 -9.031459689140320000E-3, 
 -1.672946102917194400E-2, 
 -8.343411609530449000E-3, 
 -5.221570376306772000E-3, 
 -1.228916645050048800E-2, 
 1.138098887167871000E-3, 
 -3.343224152922630000E-2, 
 -3.098097164183855000E-3, 
 1.925368607044220000E-2, 
 2.623348310589790300E-2, 
 -1.445098593831062300E-2, 
 1.916609890758991200E-2, 
 4.034518729895353000E-3, 
 -2.493444085121154800E-2, 
 -3.801459912210703000E-3, 
 -2.035617642104625700E-2, 
 2.150022657588124300E-3, 
 1.773792505264282200E-2, 
 3.847248386591673000E-3, 
 1.164497248828411100E-2, 
 6.699086166918278000E-3, 
 1.149772573262453000E-2, 
 -7.789757568389177000E-3, 
 4.354401491582394000E-3, 
 -1.009787060320377300E-2, 
 -9.505365043878555000E-3, 
 3.940024878829718000E-3, 
 1.136072352528572000E-2, 
 -1.737600006163120300E-2, 
 7.289413828402758000E-3, 
 2.378915203735232400E-3, 
 -9.006581269204617000E-3, 
 -6.935938261449337000E-3, 
 1.775230839848518400E-2, 
 -1.370588783174753200E-2, 
 2.825407870113849600E-2, 
 -1.052855979651212700E-2, 
 1.589473523199558300E-2, 
 -1.808205619454384000E-2, 
 -9.877976961433887000E-3, 
 2.883771248161792800E-2, 
 -1.549854502081871000E-2, 
 -6.632800679653883000E-3, 
 -8.067812770605087000E-3, 
 -2.180752716958522800E-2, 
 6.816079374402761500E-3, 
 -1.554004661738872500E-2, 
 8.069888688623905000E-3, 
 -2.707427134737372400E-3, 
 -1.657362096011638600E-2, 
 -1.143581001088023200E-3, 
 3.174323355779051800E-3, 
 -3.980885259807110000E-3, 
 -3.437720704823732400E-3, 
 3.245008736848831000E-2, 
 -2.665282972157001500E-2, 
 1.465188711881637600E-2, 
 -9.693994186818600000E-3, 
 -2.238930389285087600E-2, 
 -8.014046587049961000E-3, 
 -1.970313675701618200E-2, 
 9.097756817936897000E-3, 
 -1.622130535542965000E-2, 
 -1.343036163598299000E-2, 
 -5.995219107717276000E-4, 
 -4.358115606009960000E-3, 
 2.246430376544594800E-3, 
 -4.109865520149469000E-3, 
 1.977520808577537500E-2, 
 -3.529406851157546000E-3, 
 1.799738779664039600E-2, 
 1.646367087960243200E-2, 
 2.720419783145189300E-3, 
 4.759423973155208000E-6, 
 1.042988733388483500E-3, 
 -2.174552716314792600E-2, 
 -1.473447866737842600E-2, 
 7.009407039731741000E-3, 
 -6.703393533825874000E-3, 
 -8.493662811815739000E-3, 
 6.782348267734051000E-3, 
 -1.712221093475818600E-2, 
 -1.852811872959137000E-2, 
 2.172771282494068000E-2, 
 2.324843220412731000E-2, 
 -2.529297024011612000E-2, 
 -2.601672522723674800E-2, 
 1.203757617622613900E-2, 
 -1.272617140784859700E-3, 
 1.587471738457679700E-2, 
 1.616391702555120000E-3, 
 8.708780631422997000E-3, 
 -8.184047415852547000E-3, 
 -2.277167979627847700E-3, 
 -2.001761225983500500E-3, 
 2.724422700703144000E-2, 
 7.153884507715702000E-3, 
 -6.378711666911840400E-3, 
 -1.651852391660213500E-2, 
 -1.732208207249641400E-2, 
 -2.034555375576019300E-2, 
 1.741333492100238800E-2, 
 1.435916591435670900E-2, 
 2.634659595787525200E-2, 
 8.288618177175522000E-3, 
 7.117762695997953000E-3, 
 6.347985006868839000E-3, 
 -1.148427557200193400E-2, 
 1.385460142046213200E-3, 
 -1.592486165463924400E-2, 
 -2.525896951556205700E-2, 
 -1.479819999076426000E-3, 
 1.485077198594808600E-2, 
 -2.038061793427914400E-4, 
 -2.682686038315296000E-2, 
 3.854201873764395700E-3, 
 2.420188859105110000E-2, 
 1.613176427781582000E-2, 
 5.895535461604595000E-3, 
 2.408726327121257800E-2, 
 -1.396487373858690300E-2, 
 1.472388580441475000E-2, 
 -1.183335203677415800E-2, 
 1.866991259157657600E-2, 
 1.000548509182408500E-4, 
 -1.554542686790227900E-3, 
 2.558904699981212600E-2, 
 -1.948290318250656000E-2, 
 -1.293634995818138100E-2, 
 -1.175859384238720000E-2, 
 -1.574766822159290300E-2, 
 -1.817382988519966600E-3, 
 -7.264900486916304000E-4, 
 -5.857931450009346000E-3, 
 -1.029363088309764900E-2, 
 -1.697817631065845500E-2, 
 1.114004524424672100E-3, 
 7.334790192544460000E-3, 
 -1.896208338439464600E-2, 
 7.775576785206795000E-3, 
 -2.912773285061121000E-3, 
 -1.974283158779144300E-2, 
 -2.319467440247535700E-2, 
 3.763594198971986800E-3, 
 9.233408491127193000E-4, 
 8.543229661881924000E-3, 
 1.134306541644036800E-3, 
 -1.521695125848054900E-2, 
 -1.529363077133894000E-2, 
 5.602667573839426000E-3, 
 1.242660358548164400E-2, 
 4.915657453238964000E-3, 
 -1.428862754255533200E-2, 
 3.980982117354870000E-3, 
 4.852685146033764000E-3, 
 7.434137165546417000E-3, 
 8.960366249084473000E-3, 
 3.872608067467808700E-4, 
 -2.547222375869751000E-2, 
 -2.970790304243564600E-2, 
 -1.880183070898056000E-2, 
 -2.295018406584859000E-3, 
 3.650229773484170400E-4, 
 2.596912905573845000E-2, 
 -4.118899349123239500E-3, 
 -1.190319564193487200E-2, 
 6.030649878084660000E-3, 
 -2.575407363474369000E-2, 
 8.389573544263840000E-3, 
 -2.562727220356464400E-2, 
 -2.816164633259177000E-3, 
 1.095268817152828000E-4, 
 5.606253165751696000E-3, 
 -1.667449995875358600E-2, 
 3.324531018733978000E-2, 
 -5.355084314942360000E-3, 
 1.422135438770055800E-2, 
 2.458202652633190000E-2, 
 -1.054077874869108200E-2, 
 -1.098438166081905400E-2, 
 -5.097067914903164000E-3, 
 2.707418054342270000E-3, 
 8.187199011445045000E-3, 
 9.967830032110214000E-3, 
 1.580436015501618400E-3, 
 -5.390823353081942000E-3, 
 9.126121876761317000E-4, 
 -2.245934301754459700E-4, 
 1.712102070450782800E-2, 
 4.224918957334012000E-4, 
 9.187519550323486000E-3, 
 -1.723868027329445000E-2, 
 -2.084300667047500600E-2, 
 -1.186844054609537100E-2, 
 -3.548462316393852000E-2, 
 -4.793999250978231000E-3, 
 -8.087187074124813000E-3, 
 2.620187029242515600E-2, 
 -1.336953323334455500E-2, 
 -4.693852737545967000E-3, 
 1.725842128507793000E-3, 
 -1.988557633012533000E-3, 
 -3.652128577232361000E-2, 
 -1.991298981010914000E-2, 
 -6.755899172276258500E-3, 
 -3.564480226486921300E-3, 
 -4.388098604977131000E-3, 
 9.600925259292126000E-3, 
 -1.946272328495979300E-2, 
 2.461591502651572200E-3, 
 1.822847640141844700E-3, 
 -1.145619619637727700E-2, 
 -1.267944648861885000E-2, 
 -1.006667874753475200E-2, 
 9.787633083760738000E-3, 
 -1.457930915057659100E-2, 
 2.895328402519226000E-2, 
 1.911404356360435500E-2, 
 -5.889289081096649000E-3, 
 1.620631664991378800E-3, 
 -1.698128692805767000E-2, 
 1.612032949924469000E-2, 
 6.298061925917864000E-3, 
 2.417728863656521000E-2, 
 -1.649646088480949400E-2, 
 8.308063261210918000E-3, 
 3.018258837983012000E-3, 
 -1.213271287269890300E-3, 
 1.816572062671184500E-2, 
 -7.258124183863401000E-3, 
 1.666772365570068400E-2, 
 2.668579691089690000E-4, 
 6.990246009081602000E-3, 
 -4.810409154742956000E-3, 
 5.987180396914482000E-3, 
 1.870125764980912200E-3, 
 6.139523349702358000E-3, 
 3.946382552385330000E-3, 
 -1.596681401133537300E-2, 
 -9.903049096465110000E-3, 
 -2.665332704782486000E-2, 
 1.462867762893438300E-2, 
 -1.750118657946586600E-2, 
 7.697747088968754000E-3, 
 -1.113544777035713200E-2, 
 -8.496129885315895000E-3, 
 -1.193985110148787500E-3, 
 1.095567829906940500E-2, 
 -5.236711353063583000E-3, 
 -2.509261481463909000E-2, 
 1.926176622509956400E-2, 
 1.207446958869695700E-2, 
 1.120381895452737800E-2, 
 1.186307612806558600E-2, 
 -1.709928363561630200E-2, 
 1.657794043421745300E-2, 
 1.407616026699543000E-2, 
 -1.545043196529150000E-2, 
 -2.949528396129608000E-3, 
 1.880661770701408400E-2, 
 -8.873223327100277000E-3, 
 -2.904494479298591600E-2, 
 -5.450697615742683000E-3, 
 -1.922158524394035300E-2, 
 4.002253059297800000E-3, 
 2.212249673902988400E-2, 
 -5.826483480632305000E-3, 
 -7.661665324121714000E-3, 
 1.871330104768276200E-2, 
 -2.183387987315654800E-2, 
 4.161372315138578000E-3, 
 4.032314755022526000E-3, 
 -1.663926173932850400E-3, 
 4.503650963306427000E-2, 
 -7.499762810766697000E-3, 
 -1.940371096134185800E-2, 
 -6.679778452962637000E-3, 
 -5.635604728013277000E-3, 
 -1.641051284968853000E-2, 
 1.448696758598089200E-2, 
 -1.432439964264631300E-2, 
 -1.061615161597728700E-2, 
 -1.333322748541832000E-2, 
 -1.538823358714580500E-3, 
 2.426670677959919000E-2, 
 -1.672300510108471000E-2, 
 -1.442067004973068800E-4, 
 -1.287096459418535200E-2, 
 -1.302709570154547700E-3, 
 1.561474986374378200E-2, 
 1.388292852789163600E-2, 
 -2.926370501518249500E-2, 
 -8.470803149975836000E-4, 
 -2.413168177008629000E-2, 
 1.734251156449318000E-2, 
 1.815440319478511800E-2, 
 -2.673245035111904000E-3, 
 9.875571355223656000E-3, 
 2.130356617271900200E-2, 
 6.322564557194710000E-3, 
 -6.575045641511679000E-3, 
 -7.452221587300301000E-3, 
 -1.542878709733486200E-2, 
 3.723330795764923000E-2, 
 -2.340471139177680000E-3, 
 -1.366682630032301000E-2, 
 -5.480407271534204500E-3, 
 -2.792472764849662800E-2, 
 -7.697518449276686000E-3, 
 -7.110049948096275000E-3, 
 6.314414739608765000E-2, 
 -1.469976548105478300E-2, 
 -1.214649248868227000E-2, 
 4.995691124349833000E-4, 
 -7.213697303086519000E-3, 
 3.747313097119331400E-2, 
 9.619669988751411000E-3, 
 9.533246979117393000E-3, 
 9.509100578725338000E-3, 
 9.616251336410642000E-4, 
 1.580950990319252000E-2, 
 -8.042862638831139000E-3, 
 1.102527696639299400E-2, 
 -6.757886148989201000E-3, 
 9.656579233705997000E-3, 
 -1.105725113302469300E-2, 
 3.499499335885048000E-2, 
 -1.651023328304290800E-2, 
 -3.065053746104240400E-2, 
 4.021997563540935500E-3, 
 -5.875579081475735000E-3, 
 -3.834619885310530700E-3, 
 -4.972134903073311000E-2, 
 -2.171065285801887500E-2, 
 4.152158740907907500E-3, 
 -9.219196625053883000E-3, 
 -1.664393581449985500E-2, 
 1.176502183079719500E-2, 
 -1.508893165737390500E-2, 
 -1.252205949276685700E-2, 
 5.632152315229177500E-3, 
 7.813919335603714000E-3, 
 8.410494774580002000E-3, 
 -1.601885445415973700E-2, 
 -1.160053163766861000E-2, 
 -4.170645494014025000E-3, 
 2.540086861699819600E-3, 
 -4.408190492540598000E-3, 
 1.417893916368484500E-2, 
 2.404931699857115700E-3, 
 1.360525470227003100E-2, 
 -3.754654526710510000E-2, 
 -5.715477745980024000E-3, 
 3.091431921347975700E-3, 
 -2.067743800580501600E-3, 
 3.792961593717336700E-3, 
 -2.704042708501219700E-3, 
 -1.744449324905872300E-2, 
 -4.481873940676451000E-3, 
 1.590218394994735700E-2, 
 2.377592725679278400E-3, 
 1.230885740369558300E-3, 
 -1.570497639477253000E-2, 
 -7.954564644023776000E-4, 
 2.774871652945876000E-3, 
 3.490524739027023000E-2, 
 -1.745943166315555600E-2, 
 -2.863504225388169300E-3, 
 -2.172989211976528000E-2, 
 1.755091734230518300E-2, 
 -1.989013282582164000E-3, 
 -5.543908569961786000E-3, 
 1.770180091261863700E-2, 
 2.675991505384445200E-2, 
 -8.183640427887440000E-3, 
 -9.463394060730934000E-3, 
 -9.552487172186375000E-3, 
 -7.275389973074198000E-3, 
 3.854451701045036300E-3, 
 -3.185729263350367500E-3, 
 4.099776968359947000E-3, 
 3.148415591567754700E-3, 
 9.337582625448704000E-3, 
 1.049325102940201800E-3, 
 -2.383579686284065200E-2, 
 -2.853236719965934800E-2, 
 1.857337728142738300E-2, 
 -1.141753047704696700E-2, 
 2.620606683194637300E-2, 
 1.418341044336557400E-2, 
 1.302727218717336700E-2, 
 1.731029828079044800E-3, 
 4.388517700135708000E-3, 
 1.627884060144424400E-2, 
 -1.526671741157770200E-2, 
 -5.706984666176140000E-4, 
 2.271474339067936000E-2, 
 1.125863404013216500E-3, 
 -3.078807611018419300E-3, 
 1.626841537654400000E-2, 
 6.981416605412960000E-3, 
 -1.683391816914081600E-2, 
 1.030229614116251500E-3, 
 1.981612667441368000E-2, 
 4.048122558742762000E-3, 
 -2.671921998262405400E-2, 
 2.852642210200429000E-3, 
 1.589453080669045400E-3, 
 -8.128388784825802000E-3, 
 1.297968719154596300E-2, 
 3.721639141440391500E-2, 
 7.355421315878630000E-3, 
 4.366761073470116000E-3, 
 2.265482954680919600E-2, 
 3.219201695173979000E-3, 
 -1.113511249423027000E-2, 
 -1.509727910161018400E-2, 
 3.268370637670159300E-3, 
 -8.973436430096626000E-3, 
 -9.193209931254387000E-3, 
 3.272441215813160000E-3, 
 2.145804651081562000E-2, 
 -2.045083418488502500E-2, 
 -3.036428987979889000E-2, 
 2.056493423879146600E-2, 
 1.912090182304382300E-2, 
 -2.224157564342022000E-2, 
 1.140228565782308600E-2, 
 -1.875996589660644500E-2, 
 -1.631263084709644300E-2, 
 -8.778104558587074000E-3, 
 -2.744964137673378000E-2, 
 -9.917228482663631000E-3, 
 -1.364772673696279500E-2, 
 -1.889737322926521300E-2, 
 1.743095461279153800E-3, 
 -2.062206715345382700E-2, 
 9.977669455111027000E-3, 
 -7.113761734217405000E-3, 
 -1.417628861963749000E-2, 
 -5.518149584531784000E-3, 
 9.728140197694302000E-3, 
 -2.206426113843918000E-3, 
 6.604807451367378000E-3, 
 -4.863309673964977000E-3, 
 -2.445550262928009000E-2, 
 3.719986230134964000E-2, 
 -1.331727392971515700E-2, 
 4.878773819655180000E-3, 
 -4.717626143246889000E-3, 
 6.701739504933357000E-3, 
 1.646813191473484000E-2, 
 -3.145660459995270000E-2, 
 5.935189779847860000E-3, 
 -1.827590540051460300E-2, 
 1.541362423449754700E-2, 
 -5.387819837778807000E-4, 
 1.435974892228841800E-2, 
 4.982138634659350000E-4, 
 -7.014506030827761000E-3, 
 7.893332280218601000E-3, 
 -3.461314737796783400E-2, 
 -1.404396072030067400E-2, 
 6.889533833600581000E-4, 
 -1.424154639244079600E-2, 
 -1.514953933656215700E-2, 
 5.810654256492853000E-3, 
 1.083756703883409500E-2, 
 2.277365513145923600E-2, 
 9.874300099909306000E-3, 
 5.866722203791142000E-4, 
 2.973546087741851800E-2, 
 8.624378591775894000E-3, 
 -3.268184885382652000E-2, 
 -2.548747695982456200E-2, 
 -2.159222960472107000E-2, 
 1.638215780258178700E-2, 
 -1.184368226677179300E-2, 
 -1.347340270876884500E-2, 
 1.095550786703825000E-2, 
