{
"filefrom": "dl4j",
"ordering": "c",
"shape":	[10001, 1],
"data":
[9.055386763066053000E-4, 
 -4.576020874083042000E-3, 
 9.614546783268452000E-3, 
 -1.273199636489152900E-2, 
 3.315472276881337000E-4, 
 -9.230582043528557000E-3, 
 -1.048379112035036000E-3, 
 3.760969499126076700E-3, 
 -1.357269380241632500E-2, 
 7.596669020131230000E-4, 
 -1.323849614709615700E-2, 
 -2.141663618385791800E-2, 
 6.460005883127451000E-3, 
 -7.620978285558522000E-4, 
 -1.383911073207855200E-2, 
 7.017759140580892600E-3, 
 1.975082606077194200E-2, 
 2.341336337849498000E-3, 
 -1.583590358495712300E-2, 
 9.038469754159450000E-3, 
 1.464809663593769000E-2, 
 1.237697247415781000E-2, 
 -8.414936251938343000E-3, 
 -1.000468991696834600E-2, 
 6.182194221764803000E-3, 
 2.032903488725424000E-3, 
 -3.048775717616081200E-3, 
 1.413570903241634400E-2, 
 -1.063883770257234600E-2, 
 4.977666307240724600E-3, 
 1.465119607746601100E-2, 
 4.534646868705749500E-4, 
 -2.753908047452569000E-3, 
 4.488363862037659000E-3, 
 -1.062569674104452100E-3, 
 2.184967882931232500E-2, 
 2.419205615296960000E-3, 
 9.644238743931055000E-4, 
 -2.964671875815838600E-4, 
 -2.238049916923046000E-2, 
 -6.576731801033020000E-3, 
 1.279954612255096400E-2, 
 -1.165294204838574000E-3, 
 -8.629330433905125000E-3, 
 -6.676599732600152000E-4, 
 1.227957010269165000E-2, 
 1.029385719448328000E-2, 
 9.708075784146786000E-3, 
 1.112592581193894100E-4, 
 1.391894929111003900E-2, 
 5.097432993352413000E-3, 
 -9.437819011509418000E-3, 
 -1.272508222609758400E-2, 
 -9.133105166256428000E-3, 
 4.537689499557018000E-3, 
 5.418684333562851000E-3, 
 -6.790908519178629000E-3, 
 -8.842784911394120000E-3, 
 6.195716559886932000E-3, 
 -1.090139616280794100E-3, 
 1.050479430705309000E-2, 
 1.064467802643776000E-2, 
 -3.962335176765919000E-3, 
 1.357697037747129800E-4, 
 8.061755448579788000E-3, 
 4.886372480541468000E-3, 
 1.662847772240638700E-2, 
 1.345586497336626000E-3, 
 -7.338752038776874500E-3, 
 -1.959969662129879000E-2, 
 2.102656289935112000E-2, 
 -2.537638647481799000E-3, 
 -6.073227152228355000E-3, 
 1.190773956477642000E-2, 
 -3.199886414222419000E-4, 
 -9.712350554764270000E-3, 
 -7.720287889242172000E-3, 
 -4.731969675049186000E-4, 
 -1.447198167443275500E-2, 
 -5.493194796144962000E-3, 
 -2.233939431607723200E-2, 
 -1.863334327936172500E-2, 
 -1.100570056587457700E-2, 
 5.056304857134819000E-3, 
 -1.657267846167087600E-2, 
 1.031271554529666900E-2, 
 -1.582255586981773400E-2, 
 -4.282456822693348000E-3, 
 8.046212606132030000E-3, 
 -4.185549449175596000E-3, 
 -5.359626375138760000E-3, 
 1.323182601481676100E-2, 
 1.634261384606361400E-2, 
 1.543471496552229000E-2, 
 -2.810591133311391000E-3, 
 -8.002548478543758000E-3, 
 9.039069525897503000E-3, 
 7.048677187412977000E-3, 
 9.290730580687523000E-3, 
 3.786136396229267000E-3, 
 -9.806903544813395000E-4, 
 1.931131258606910700E-2, 
 2.659134007990360300E-2, 
 -5.625708494335413000E-3, 
 5.243205931037664000E-3, 
 -3.918497823178768000E-3, 
 1.618035323917865800E-2, 
 -7.592909387312830000E-4, 
 -6.055612466298044000E-4, 
 4.789775703102350000E-3, 
 7.458050968125463000E-4, 
 2.749088744167238500E-4, 
 3.012700192630291000E-2, 
 7.338180206716061000E-3, 
 2.585092559456825300E-3, 
 2.145112724974751500E-3, 
 8.849963545799255000E-3, 
 -3.106297692283988000E-3, 
 1.047984510660171500E-2, 
 6.600932218134403000E-3, 
 -1.086623687297105800E-2, 
 1.678282395005226100E-3, 
 -2.817552071064710600E-3, 
 1.356678176671266600E-2, 
 3.028371429536491600E-4, 
 -6.630871910601854000E-3, 
 1.674618758261203800E-2, 
 -1.656044856645166900E-3, 
 1.950137550011277200E-3, 
 2.010677382349968000E-2, 
 1.638578623533249000E-2, 
 1.212322153151035300E-2, 
 8.801300078630447000E-3, 
 -3.294042078778147700E-3, 
 2.067388966679573000E-3, 
 1.754260435700416600E-2, 
 -9.389332495629787000E-3, 
 -4.069232847541571000E-3, 
 -9.415742009878159000E-3, 
 -6.188760045915842000E-3, 
 -5.094461143016815000E-3, 
 1.802753657102585000E-2, 
 -4.444984951987862600E-4, 
 -7.588958833366632500E-3, 
 -2.823642222210765000E-3, 
 1.812714734114706500E-3, 
 9.108019061386585000E-3, 
 -9.906306862831116000E-3, 
 -4.602460190653801000E-3, 
 9.316031355410814000E-4, 
 3.110575722530484000E-3, 
 4.177358001470566000E-3, 
 -2.226953580975532500E-2, 
 -1.064699515700340300E-2, 
 1.539638359099626500E-2, 
 9.699180722236633000E-3, 
 -1.129517424851656000E-2, 
 1.864475011825561500E-2, 
 1.148561760783195500E-2, 
 4.078079946339130000E-3, 
 5.684494972229004000E-3, 
 3.592495573684573000E-3, 
 -1.297570206224918400E-2, 
 -2.109914785251021400E-3, 
 -1.201166119426488900E-2, 
 5.240328144282103000E-3, 
 -1.088443750631995500E-4, 
 -1.101927366107702300E-2, 
 -8.806778118014336000E-3, 
 1.431028940714895700E-3, 
 -5.940475035458803000E-3, 
 -4.198504611849785000E-4, 
 -2.747278427705168700E-3, 
 -1.277306769043207200E-2, 
 1.413635350763797800E-2, 
 -1.351452805101871500E-2, 
 5.579467862844467000E-3, 
 -8.357645943760872000E-3, 
 7.217649836093187000E-4, 
 4.557678010314703000E-3, 
 1.598144508898258200E-2, 
 -5.898548290133476000E-3, 
 -6.556574255228043000E-3, 
 -1.229299046099186000E-2, 
 -3.248746506869793000E-3, 
 -5.541324149817228000E-3, 
 -5.827834364026785000E-3, 
 -1.619700808078050600E-3, 
 -9.662396274507046000E-3, 
 3.215942415408790000E-4, 
 -1.109408563934266600E-3, 
 -1.719781756401062000E-2, 
 1.355493324808776400E-3, 
 -1.096552237868309000E-2, 
 1.883393526077270500E-2, 
 -2.372940257191658000E-2, 
 1.319622341543436000E-2, 
 3.882686432916671000E-4, 
 -5.523132625967264000E-3, 
 9.086976759135723000E-3, 
 1.782891154289245600E-2, 
 5.721670459024608000E-4, 
 1.810254715383052800E-2, 
 -9.349792264401913000E-3, 
 4.770357627421617500E-3, 
 -7.944041863083840000E-3, 
 9.162195026874542000E-3, 
 -1.842671073973179000E-2, 
 -1.799902692437172000E-2, 
 2.481641480699181600E-3, 
 2.876103390008211000E-3, 
 2.759626135230064400E-3, 
 -1.351136155426502200E-2, 
 -5.543445702642202000E-3, 
 -5.532470066100359000E-3, 
 -8.425462059676647000E-3, 
 6.375032942742109000E-3, 
 3.147072391584515600E-3, 
 -7.538888137787580500E-3, 
 4.330809693783522000E-3, 
 -4.124704748392105000E-3, 
 -7.863965001888573000E-4, 
 3.340138820931315400E-3, 
 -1.823588740080595000E-3, 
 -2.559757267590612000E-4, 
 -7.998710498213768000E-4, 
 3.720801789313554800E-3, 
 2.672529546543956000E-3, 
 -8.488751947879791000E-3, 
 -3.447298891842365300E-3, 
 9.818058460950851000E-3, 
 -8.868229575455189000E-3, 
 6.537953391671181000E-3, 
 1.202667597681284000E-2, 
 -8.549265563488007000E-3, 
 8.429232053458690000E-3, 
 1.180127449333667800E-2, 
 -1.034244056791067100E-2, 
 2.702380763366818400E-3, 
 -3.154486184939742000E-3, 
 -4.097044467926025000E-3, 
 -1.007742714136838900E-2, 
 9.992764331400394000E-3, 
 -2.039064565906301100E-4, 
 1.452169474214315400E-2, 
 1.078719389624893700E-3, 
 1.220743521116674000E-3, 
 -8.185913786292076000E-3, 
 2.285853028297424300E-2, 
 8.025864139199257000E-3, 
 1.220509316772222500E-2, 
 7.739295717328787000E-3, 
 -9.768812917172909000E-3, 
 4.704701248556375500E-3, 
 -1.016653259284794300E-3, 
 8.059684187173843000E-3, 
 -1.034903153777122500E-2, 
 3.440729109570384000E-3, 
 4.096305463463068000E-3, 
 3.583490848541259800E-3, 
 5.067857448011637000E-3, 
 -4.665052983909845000E-3, 
 8.979055099189281000E-3, 
 -3.892337903380394000E-3, 
 -2.133559994399547600E-2, 
 1.401364896446466400E-2, 
 -6.951533723622560500E-3, 
 1.360978931188583400E-2, 
 -1.633636094629764600E-2, 
 -2.644040063023567200E-2, 
 -5.190807278268039000E-4, 
 -1.747928326949477200E-3, 
 -1.628879271447658500E-2, 
 -4.815415013581514000E-3, 
 1.684013521298766100E-3, 
 -5.645161494612694000E-3, 
 1.232283073477447000E-3, 
 1.092786621302366300E-2, 
 5.563960876315832000E-3, 
 4.371002782136202000E-3, 
 1.408501062542200000E-3, 
 -4.059602506458759000E-3, 
 1.773147657513618500E-2, 
 4.261687863618135500E-3, 
 3.118762746453285200E-3, 
 1.217454482684843200E-4, 
 -1.580362441018223800E-3, 
 1.055361516773700700E-2, 
 1.347149373032152700E-3, 
 1.049177953973412500E-3, 
 4.022861830890179000E-3, 
 3.143085341434926000E-4, 
 5.518627818673849000E-3, 
 -4.500013310462236400E-4, 
 2.257188223302364300E-2, 
 -7.972907274961472000E-3, 
 9.866341948509216000E-3, 
 8.928672410547733000E-3, 
 -3.631985047832131400E-3, 
 1.176369097083807000E-2, 
 6.428606342524290000E-3, 
 -5.451663397252560000E-3, 
 -4.106097389012575000E-3, 
 -1.535541005432605700E-2, 
 5.257410462945700000E-3, 
 2.005172148346901000E-2, 
 1.653403416275978000E-2, 
 6.038767285645008000E-3, 
 1.023355219513177900E-2, 
 -2.676984993740916300E-3, 
 1.080785691738128700E-2, 
 -4.010532284155488000E-4, 
 1.422446779906749700E-2, 
 8.543025702238083000E-3, 
 4.371946211904287000E-3, 
 2.604466862976551000E-3, 
 5.391067825257778000E-3, 
 1.032981555908918400E-2, 
 1.359133166261017300E-3, 
 -1.567556150257587400E-2, 
 -5.200172308832407000E-3, 
 -2.653999545145780000E-4, 
 1.601971685886383000E-2, 
 1.614651456475258000E-2, 
 9.667789563536644000E-3, 
 2.624731278046965600E-3, 
 6.160374265164137000E-3, 
 -8.210806176066399000E-3, 
 1.166859641671180700E-3, 
 -2.852806588634848600E-3, 
 -3.209975548088550600E-3, 
 -8.727611973881721000E-3, 
 6.574701517820358000E-3, 
 5.023959558457136000E-3, 
 -8.590608835220337000E-3, 
 -6.383262574672699000E-3, 
 -2.498865593224764000E-3, 
 5.103435367345810000E-3, 
 1.697890576906502200E-3, 
 -3.254168899729848000E-3, 
 -5.894222762435675000E-3, 
 -1.218494214117527000E-2, 
 -1.319187507033348000E-2, 
 -2.171398885548114800E-2, 
 1.622513053007423900E-3, 
 2.014534547924995400E-3, 
 -9.556724689900875000E-3, 
 4.486043471843004000E-3, 
 8.676921017467976000E-3, 
 -1.325644087046384800E-2, 
 -5.671119317412376000E-3, 
 8.974662981927395000E-3, 
 -9.006815031170845000E-3, 
 -1.379351690411567700E-2, 
 3.217473858967423400E-3, 
 1.256671827286481900E-2, 
 4.155323375016451000E-3, 
 2.441497705876827200E-2, 
 -4.493293352425098000E-3, 
 8.815785869956017000E-3, 
 -8.345277456101030000E-5, 
 -2.470535458996892000E-3, 
 -6.298594176769257000E-3, 
 2.166321314871311200E-2, 
 -1.384578831493854500E-2, 
 2.167013939470052700E-3, 
 -1.001261547207832300E-2, 
 1.570366136729717300E-2, 
 -4.486149176955223000E-3, 
 5.058369599282741500E-3, 
 -1.110636861994862600E-3, 
 9.753496386110783000E-3, 
 -1.282300613820552800E-2, 
 -6.924674380570650000E-4, 
 2.076852833852172000E-3, 
 -4.493719432502985000E-3, 
 -6.929525174200535000E-3, 
 -5.278136581182480000E-3, 
 -2.154487883672118000E-3, 
 4.352220799773931500E-3, 
 1.042592921294272000E-3, 
 4.324393812566996000E-3, 
 -4.490587394684553000E-3, 
 4.490375984460115000E-3, 
 -9.841344319283962000E-3, 
 -1.701141358353197600E-3, 
 1.986730378121137600E-3, 
 -1.136937923729419700E-2, 
 -4.649614449590444600E-3, 
 -9.708062745630741000E-3, 
 -2.413753187283873600E-3, 
 1.615921035408973700E-2, 
 2.190962666645646000E-3, 
 -6.169680040329695000E-3, 
 -3.021843731403351000E-2, 
 5.088363774120808000E-3, 
 -1.268671359866857500E-2, 
 3.165800357237458200E-3, 
 8.888748474419117000E-3, 
 -9.754705242812634000E-3, 
 -4.465085221454501000E-4, 
 2.424713782966137000E-2, 
 -3.942738752812147000E-3, 
 -7.798347622156143000E-3, 
 1.083360891789198000E-2, 
 4.655590280890465000E-3, 
 -4.355272278189659000E-3, 
 1.050074957311153400E-2, 
 5.349356215447187000E-3, 
 -3.691823920235038000E-3, 
 -2.071190392598510000E-3, 
 -3.691497258841991400E-3, 
 1.690226420760154700E-2, 
 -4.876192659139633000E-3, 
 2.392255142331123400E-2, 
 -1.647398248314857500E-2, 
 -9.578865274306736000E-7, 
 3.757056547328829800E-3, 
 -9.634756133891642000E-4, 
 7.429933641105890000E-3, 
 -5.776184843853116000E-4, 
 -7.444106973707676000E-3, 
 -5.790104623883963000E-3, 
 -1.451334822922945000E-2, 
 -1.007955800741911000E-2, 
 -1.131249964237213100E-2, 
 -1.714964583516121000E-2, 
 2.124529564753174800E-3, 
 -1.918924786150455500E-2, 
 6.340817344607785000E-5, 
 -1.597490045242011500E-3, 
 1.882886979728937100E-3, 
 -5.656125489622354500E-3, 
 -3.834930947050452200E-3, 
 1.384171377867460300E-2, 
 -1.707795448601246000E-2, 
 -7.266049273312092000E-3, 
 -1.210375409573316600E-2, 
 -3.287323750555515300E-3, 
 6.244868971407413500E-3, 
 5.336019210517406500E-3, 
 -2.755750669166445700E-3, 
 7.627512328326702000E-3, 
 1.141282264143228500E-3, 
 1.219764444977045000E-2, 
 -8.134815841913223000E-3, 
 1.376300584524870000E-2, 
 5.784549284726381000E-3, 
 -5.845578853040934000E-3, 
 -7.341559510678053000E-3, 
 -2.720956457778811500E-3, 
 1.818961277604103000E-2, 
 -4.733497742563486000E-3, 
 -1.379841566085815400E-2, 
 5.560055375099182000E-3, 
 2.437850646674633000E-2, 
 -9.960166178643703000E-3, 
 -6.591505371034145000E-3, 
 -1.644338853657245600E-2, 
 -3.693543607369065300E-3, 
 1.361989707220345700E-4, 
 5.713376682251692000E-3, 
 1.981708686798811000E-3, 
 -5.679063498973846400E-3, 
 1.993696764111519000E-2, 
 -1.459888368844986000E-2, 
 -1.701438799500465400E-2, 
 -3.077939618378877600E-3, 
 8.171514491550624000E-4, 
 2.574959769845009000E-2, 
 6.707630120217800000E-3, 
 -1.916795223951339700E-2, 
 3.093511797487735700E-3, 
 1.759084640070796000E-3, 
 -2.040217630565166500E-3, 
 -2.275601727887988000E-3, 
 -5.331964697688818000E-3, 
 1.707923412322998000E-2, 
 -9.358700364828110000E-3, 
 1.427834760397672700E-2, 
 -2.610578900203109000E-3, 
 7.031087763607502000E-3, 
 1.353633683174848600E-2, 
 -3.479485632851720000E-3, 
 -4.263637587428093000E-3, 
 -3.330753184854984300E-3, 
 7.736846804618835400E-3, 
 6.114618387073278000E-3, 
 -6.638823542743921000E-3, 
 -1.397398300468921700E-2, 
 1.718917628750205000E-3, 
 -3.237049328163266000E-3, 
 1.262951735407114000E-2, 
 -6.528628990054130600E-3, 
 1.331253536045551300E-2, 
 8.624871261417866000E-3, 
 -1.461922656744718600E-2, 
 -8.959420956671238000E-4, 
 7.204153109341860000E-3, 
 1.351659465581178700E-2, 
 -2.419877331703901300E-3, 
 -1.304709352552890800E-2, 
 5.137349013239145000E-3, 
 6.845153402537107500E-3, 
 -4.797765519469976000E-3, 
 4.939174279570579500E-3, 
 8.196319453418255000E-3, 
 2.587752183899283400E-3, 
 2.108767814934253700E-2, 
 1.138322521001100500E-2, 
 1.713949488475918800E-3, 
 1.221176795661449400E-2, 
 3.967005759477615000E-3, 
 -2.492164785508066400E-4, 
 1.772175170481205000E-2, 
 4.543187562376261000E-3, 
 -8.141531608998775000E-3, 
 -9.423727169632912000E-3, 
 -7.849619723856449000E-3, 
 4.802499432116747000E-3, 
 -1.951719261705875400E-2, 
 3.050461644306779000E-3, 
 -9.110200218856335000E-3, 
 -5.065655801445246000E-3, 
 4.090596456080675000E-3, 
 -8.400955237448215000E-3, 
 7.992962375283241000E-3, 
 5.845036357641220000E-3, 
 -7.276721764355898000E-3, 
 -9.440992027521133000E-3, 
 -1.967520825564861300E-2, 
 -1.022964064031839400E-2, 
 9.756925515830517000E-3, 
 1.102273631840944300E-2, 
 -6.081755273044109000E-3, 
 -1.973870396614074700E-2, 
 4.554443061351776000E-3, 
 1.321261469274759300E-2, 
 2.169043757021427000E-3, 
 -9.254893288016320000E-3, 
 8.667069487273693000E-3, 
 3.379561007022857700E-3, 
 -2.993405330926180000E-3, 
 -1.701684523141011600E-4, 
 -9.679473587311804000E-4, 
 1.661643502302467800E-3, 
 -1.957868598401546500E-2, 
 3.930563107132911700E-4, 
 -1.031372509896755200E-2, 
 -1.066643465310335200E-2, 
 -1.471387222409248400E-2, 
 8.471060544252396000E-3, 
 -6.008277181535959000E-3, 
 7.225046865642071000E-3, 
 -2.475286461412906600E-2, 
 1.494166161864996000E-2, 
 -2.991753863170743000E-3, 
 1.425689365714788400E-2, 
 -5.417830776423216000E-3, 
 -1.195523981004953400E-2, 
 -1.012964732944965400E-2, 
 1.268952619284391400E-2, 
 -2.136490773409605000E-3, 
 6.226904690265655500E-3, 
 2.794100437313318300E-3, 
 -4.804989788681269000E-3, 
 -6.434122769860551000E-5, 
 4.712981171905994400E-4, 
 7.109438301995397000E-4, 
 -4.569806624203920000E-3, 
 -2.404962899163365400E-3, 
 -1.251004729419946700E-2, 
 -1.704920642077922800E-2, 
 -7.748012896627188000E-3, 
 -7.017134223133326000E-3, 
 -7.805185858160257000E-3, 
 -7.670073304325342000E-3, 
 -4.894786048680544000E-3, 
 1.202580332756042500E-2, 
 4.018314182758331000E-3, 
 2.878462430089712000E-3, 
 9.281036444008350000E-3, 
 -8.279807865619660000E-3, 
 1.589645072817802400E-2, 
 -1.046943129040300800E-3, 
 -6.427904125303030000E-3, 
 -4.199983552098274000E-3, 
 6.200176198035479000E-3, 
 4.481616429984569500E-3, 
 -1.236902084201574300E-2, 
 -4.188157618045807000E-3, 
 1.776766264811158200E-3, 
 4.817969456780702000E-4, 
 -2.091861795634031300E-3, 
 -8.388360030949116000E-3, 
 -4.109729197807610000E-4, 
 -1.104462426155805600E-2, 
 1.687614247202873200E-2, 
 -5.611543077975511600E-3, 
 -1.402832940220832800E-2, 
 1.738366670906543700E-2, 
 4.996635019779205000E-3, 
 8.402988314628601000E-3, 
 1.997344754636287700E-2, 
 4.594099707901478000E-3, 
 2.131715603172779000E-2, 
 -7.208222086774185000E-5, 
 1.035061478614807100E-2, 
 1.570961810648441300E-2, 
 7.285483181476593000E-3, 
 -1.843336038291454300E-3, 
 2.324973419308662400E-2, 
 3.400280326604843000E-2, 
 -1.227119751274585700E-2, 
 1.401710230857133900E-2, 
 1.808359404094517200E-3, 
 1.855110190808773000E-2, 
 3.324929159134626400E-3, 
 -1.508372742682695400E-2, 
 -1.202586106956005000E-3, 
 -2.478445880115032200E-2, 
 -9.505165740847588000E-3, 
 7.119096349924803000E-3, 
 4.420572891831398000E-3, 
 2.118154428899288200E-2, 
 -2.733861037995666000E-4, 
 1.649674843065440700E-3, 
 5.510446615517139400E-3, 
 1.008243020623922300E-2, 
 -1.031288038939237600E-2, 
 8.374743163585663000E-3, 
 2.760245231911540000E-3, 
 2.204156015068292600E-3, 
 1.394919119775295300E-2, 
 -6.278954446315765000E-3, 
 2.368049899814650400E-4, 
 3.773377276957035000E-3, 
 -6.907902657985687000E-3, 
 -1.936276559717953200E-3, 
 5.888537969440222000E-3, 
 -4.871573299169540000E-3, 
 -1.230130158364772800E-2, 
 8.129585767164826000E-4, 
 -3.991105186287313700E-4, 
 -3.157288767397403700E-3, 
 -1.627212855964899000E-3, 
 -7.993713021278381000E-3, 
 1.518967282027006100E-2, 
 -8.619767613708973000E-3, 
 2.045954950153827700E-2, 
 1.937615871429443400E-2, 
 -8.229879662394524000E-3, 
 3.382421797141432800E-3, 
 8.478005416691303000E-3, 
 1.999800093472004000E-2, 
 -2.796069532632827800E-2, 
 -7.363384938798845000E-4, 
 1.799787394702434500E-2, 
 1.079573575407266600E-2, 
 4.676751326769590000E-3, 
 2.357101626694202400E-2, 
 -1.814456284046173000E-2, 
 1.277144160121679300E-2, 
 7.261639460921287500E-3, 
 -8.026924915611744000E-3, 
 3.360406495630741000E-3, 
 -1.101658120751381000E-2, 
 1.074539031833410300E-2, 
 -1.094475481659174000E-2, 
 -1.450643222779035600E-2, 
 1.806624233722686800E-2, 
 3.021853510290384300E-3, 
 4.591473378241062000E-3, 
 1.217916375026106800E-3, 
 -4.391555674374103500E-3, 
 3.198771178722381600E-2, 
 -6.569716613739729000E-3, 
 -3.055831184610724400E-3, 
 1.350183505564928000E-2, 
 -1.167748123407364000E-3, 
 2.670620940625667600E-2, 
 -6.484503392130136500E-3, 
 8.466016501188278000E-3, 
 8.440219797194004000E-3, 
 -3.140991786494851000E-3, 
 -1.644460484385490400E-2, 
 7.462068926542997000E-3, 
 3.631982253864407500E-3, 
 2.842168556526303300E-3, 
 7.353759836405516000E-3, 
 -8.390878327190876000E-3, 
 1.021978911012411100E-2, 
 1.814339659176766900E-3, 
 -7.755770348012447000E-3, 
 -4.389251116663217500E-3, 
 4.731798544526100000E-3, 
 1.062324922531843200E-2, 
 -1.124736107885837600E-2, 
 2.678186632692814000E-3, 
 -3.014120040461421000E-3, 
 2.344845235347747800E-2, 
 -1.417813356965780300E-2, 
 -7.987994700670242000E-3, 
 8.496182039380074000E-3, 
 -2.086975611746311200E-2, 
 1.473100017756223700E-2, 
 1.480753562645986700E-4, 
 -9.445343748666346000E-4, 
 -6.906105205416679000E-3, 
 1.159231062047183500E-3, 
 6.702388171106577000E-3, 
 -9.031402878463268000E-3, 
 -1.084910426288843200E-2, 
 7.177229970693588000E-3, 
 -1.804980915039777800E-3, 
 -2.592342440038919400E-3, 
 1.014457456767559000E-2, 
 7.218772545456886000E-3, 
 5.964430747553706000E-4, 
 5.999989341944456000E-3, 
 1.187667436897754700E-2, 
 2.168991602957248700E-3, 
 3.257454663980752000E-4, 
 -4.284410271793604000E-3, 
 -9.880095720291138000E-3, 
 1.076521631330251700E-2, 
 -2.599617000669241000E-3, 
 6.187182385474443400E-3, 
 1.137323863804340400E-2, 
 -1.745642657624557600E-4, 
 1.063202216755598800E-4, 
 -1.604737155139446300E-2, 
 6.889257580041885000E-3, 
 -2.602466149255633400E-3, 
 -5.500199738889933000E-3, 
 -7.084430661052465400E-3, 
 -7.835217402316630000E-4, 
 -3.876489819958806000E-3, 
 5.228384397923946000E-4, 
 1.983098685741424600E-2, 
 1.265865284949541000E-3, 
 1.167759113013744400E-2, 
 6.168222986161709000E-3, 
 1.184265408664941800E-2, 
 2.564133331179619000E-2, 
 -4.329790826886892000E-3, 
 1.608418766409158700E-3, 
 1.064974628388881700E-2, 
 -7.766419555991888000E-3, 
 1.091789267957210500E-2, 
 -1.048435457050800300E-3, 
 9.970835410058498000E-3, 
 3.202829742804169700E-3, 
 -1.344241434708237600E-3, 
 -2.993341477122158000E-4, 
 1.230575609952211400E-2, 
 -2.275499515235424000E-2, 
 4.402965423651039600E-4, 
 -1.225156988948583600E-2, 
 4.759177565574646000E-3, 
 -5.816675256937742000E-3, 
 -4.486018791794777000E-3, 
 1.034137886017561000E-2, 
 1.796363294124603300E-2, 
 -2.569493837654590600E-3, 
 -1.556787319714203500E-4, 
 1.268759742379188500E-2, 
 -1.522172428667545300E-2, 
 -8.589692413806915000E-3, 
 2.083201520144939400E-2, 
 -1.048916019499302000E-3, 
 -9.853944182395935000E-3, 
 1.064254995435476300E-2, 
 7.967485114932060000E-3, 
 9.907820262014866000E-3, 
 -4.049205221235752000E-3, 
 1.126833446323871600E-2, 
 2.141698496416211000E-3, 
 -7.096705026924610000E-3, 
 -4.488528240472078000E-3, 
 -1.513834297657013000E-2, 
 -1.617489755153656000E-2, 
 8.571860380470753000E-3, 
 -1.697310432791710000E-2, 
 8.261719718575478000E-3, 
 -1.388212572783231700E-2, 
 -3.025253303349018000E-3, 
 -4.842610505875200000E-4, 
 1.365919224917888600E-2, 
 1.794133149087429000E-2, 
 1.098436862230300900E-2, 
 1.207385398447513600E-2, 
 1.607587910257279900E-3, 
 1.514649298042059000E-2, 
 6.822804920375347000E-3, 
 1.163543201982975000E-2, 
 -1.789996022125706000E-4, 
 -2.745706588029861500E-3, 
 -2.921357518061995500E-3, 
 3.198043443262577000E-3, 
 -9.457901120185852000E-3, 
 -1.532393600791692700E-2, 
 1.523084938526153600E-3, 
 1.481368206441402400E-2, 
 -2.363577857613563500E-2, 
 1.497485768049955400E-2, 
 -3.677388653159141500E-3, 
 -6.061871536076069000E-3, 
 4.292677156627178000E-3, 
 -9.756379760801792000E-3, 
 1.770668663084507000E-2, 
 2.968080714344978300E-2, 
 1.017699670046568000E-2, 
 -2.478401642292738000E-3, 
 6.762627512216568000E-3, 
 7.266265805810690000E-3, 
 -5.652912426739931000E-3, 
 -1.089286431670188900E-2, 
 1.626224070787429800E-2, 
 -4.963229410350323000E-3, 
 -4.375134129077196000E-3, 
 2.404292114078998600E-3, 
 -6.892186123877764000E-3, 
 1.262553269043564800E-3, 
 7.449605967849493000E-3, 
 -3.403255948796868300E-3, 
 -6.661292165517807000E-3, 
 -3.892585402354598000E-3, 
 1.423466950654983500E-2, 
 -1.408330164849758100E-2, 
 -2.388742053881287600E-3, 
 -8.481216616928577000E-3, 
 -6.771750631742179000E-4, 
 9.619459160603583000E-4, 
 -3.577166062314063300E-4, 
 1.613220432773232500E-3, 
 6.989807356148958000E-3, 
 6.515690591186285000E-3, 
 4.828630015254021000E-3, 
 -2.325427485629916200E-4, 
 4.358044359833002000E-3, 
 -1.904893852770328500E-2, 
 -1.895852014422416700E-2, 
 -1.842734962701797500E-2, 
 1.544213108718395200E-2, 
 -2.378734061494469600E-3, 
 -4.911234602332115000E-3, 
 -1.745235361158847800E-2, 
 -1.099642645567655600E-2, 
 7.938883267343044000E-3, 
 -8.773317094892263000E-4, 
 3.293523914180696000E-4, 
 1.122113782912492800E-2, 
 -1.497513893991708800E-2, 
 -1.384479226544499400E-3, 
 9.670072235167027000E-3, 
 1.283425558358430900E-2, 
 -5.190178286284208000E-3, 
 -2.906653797253966300E-3, 
 -4.381115548312664000E-3, 
 7.644032128155231500E-3, 
 1.299788709729909900E-2, 
 -9.506606496870518000E-3, 
 1.198970130644738700E-4, 
 7.397383451461792000E-4, 
 -1.468874327838420900E-2, 
 -5.038466770201921500E-3, 
 -1.281539071351289700E-2, 
 3.458184422925114600E-3, 
 -8.232897147536278000E-3, 
 -9.722619317471981000E-3, 
 1.419151551090180900E-3, 
 8.883775211870670000E-3, 
 -2.845969574991613600E-4, 
 1.983086578547954600E-3, 
 6.128564942628145000E-3, 
 -1.037076953798532500E-2, 
 4.895788617432117500E-3, 
 1.300737634301185600E-2, 
 8.529650978744030000E-3, 
 9.307669475674630000E-3, 
 4.143500118516385600E-4, 
 8.962241001427174000E-3, 
 1.623986102640628800E-2, 
 6.529385223984718000E-3, 
 4.137092735618353000E-3, 
 -2.008819254115224000E-3, 
 7.144678849726915000E-3, 
 -8.186910301446915000E-3, 
 5.889622960239649000E-3, 
 3.338947426527738600E-4, 
 7.339950650930405000E-3, 
 -1.158194523304700900E-2, 
 7.255123928189278000E-3, 
 -4.068768583238125000E-3, 
 -5.938160698860884000E-3, 
 1.679864712059498000E-2, 
 -5.744146183133125000E-3, 
 1.899808528833091300E-3, 
 -6.509147118777037000E-3, 
 -2.509952289983630000E-3, 
 1.051009725779295000E-2, 
 -7.036708295345306000E-3, 
 -8.588261902332306000E-3, 
 -1.726210489869117700E-2, 
 -1.830421388149261500E-2, 
 1.932118320837617000E-3, 
 2.418108843266964000E-2, 
 1.249578967690467800E-2, 
 1.092340238392353000E-2, 
 -2.658417914062738400E-3, 
 2.217443397967144800E-4, 
 6.620485219173133000E-4, 
 -1.320755947381258000E-2, 
 -1.551304291933775000E-2, 
 6.170801934786141000E-4, 
 -5.449009127914905500E-3, 
 -5.280259530991316000E-3, 
 1.029559876769781100E-2, 
 -4.967003595083952000E-3, 
 1.162220258265733700E-3, 
 9.764247573912144000E-3, 
 -1.218378427438438000E-3, 
 -5.306580569595098000E-4, 
 -9.326809085905552000E-3, 
 1.541970204561948800E-2, 
 -1.052873325534165000E-3, 
 9.640661068260670000E-3, 
 -8.059962652623653000E-3, 
 7.287451531738043000E-3, 
 1.046301517635583900E-2, 
 -6.365187000483274500E-3, 
 1.308196131139993700E-2, 
 4.708390217274427000E-3, 
 -3.297304501757025700E-3, 
 -8.605261682532728000E-4, 
 -6.306902039796114000E-3, 
 2.044097287580371000E-3, 
 -6.679764948785305000E-3, 
 3.640575101599097300E-3, 
 1.153172459453344300E-3, 
 -4.538272973150015000E-3, 
 1.952745206654071800E-2, 
 -5.104715935885906000E-3, 
 -6.109820678830147000E-3, 
 -6.047407165169716000E-3, 
 3.348806640133261700E-3, 
 1.354271266609430300E-2, 
 -7.212441880255938000E-3, 
 -5.881613586097956000E-3, 
 -1.528984960168600000E-2, 
 -9.301914833486080000E-3, 
 6.667553912848234000E-3, 
 1.347962487488985000E-2, 
 -4.469150211662054000E-3, 
 5.584231577813625000E-3, 
 6.998605094850063000E-3, 
 -7.136221043765545000E-3, 
 6.346914917230606000E-3, 
 3.094630781561136200E-3, 
 8.413164876401424000E-3, 
 -8.918102830648422000E-4, 
 -3.960068803280592000E-3, 
 5.425022915005684000E-3, 
 -8.537077344954014000E-3, 
 -4.713089205324650000E-3, 
 8.622773922979832000E-3, 
 -8.550822385586798000E-4, 
 7.004321552813053000E-3, 
 8.324457332491875000E-3, 
 -5.382376839406788000E-4, 
 -1.233270112425088900E-2, 
 -5.082774441689253000E-3, 
 -3.357980400323868000E-3, 
 5.809825845062733000E-3, 
 -6.584608461707830000E-3, 
 1.282095815986394900E-2, 
 2.673454349860549000E-3, 
 2.847656141966581300E-3, 
 -7.148524280637503000E-3, 
 -2.440498443320393600E-3, 
 -1.410058932378888100E-3, 
 1.254919543862342800E-2, 
 1.006132550537586200E-2, 
 -1.969181234017014500E-3, 
 -7.534755859524012000E-3, 
 -1.868956349790096300E-2, 
 8.671013638377190000E-3, 
 -4.604544490575790000E-3, 
 -1.060659252107143400E-2, 
 -1.288023963570594800E-2, 
 -1.485080271959304800E-2, 
 1.233479660004377400E-2, 
 -9.102619951590896000E-4, 
 7.288658991456032000E-3, 
 1.540678367018699600E-2, 
 -5.844561383128166000E-3, 
 -6.062868051230907400E-3, 
 -8.309850469231606000E-3, 
 1.541165169328451200E-2, 
 -3.395382547751069000E-3, 
 -1.051162835210561800E-2, 
 1.269093598239123800E-3, 
 -8.277044398710132000E-4, 
 -7.785334717482328000E-3, 
 -1.003054436296224600E-2, 
 1.284138532355427700E-3, 
 1.813830621540546400E-2, 
 2.356605837121606000E-3, 
 -8.044905029237270000E-3, 
 -3.269755979999900000E-3, 
 9.371355175971985000E-3, 
 8.923585526645184000E-3, 
 9.731838479638100000E-3, 
 -9.910278022289276000E-3, 
 3.378822701051831200E-3, 
 1.050493028014898300E-2, 
 3.796370467171073000E-3, 
 6.021338049322367000E-3, 
 -4.038436600239947400E-5, 
 -1.540456782095134300E-3, 
 -1.376846898347139400E-2, 
 -1.095210667699575400E-2, 
 8.768953382968903000E-3, 
 1.865759375505149400E-3, 
 5.283532664179802000E-3, 
 8.284210227429867000E-3, 
 8.454037830233574000E-3, 
 -5.303849000483751000E-3, 
 -6.030807271599770000E-3, 
 1.154892239719629300E-2, 
 1.555524067953229000E-3, 
 1.261578407138586000E-2, 
 -4.143983125686645500E-3, 
 -1.652562431991100300E-2, 
 -3.472648561000824000E-3, 
 -1.638936810195446000E-2, 
 1.713464222848415400E-2, 
 -3.584328107535839000E-3, 
 2.769044134765863400E-3, 
 -5.680508445948362000E-3, 
 1.308762375265359900E-2, 
 3.023259341716766400E-3, 
 -8.822866715490818000E-3, 
 -9.348688647150993000E-3, 
 1.603572256863117200E-2, 
 -1.806958462111652000E-3, 
 -5.576082970947027000E-3, 
 -1.244831597432494200E-3, 
 -1.122553646564483600E-2, 
 9.614923037588596000E-3, 
 1.219577714800834700E-2, 
 1.600832492113113400E-2, 
 -1.424425514414906500E-3, 
 7.643845165148377000E-4, 
 1.029807887971401200E-2, 
 -5.600973032414913000E-3, 
 2.998286159709096000E-3, 
 6.617353297770023000E-3, 
 -1.060176454484462700E-2, 
 1.063964143395423900E-2, 
 4.056285601109266000E-3, 
 1.836302806623280000E-3, 
 -2.289756899699568700E-3, 
 -3.471840755082667000E-4, 
 2.607184695079922700E-3, 
 -8.161074481904507000E-3, 
 -1.093273051083088000E-2, 
 2.072584582492709000E-3, 
 7.213176693767309000E-3, 
 -5.348264705389738000E-3, 
 1.492155017331242600E-3, 
 -4.513815045356750500E-3, 
 -1.370180025696754500E-2, 
 1.396553218364715600E-2, 
 1.041070744395256000E-2, 
 -7.739804685115814000E-3, 
 6.474540568888187000E-3, 
 -3.803988802246749400E-4, 
 1.446174271404743200E-2, 
 9.295188821852207000E-3, 
 -2.509762300178408600E-3, 
 -6.074508186429739000E-3, 
 -1.235802099108696000E-2, 
 -5.598949734121561000E-3, 
 1.648245006799698000E-2, 
 4.252296406775713000E-3, 
 -9.826583787798882000E-3, 
 -7.136589381843805000E-3, 
 2.452568383887410000E-3, 
 -1.287564449012279500E-2, 
 -7.398775778710842000E-3, 
 -6.819457747042179000E-3, 
 -9.770307689905167000E-3, 
 -2.985502826049924000E-3, 
 5.927700083702803000E-3, 
 -1.235045865178108200E-2, 
 2.865131944417953500E-2, 
 3.750445554032922000E-3, 
 -3.068042453378439000E-3, 
 6.492383778095245000E-3, 
 1.296309567987918900E-2, 
 1.105612609535455700E-2, 
 1.000417862087488200E-2, 
 3.002754820045084000E-4, 
 -5.746139213442802000E-3, 
 -8.615151047706604000E-3, 
 1.260000281035900100E-2, 
 1.509728957898914800E-3, 
 -3.583556739613414000E-3, 
 1.077674422413110700E-2, 
 4.659336525946855500E-3, 
 4.281354136765003000E-3, 
 1.338594034314155600E-2, 
 1.266981009393930400E-2, 
 1.419601682573556900E-2, 
 7.455456536263227500E-3, 
 1.349378027953207500E-3, 
 -6.525184027850628000E-3, 
 7.952344603836536000E-3, 
 -3.203833475708961500E-3, 
 -1.612351462244987500E-2, 
 7.501985877752304000E-3, 
 -1.399622065946459800E-3, 
 -2.766112610697746300E-2, 
 -6.503407377749681500E-3, 
 -7.059196941554546000E-3, 
 -1.150903105735778800E-2, 
 -1.539827696979045900E-2, 
 6.782872602343559000E-3, 
 -3.541253972798586000E-3, 
 6.305855233222246000E-3, 
 -4.744282923638821000E-3, 
 1.738296356052160300E-3, 
 -6.036936305463314000E-3, 
 1.271076849661767500E-3, 
 -1.319812331348657600E-2, 
 8.455839008092880000E-3, 
 -6.165182683616877000E-3, 
 -4.974793642759323000E-3, 
 -1.153536047786474200E-2, 
 -1.309001445770263700E-2, 
 1.351657416671514500E-2, 
 -9.166936390101910000E-3, 
 -1.260522403754294000E-3, 
 8.652161341160536000E-4, 
 2.073094947263598400E-3, 
 -1.592825865373015400E-3, 
 9.067814098671079000E-4, 
 7.168989162892103000E-3, 
 -1.298220269382000000E-2, 
 -1.928874664008617400E-2, 
 7.407300174236298000E-3, 
 -5.358017515391111000E-4, 
 -5.793706048280001000E-3, 
 -1.305057434365153300E-3, 
 -2.461323048919439300E-3, 
 -1.470727566629648200E-2, 
 3.283085068687796600E-3, 
 -1.647160388529300700E-2, 
 -2.371410280466079700E-2, 
 2.575521729886532000E-2, 
 -2.136843465268612000E-2, 
 8.521995507180690000E-3, 
 8.098050602711737000E-4, 
 -1.420551328919828000E-3, 
 1.054553035646677000E-2, 
 1.036460045725107200E-2, 
 4.861189052462578000E-3, 
 1.063412334769964200E-2, 
 -2.224578056484461000E-3, 
 -2.033150196075439500E-2, 
 -2.665414474904537000E-3, 
 2.059582584479358000E-5, 
 5.460945889353752000E-3, 
 -1.247574854642152800E-2, 
 -4.520978778600693000E-3, 
 3.860442666336894000E-3, 
 -8.564112707972527000E-3, 
 9.254632517695427000E-3, 
 -1.530118193477392200E-2, 
 1.308640744537115100E-2, 
 2.865924732759595000E-3, 
 -1.621302589774131800E-2, 
 1.228567026555538200E-2, 
 -2.040787832811475000E-3, 
 -1.312988717108965000E-2, 
 1.415548380464315400E-2, 
 2.915419405326247000E-3, 
 2.720163902267813700E-3, 
 -1.936941291205585000E-3, 
 1.228545885533094400E-2, 
 1.024198345839977300E-2, 
 -1.054238714277744300E-2, 
 -1.322087552398443200E-2, 
 -8.766784332692623000E-3, 
 -1.161152310669422100E-2, 
 -1.332309446297586000E-3, 
 1.818196731619536900E-3, 
 2.409124048426747300E-3, 
 -9.466983377933502000E-3, 
 -2.524144714698195500E-3, 
 1.702330261468887300E-2, 
 -1.222260412760079000E-3, 
 5.436637438833713500E-3, 
 -1.706303283572197000E-2, 
 5.126541946083307000E-3, 
 -9.386947378516197000E-3, 
 4.436477553099394000E-3, 
 5.381167400628328000E-3, 
 7.734603714197874000E-3, 
 -2.900712192058563200E-3, 
 1.340482197701931000E-2, 
 -2.497110748663544700E-3, 
 6.094888318330049500E-3, 
 -8.420254103839397000E-3, 
 1.167061086744070000E-2, 
 -1.349404687061905900E-3, 
 -1.770285330712795300E-2, 
 1.487954240292310700E-2, 
 -1.967451069504022600E-3, 
 -6.264470517635345500E-3, 
 -6.230034399777651000E-3, 
 -3.019165247678756700E-3, 
 9.513750672340393000E-3, 
 -1.040647830814123200E-2, 
 -4.767522215843201000E-3, 
 2.713117050006985700E-3, 
 1.678941585123539000E-2, 
 -5.256414297036827000E-4, 
 -3.196635982021689400E-3, 
 5.467466078698635000E-3, 
 1.027710735797882000E-2, 
 -2.015981823205948000E-2, 
 -8.045664057135582000E-3, 
 -1.557028759270906400E-2, 
 -1.598238572478294400E-2, 
 -1.139191910624504100E-2, 
 1.188643928617239000E-2, 
 1.952457800507545500E-2, 
 -1.275703031569719300E-2, 
 5.411176942288876000E-3, 
 1.129943411797285000E-2, 
 2.393950009718537300E-3, 
 3.327851649373769800E-3, 
 4.013029392808676000E-3, 
 -9.652674198150635000E-3, 
 9.841294959187508000E-4, 
 1.082899980247020700E-3, 
 -1.145914290100336000E-2, 
 -2.238429849967360500E-3, 
 4.937634803354740000E-3, 
 -6.038398947566748000E-3, 
 -6.892072036862373000E-3, 
 7.873030379414558000E-3, 
 1.906277053058147400E-2, 
 -9.903701953589916000E-3, 
 6.778118200600147000E-3, 
 2.474841894581914000E-4, 
 -1.544568873941898300E-2, 
 -1.002450659871101400E-2, 
 7.508387789130211000E-4, 
 -1.452858280390501000E-2, 
 -7.617646828293800000E-3, 
 -1.937072025611996700E-3, 
 8.860186673700810000E-3, 
 7.084114011377096000E-3, 
 1.894151209853589500E-3, 
 -1.662081480026245000E-2, 
 -2.258094027638435400E-3, 
 -1.381548307836055800E-2, 
 2.721743891015649000E-3, 
 -1.509374380111694300E-2, 
 -1.092808786779642000E-3, 
 -1.063844072632491600E-3, 
 -1.074623037129640600E-2, 
 -1.121630892157554600E-3, 
 -9.259615093469620000E-3, 
 -2.914422657340765000E-3, 
 -1.658588531427085400E-3, 
 1.347473077476024600E-2, 
 -9.643115103244781000E-3, 
 6.870399811305106000E-4, 
 -9.434962645173073000E-3, 
 -3.912896383553743000E-3, 
 6.749199703335762000E-3, 
 5.167287308722734500E-3, 
 -7.083897478878498000E-3, 
 -8.439144119620323000E-3, 
 -8.119590580463410000E-3, 
 -2.361952560022473300E-3, 
 -9.811854397412390000E-6, 
 -8.187423460185528000E-3, 
 -6.500704213976860000E-3, 
 -1.985605806112289400E-3, 
 -5.187705624848604000E-3, 
 6.070897448807955000E-3, 
 3.441865788772702200E-3, 
 1.561086345463991200E-2, 
 2.599772997200489000E-3, 
 1.192775927484035500E-2, 
 -1.546746585518121700E-3, 
 -3.407898591831326500E-3, 
 -5.348071455955505000E-3, 
 1.917344518005848000E-2, 
 1.985798403620720000E-2, 
 1.830864325165748600E-2, 
 -1.159233599901199300E-2, 
 1.432016864418983500E-2, 
 -1.192697323858738000E-3, 
 1.126089412719011300E-2, 
 -6.827663746662438000E-4, 
 3.982453607022762000E-3, 
 -2.264815993839874900E-4, 
 1.258050370961427700E-2, 
 2.561499737203121200E-2, 
 6.726813968271017000E-3, 
 -1.571833342313766500E-2, 
 -8.858644403517246000E-3, 
 -9.100215975195169000E-4, 
 -2.660366706550121300E-3, 
 1.374837942421436300E-2, 
 -3.271289635449648000E-3, 
 -5.164355505257845000E-3, 
 -2.443828561808914000E-4, 
 -1.587748643942177300E-3, 
 -1.195598766207695000E-2, 
 1.354620605707168600E-2, 
 -1.269082538783550300E-3, 
 3.724773414433002500E-3, 
 -6.615850608795881000E-3, 
 7.761057000607252000E-3, 
 -5.704311188310385000E-3, 
 -1.518787536770105400E-2, 
 1.440513762645423400E-3, 
 5.603579338639975000E-3, 
 -8.644371293485165000E-3, 
 -1.846643351018428800E-2, 
 -9.019081480801105000E-3, 
 -1.082376670092344300E-2, 
 -5.164136644452810000E-3, 
 1.881275675259530500E-3, 
 -1.556336972862482000E-2, 
 -1.369426026940345800E-2, 
 -1.657029613852501000E-3, 
 -2.352726412937045000E-3, 
 1.204069470986724000E-3, 
 7.335936650633812000E-3, 
 -1.002960745245218300E-2, 
 -8.620951557531953000E-4, 
 1.835238561034202600E-2, 
 3.290130943059921000E-2, 
 1.828983612358570000E-2, 
 -1.370553206652402900E-2, 
 1.964889466762542700E-3, 
 9.315192699432373000E-3, 
 -2.736118622124195000E-3, 
 6.199036724865436600E-3, 
 -5.124351475387812000E-3, 
 -7.179335225373506500E-3, 
 -6.352800992317498000E-4, 
 2.643876243382692300E-3, 
 4.121621139347553000E-3, 
 4.986760206520557000E-3, 
 8.725490421056747000E-3, 
 -8.795853704214096000E-3, 
 -3.151560435071587600E-3, 
 -1.234409585595131000E-2, 
 2.641697973012924200E-2, 
 7.209015078842640000E-3, 
 1.469108276069164300E-3, 
 5.279107950627804000E-3, 
 5.425416864454746000E-3, 
 -1.928201992996037000E-3, 
 -1.557657402008771900E-2, 
 -5.253124982118607000E-3, 
 -3.276925534009933500E-3, 
 4.930882714688778000E-3, 
 2.642847783863544500E-2, 
 1.047567185014486300E-2, 
 7.967460900545120000E-3, 
 -1.273510511964559600E-2, 
 5.380901508033276000E-3, 
 1.183808967471122700E-2, 
 -1.853258349001407600E-2, 
 -5.098882596939802000E-3, 
 1.450912468135356900E-2, 
 -1.793241873383522000E-2, 
 7.809835951775312000E-3, 
 -8.143850602209568000E-3, 
 7.718231994658709000E-3, 
 1.069078780710697200E-2, 
 -7.334486115723848000E-3, 
 2.244962612167000800E-3, 
 6.996493320912123000E-3, 
 6.408440414816141000E-3, 
 3.647590987384319300E-3, 
 8.174714632332325000E-3, 
 1.110026147216558500E-2, 
 -1.430735830217599900E-2, 
 -4.878605250269175000E-3, 
 8.913736790418625000E-3, 
 5.711612757295370000E-4, 
 -7.904883474111557000E-3, 
 2.514519169926643400E-2, 
 4.598579369485378000E-3, 
 1.867524534463882400E-2, 
 -2.932540373876691000E-3, 
 9.826028253883123000E-4, 
 5.597310606390238000E-3, 
 -7.228613831102848000E-3, 
 -3.611398395150900000E-3, 
 5.551682552322745000E-4, 
 -5.414913408458233000E-3, 
 -8.377971127629280000E-3, 
 3.482973435893655000E-3, 
 -8.899867534637451000E-3, 
 -1.290841586887836500E-2, 
 -4.295392893254757000E-3, 
 1.250124443322420100E-2, 
 3.840580349788069700E-3, 
 1.719920081086456800E-3, 
 -4.480028583202511000E-4, 
 7.958696223795414000E-3, 
 4.139623790979385400E-2, 
 -1.954407617449760400E-2, 
 -9.553934447467327000E-3, 
 1.245211623609066000E-2, 
 5.111028440296650000E-5, 
 5.473095458000898000E-3, 
 -1.607932895421981800E-2, 
 -3.605054225772619200E-3, 
 3.559790318831801400E-3, 
 5.894250236451626000E-3, 
 8.166570216417313000E-3, 
 1.461479812860488900E-2, 
 -2.324270550161600000E-3, 
 -5.756580736488104000E-3, 
 1.247560046613216400E-2, 
 1.933929393999278500E-3, 
 1.638219109736383000E-4, 
 -8.145369589328766000E-3, 
 6.339811719954014000E-3, 
 -3.466954920440912200E-3, 
 1.940115727484226200E-2, 
 -2.009125659242272400E-3, 
 2.632966637611389000E-2, 
 -3.570153494365513300E-4, 
 -2.076915092766285000E-2, 
 -5.342860706150532000E-3, 
 -4.664901643991470300E-4, 
 -1.401662477292120500E-3, 
 -8.520267903804779000E-3, 
 -1.452341023832559600E-2, 
 -6.010598503053188000E-3, 
 6.903745234012604000E-3, 
 1.953168027102947200E-2, 
 2.163234632462263000E-3, 
 1.756970956921577500E-2, 
 -4.875956568866968000E-3, 
 2.627963898703456000E-3, 
 -8.510004729032516000E-3, 
 1.039551198482513400E-2, 
 4.015623591840267000E-3, 
 7.049915846437216000E-3, 
 9.418235858902335000E-4, 
 -7.983449846506119000E-3, 
 -1.431710552424192400E-3, 
 -1.786890439689159400E-2, 
 -2.114801201969385000E-3, 
 -6.175016169436276000E-4, 
 1.668389327824115800E-2, 
 -5.386878619901836000E-4, 
 1.773784682154655500E-2, 
 -8.697832003235817000E-3, 
 -1.764643588103354000E-3, 
 2.007391862571239500E-2, 
 -4.095356445759535000E-3, 
 -1.324526686221361200E-2, 
 -6.236800923943520000E-3, 
 1.066450495272874800E-3, 
 6.816972047090530000E-3, 
 -1.428962592035532000E-2, 
 8.808176964521408000E-3, 
 -7.963865064084530000E-3, 
 -7.016256917268038000E-3, 
 -7.445365656167269000E-3, 
 -2.239883691072464000E-2, 
 -1.978414831683039700E-3, 
 -8.653757162392140000E-3, 
 -1.323352102190256100E-2, 
 5.367365200072527000E-3, 
 -1.280392706394195600E-2, 
 -2.954403869807720000E-3, 
 -5.659168120473623000E-3, 
 -1.593174529261887000E-3, 
 -2.637364203110337300E-3, 
 -1.405097544193267800E-2, 
 3.547150641679764000E-3, 
 3.844375489279628000E-3, 
 1.120494492352008800E-2, 
 8.019650354981422000E-3, 
 3.763851011171937000E-3, 
 8.582319132983685000E-3, 
 -7.167502306401730000E-3, 
 -2.431685570627451000E-3, 
 -1.123385597020387600E-2, 
 2.695211675018072000E-3, 
 8.108019828796387000E-3, 
 -4.245876334607601000E-3, 
 8.919129148125648000E-3, 
 4.789422266185284000E-3, 
 -2.078597899526357700E-3, 
 -1.178837660700082800E-2, 
 -2.635747194290161000E-2, 
 6.913064047694206000E-3, 
 7.865311577916145000E-3, 
 6.718891090713441000E-4, 
 -5.121196154505014000E-3, 
 -5.193522665649652500E-3, 
 2.297087572515011000E-2, 
 3.066983306780457500E-3, 
 5.521590355783701000E-3, 
 -2.065535448491573300E-2, 
 2.011714875698089600E-2, 
 1.206101034767925700E-3, 
 -2.088528499007225000E-2, 
 -2.275445731356740000E-3, 
 -6.815194152295589400E-3, 
 -4.631466697901487000E-3, 
 -1.721201464533806000E-2, 
 8.993517985800281000E-5, 
 -1.529756654053926500E-2, 
 1.201460976153612100E-2, 
 1.898838952183723400E-2, 
 7.557176984846592000E-3, 
 -1.031785272061824800E-2, 
 1.029453985393047300E-2, 
 -9.973479434847832000E-3, 
 -3.409632248803973000E-3, 
 5.135616753250360500E-3, 
 1.846615225076675400E-2, 
 -1.261371187865734100E-2, 
 -5.448563024401665000E-3, 
 1.252000033855438200E-2, 
 7.819002494215965000E-3, 
 2.029200643301010000E-2, 
 1.008270308375358600E-2, 
 -2.232913160696625700E-3, 
 2.526229247450828600E-3, 
 -1.917468383908271800E-2, 
 5.694879684597254000E-3, 
 -1.882275100797414800E-3, 
 -4.996319301426411000E-3, 
 -3.244825173169374500E-3, 
 1.631926000118255600E-2, 
 -2.132126828655600500E-3, 
 4.227396566420793500E-3, 
 -1.108964672312140500E-3, 
 -3.844364080578088800E-3, 
 1.045177690684795400E-2, 
 1.799657195806503300E-2, 
 7.715537678450346000E-3, 
 6.597214844077825500E-3, 
 -7.764933165162802000E-3, 
 1.246968313353136200E-4, 
 -1.179397106170654300E-3, 
 3.325639409013092500E-4, 
 8.972155861556530000E-3, 
 -1.933395676314830800E-2, 
 -8.655995130538940000E-3, 
 -3.605952858924866000E-2, 
 4.411770962178707000E-3, 
 -2.600741107016802000E-3, 
 1.463219057768583300E-2, 
 -2.064530272036791000E-3, 
 4.850702360272407500E-3, 
 -7.077968679368496000E-3, 
 -1.406162139028310800E-2, 
 1.087132934480905500E-2, 
 -6.599638611078262000E-3, 
 8.706937660463154000E-4, 
 -1.938674831762909900E-3, 
 6.532402243465185000E-3, 
 -1.243265811353921900E-2, 
 -1.069567166268825500E-2, 
 1.389313768595457000E-2, 
 -1.190216653048992200E-2, 
 1.735604018904268700E-3, 
 -2.025624504312873000E-3, 
 1.375727355480194100E-2, 
 4.117569886147976000E-3, 
 9.411799721419811000E-3, 
 -6.123397499322891000E-3, 
 1.859451271593570700E-2, 
 -5.353747401386499000E-3, 
 4.288163036108017000E-3, 
 -4.019804298877716000E-3, 
 1.162083446979522700E-2, 
 1.425951160490512800E-2, 
 -2.233187202364206300E-3, 
 1.198391662910580600E-3, 
 -1.025790628045797300E-2, 
 1.658524037338793300E-3, 
 7.519905921071768000E-3, 
 -1.949460804462433000E-2, 
 -1.701620221138000500E-2, 
 9.194177575409412000E-3, 
 -2.238727640360594000E-3, 
 6.048953626304865000E-3, 
 6.944141350686550000E-3, 
 2.577642351388931300E-2, 
 5.245446693152189000E-3, 
 4.089455585926771000E-3, 
 5.702678114175796500E-3, 
 -4.680978134274483000E-3, 
 -6.050302181392908000E-3, 
 -1.029864326119422900E-2, 
 5.339630413800478000E-3, 
 -5.560547579079866000E-3, 
 2.525394083932042000E-3, 
 -1.029096264392137500E-2, 
 6.045689806342125000E-3, 
 -1.407145895063877100E-2, 
 1.063833851367235200E-2, 
 7.396974135190248500E-3, 
 -1.451261155307293000E-2, 
 1.524529792368412000E-2, 
 5.422438494861126000E-3, 
 8.123299106955528000E-3, 
 4.904518369585276000E-3, 
 1.063579414039850200E-2, 
 -1.819253666326403600E-3, 
 1.869801548309624200E-3, 
 -3.170212730765342700E-3, 
 1.596731692552566500E-2, 
 -2.184791956096887600E-3, 
 -1.662842370569706000E-2, 
 -1.311084814369678500E-2, 
 -1.068761944770813000E-2, 
 7.588208653032780000E-3, 
 1.859521289588883500E-4, 
 -1.374142151325941000E-2, 
 1.322813797742128400E-3, 
 -9.885701350867748000E-3, 
 1.249910425394773500E-2, 
 -9.901107288897038000E-3, 
 1.599538722075522000E-3, 
 3.296334529295563700E-3, 
 9.004035964608192000E-3, 
 -1.591802388429641700E-2, 
 -2.786795084830373500E-4, 
 -5.086687160655856000E-4, 
 -5.697633605450392000E-3, 
 3.485593944787979000E-3, 
 7.649702951312065000E-3, 
 8.276505395770073000E-3, 
 -4.916654899716377000E-3, 
 -3.890827763825655000E-3, 
 5.510022398084402000E-3, 
 -2.788777695968747000E-3, 
 5.203657317906618000E-3, 
 -2.966254716739058500E-3, 
 -1.131953019648790400E-2, 
 -3.624428762122988700E-3, 
 -1.092199794948101000E-2, 
 -2.477875538170337700E-2, 
 -1.029039546847343400E-2, 
 -6.624581292271614000E-3, 
 -2.290175994858145700E-3, 
 1.653229445219040000E-2, 
 4.326295573264360000E-3, 
 4.945283755660057000E-3, 
 1.804494531825184800E-3, 
 1.180989900603890400E-3, 
 -1.405284972861409200E-3, 
 -5.761181004345417000E-3, 
 1.076478627510368800E-3, 
 -1.319366274401545500E-3, 
 -8.735168725252151000E-3, 
 7.358840201050043000E-3, 
 -9.864929132163525000E-3, 
 -6.022096145898104000E-3, 
 -2.152709523215890000E-3, 
 1.691367663443088500E-2, 
 4.908757284283638000E-3, 
 2.749370643869042400E-3, 
 4.694301635026932000E-3, 
 -2.252407185733318300E-2, 
 -1.156037487089634000E-2, 
 3.120970912277698500E-3, 
 -4.358001460786909000E-4, 
 4.911583382636309000E-4, 
 -3.030161606147885300E-3, 
 6.617454346269369000E-3, 
 8.133154478855431000E-4, 
 -5.195930134505033500E-3, 
 8.998880162835121000E-3, 
 1.645522774197161200E-3, 
 -1.385212759487331000E-3, 
 3.260802011936903000E-3, 
 8.957098238170147000E-3, 
 -5.601661745458841000E-3, 
 1.433922909200191500E-2, 
 1.544743962585926000E-2, 
 2.453573280945420300E-3, 
 -1.751737669110298000E-2, 
 -2.239377051591873000E-2, 
 -1.094467844814062100E-2, 
 9.455180726945400000E-3, 
 4.418889060616493000E-3, 
 1.138176489621400800E-2, 
 -4.653125535696745000E-3, 
 -8.021032437682152000E-3, 
 2.011012518778443300E-3, 
 1.190073136240243900E-2, 
 1.232603751122951500E-2, 
 1.048662350513041000E-3, 
 1.602488197386264800E-2, 
 -8.429396897554398000E-3, 
 9.284401312470436000E-3, 
 1.696061372058466000E-4, 
 -9.356402792036533000E-3, 
 4.727648571133614000E-3, 
 1.724140252918005000E-3, 
 1.649292185902595500E-2, 
 1.253680326044559500E-2, 
 -5.176711827516556000E-3, 
 1.238030288368463500E-2, 
 1.373633556067943600E-2, 
 1.338106929324567300E-3, 
 -7.735345978289843000E-3, 
 5.438802763819694500E-3, 
 -8.023458649404347000E-4, 
 1.096022780984640100E-2, 
 -5.701359361410141000E-3, 
 8.800503797829151000E-3, 
 7.883883081376553000E-3, 
 -1.496927347034216000E-3, 
 -1.179738319478929000E-3, 
 -5.636991001665592000E-3, 
 3.059533424675464600E-3, 
 8.854216895997524000E-3, 
 1.187285594642162300E-2, 
 -1.571462955325842000E-3, 
 5.678156390786171000E-3, 
 1.580244861543178600E-2, 
 -6.431458517909050000E-3, 
 -4.285332746803760500E-3, 
 -4.841654095798731000E-3, 
 -9.147720411419868000E-3, 
 -1.161301415413618100E-2, 
 8.254097774624825000E-3, 
 -1.870115986093878700E-3, 
 -9.917940013110638000E-3, 
 9.298985823988914000E-3, 
 4.053844604641199000E-3, 
 1.511793583631515500E-2, 
 5.037194117903709000E-3, 
 -5.234899464994669000E-3, 
 1.396573055535554900E-2, 
 -1.122683007270097700E-2, 
 1.177321001887321500E-2, 
 -1.066543813794851300E-2, 
 1.516197063028812400E-2, 
 -5.233915057033300000E-3, 
 -1.436866540461778600E-2, 
 -1.408161409199237800E-2, 
 -5.819831130793318000E-5, 
 9.898135438561440000E-3, 
 9.037130512297153000E-3, 
 -1.713760197162628200E-3, 
 -1.647959649562835700E-2, 
 -3.630510997027158700E-3, 
 -2.716554095968604000E-3, 
 1.214754302054643600E-3, 
 -8.953439071774483000E-3, 
 1.624487712979316700E-2, 
 8.581222966313362000E-3, 
 -1.460385601967573200E-2, 
 1.106678880751133000E-2, 
 -7.522394414991140000E-3, 
 -7.053277455270290000E-3, 
 -8.735816227272153000E-4, 
 7.573567330837250000E-3, 
 -7.511516101658344000E-3, 
 4.317909944802523000E-3, 
 -1.093630399554967900E-2, 
 -2.665389562025666200E-3, 
 -1.748998463153839000E-2, 
 -2.584625966846943000E-2, 
 -1.485167536884546300E-3, 
 -9.119560010731220000E-3, 
 -1.823639729991555200E-3, 
 6.480682175606489000E-3, 
 -1.099784579128027000E-2, 
 1.090862043201923400E-2, 
 -2.213887055404484300E-4, 
 2.669042907655239000E-3, 
 -8.598005399107933000E-3, 
 2.009447664022445700E-2, 
 1.860384509200230200E-4, 
 2.413032576441765000E-3, 
 4.010595846921205500E-3, 
 9.339168318547308000E-4, 
 -6.548814941197634000E-3, 
 -3.301975782960653300E-3, 
 -1.443828642368316700E-2, 
 8.314312435686588000E-3, 
 1.826442778110504000E-2, 
 1.033735368400812100E-2, 
 -1.398955006152391400E-2, 
 1.845776801928877800E-3, 
 1.050441339612007100E-2, 
 5.416156724095344500E-3, 
 4.044173751026392000E-3, 
 2.583203837275505000E-3, 
 2.052296040346846000E-4, 
 -6.628162227571011000E-3, 
 1.932647265493869800E-2, 
 -3.491698997095227200E-3, 
 2.870679832994938000E-2, 
 -3.375601721927523600E-3, 
 1.375972758978605300E-2, 
 8.018987253308296000E-3, 
 -9.816569276154041000E-3, 
 -8.026238530874252000E-3, 
 4.788461083080619600E-4, 
 -4.055387806147337000E-3, 
 1.946642994880676300E-3, 
 -6.103890482336283000E-3, 
 -1.156705804169178000E-2, 
 -4.947983659803867000E-3, 
 -1.424656063318252600E-2, 
 4.280857276171446000E-3, 
 7.194369100034237000E-3, 
 1.255673542618751500E-2, 
 7.533437106758356000E-3, 
 1.433876622468233100E-2, 
 -6.751836743205786000E-3, 
 2.004571817815303800E-2, 
 -3.362460760399699000E-3, 
 1.131635159254074100E-2, 
 5.023612640798092000E-3, 
 -1.387240644544363000E-2, 
 -1.025379751808941400E-3, 
 3.809121903032064400E-3, 
 1.747623458504676800E-2, 
 -8.818323723971844000E-3, 
 -4.301126115024090000E-3, 
 9.822065010666847000E-3, 
 9.132334031164646000E-3, 
 2.214894816279411300E-2, 
 3.329546190798282600E-3, 
 -1.062650419771671300E-2, 
 1.608863472938537600E-2, 
 -1.222264021635055500E-2, 
 -1.127958996221423100E-3, 
 -5.146796349436045000E-3, 
 -4.443784710019827000E-3, 
 1.969729177653789500E-2, 
 4.109599161893129000E-3, 
 -1.698776893317699400E-2, 
 -8.751182816922665000E-3, 
 1.548112183809280400E-2, 
 2.724938560277223600E-3, 
 -4.933024756610393500E-3, 
 -1.317602023482322700E-2, 
 -4.563135094940662000E-3, 
 2.398480102419853200E-2, 
 2.593822777271270800E-3, 
 -9.219136089086533000E-3, 
 4.075523000210524000E-3, 
 -4.912763251923025000E-4, 
 -3.051672363653779000E-3, 
 7.990002632141113000E-3, 
 -9.809602051973343000E-3, 
 -2.865156158804893500E-3, 
 3.908836282789707000E-3, 
 4.084465559571981000E-3, 
 -3.443282097578048700E-3, 
 -5.219065933488309000E-4, 
 1.360809989273548100E-2, 
 1.135093625634908700E-2, 
 -3.444411093369126300E-3, 
 1.958340872079134000E-3, 
 -2.606567693874240000E-3, 
 -6.004285998642445000E-3, 
 -2.926394226960838000E-4, 
 -1.130473520606756200E-2, 
 6.404952146112919000E-3, 
 -1.016622129827737800E-2, 
 8.484511636197567000E-3, 
 -1.642066240310669000E-2, 
 1.142164459452033000E-3, 
 -5.518153309822082500E-3, 
 1.824031211435795000E-2, 
 8.790638297796250000E-3, 
 -4.010793345514685000E-4, 
 2.190762385725975000E-2, 
 2.313261386007070500E-3, 
 -1.105613075196743000E-2, 
 2.806404605507850600E-2, 
 8.449102751910686000E-3, 
 -4.321175161749124500E-3, 
 2.567685674875974700E-3, 
 6.527019431814551000E-4, 
 -2.260542009025812000E-3, 
 1.241901796311140000E-2, 
 9.562325663864613000E-3, 
 5.079456139355898000E-3, 
 -5.458545871078968000E-3, 
 2.633867785334587000E-2, 
 1.424784678965807000E-2, 
 3.723560133948922000E-3, 
 2.305671572685241700E-3, 
 -3.775676479563117000E-3, 
 7.537139113992453000E-3, 
 -1.135943736881017700E-2, 
 1.150416862219572000E-2, 
 -1.300050760619342300E-3, 
 -5.290282424539328000E-4, 
 -8.075604564510286000E-4, 
 -3.733643796294927600E-3, 
 1.576256006956100500E-2, 
 -3.816031618043780300E-3, 
 -9.283350780606270000E-3, 
 1.703845523297786700E-2, 
 -1.834443025290966000E-2, 
 -5.925269797444344000E-4, 
 8.541212417185307000E-3, 
 -1.992779411375522600E-2, 
 3.866611048579216000E-3, 
 6.326111499220133000E-3, 
 1.027414202690124500E-2, 
 -2.124385675415396700E-3, 
 7.491264492273331000E-3, 
 -7.128989789634943000E-3, 
 -1.522251404821872700E-3, 
 8.950733579695225000E-3, 
 5.596298258751631000E-3, 
 8.780612843111157000E-4, 
 -1.048518344759941100E-2, 
 3.313271095976233500E-3, 
 3.679160494357347500E-3, 
 -3.732441226020455400E-3, 
 1.374700944870710400E-2, 
 2.085444517433643300E-3, 
 -7.991972379386425000E-4, 
 -9.645962156355381000E-3, 
 1.211529038846492800E-2, 
 1.149774435907602300E-2, 
 -9.779144078493118000E-3, 
 -1.623301883228123200E-3, 
 8.056212682276964000E-4, 
 8.194933645427227000E-3, 
 7.050746120512485500E-3, 
 1.806807820685207800E-3, 
 1.557856448926031600E-4, 
 1.969781331717968000E-2, 
 2.130856737494468700E-3, 
 -1.109497342258691800E-2, 
 8.124697022140026000E-3, 
 -1.072363369166851000E-2, 
 1.895603025332093200E-3, 
 -1.550654764287173700E-3, 
 9.256805060431361000E-4, 
 5.616119131445885000E-3, 
 -9.792175842449070000E-4, 
 6.315426900982857000E-3, 
 -1.331129763275384900E-2, 
 5.685207899659872000E-3, 
 5.420606117695570000E-3, 
 4.883538000285625500E-3, 
 5.431552417576313000E-3, 
 -5.935220979154110000E-3, 
 5.925667355768383000E-4, 
 6.852059159427881000E-3, 
 -1.563790254294872300E-2, 
 8.647489361464977000E-3, 
 6.711224559694529000E-3, 
 8.704849518835545000E-3, 
 -2.593823242932558000E-3, 
 -1.314678974449634600E-2, 
 -1.008518971502781000E-2, 
 1.679835026152432000E-3, 
 6.117437034845352000E-3, 
 -7.692186627537012000E-3, 
 -7.380811497569084000E-3, 
 9.932557120919228000E-3, 
 1.747889071702957000E-2, 
 -2.894769888371229000E-3, 
 9.110859595239162000E-3, 
 -1.563519821502268300E-3, 
 -1.496513560414314300E-2, 
 -1.877523376606404800E-3, 
 2.023295871913433000E-2, 
 -3.241189988330006600E-4, 
 -1.895001716911792800E-2, 
 3.509163623675704000E-3, 
 6.513710133731365000E-3, 
 7.823078194633126000E-4, 
 1.650635036639869200E-3, 
 5.558376200497150000E-3, 
 5.138343200087547000E-3, 
 1.221130508929491000E-2, 
 -1.073096226900816000E-2, 
 -1.103067398071289000E-2, 
 1.666442491114139600E-2, 
 7.397820707410574000E-3, 
 -3.433431964367628000E-3, 
 -1.968950591981411000E-2, 
 -5.261842627078295000E-3, 
 -8.888646960258484000E-3, 
 1.038959715515375100E-2, 
 -1.292070280760526700E-2, 
 9.690843522548676000E-3, 
 2.442522905766964000E-3, 
 -7.117593660950661000E-3, 
 -7.299210876226425000E-3, 
 4.270323086529970000E-3, 
 9.977546287700534000E-4, 
 1.347089186310768100E-2, 
 -1.118690997827798100E-4, 
 -8.813518099486828000E-3, 
 1.279562246054411000E-2, 
 7.920313626527786000E-3, 
 -4.690182860940695000E-3, 
 -6.400931626558304000E-3, 
 7.062343880534172000E-3, 
 -5.886489991098642000E-3, 
 7.686014752835035000E-3, 
 -9.763374924659729000E-3, 
 -1.413537096232175800E-2, 
 6.292628590017557000E-3, 
 -7.851258851587772000E-3, 
 1.760446652770042400E-2, 
 -1.214589364826679200E-2, 
 1.140080206096172300E-2, 
 -1.779349707067012800E-2, 
 5.251334048807621000E-3, 
 -7.954642176628113000E-3, 
 4.498629423324018700E-4, 
 -5.440100561827421000E-3, 
 8.921029046177864000E-3, 
 -1.599450479261577100E-3, 
 -1.146137434989214000E-2, 
 -2.013018168509006500E-2, 
 -2.470861002802848800E-2, 
 -9.555600583553314000E-3, 
 -8.435153402388096000E-3, 
 1.035521924495697000E-2, 
 6.336213555186987000E-3, 
 1.466192211955785800E-2, 
 3.105354728177190000E-3, 
 1.102353911846876100E-2, 
 1.158242207020521200E-2, 
 8.423981256783009000E-3, 
 4.261327907443047000E-3, 
 1.066008862107992200E-2, 
 -5.454824422486126000E-4, 
 2.020458923652768000E-3, 
 1.018332596868276600E-2, 
 -2.443962730467319500E-4, 
 -5.463749170303345000E-3, 
 -1.610419526696205000E-2, 
 -1.278265751898288700E-2, 
 -1.065979129634797600E-3, 
 -5.589601118117571000E-3, 
 1.864918507635593400E-2, 
 2.924619941040873500E-3, 
 -4.306585993617773000E-3, 
 2.240910567343235000E-2, 
 8.666423149406910000E-3, 
 -1.548989117145538300E-2, 
 -1.043755374848842600E-2, 
 -1.289556967094540600E-3, 
 1.938867731951177100E-3, 
 2.883959375321865000E-2, 
 -4.084922256879508500E-4, 
 -2.512088743969798000E-3, 
 1.371608395129442200E-2, 
 9.594743140041828000E-3, 
 1.172148808836937000E-2, 
 -1.086852047592401500E-2, 
 -3.663877956569195000E-3, 
 3.843713784590363500E-3, 
 -2.927528461441397700E-3, 
 -5.093469750136137000E-3, 
 1.617253385484218600E-2, 
 3.991232719272375000E-3, 
 -6.614387966692448000E-3, 
 1.437498629093170200E-2, 
 1.616979017853737000E-2, 
 -1.977181248366832700E-2, 
 -1.077808998525142700E-2, 
 1.147496979683637600E-2, 
 -6.416293326765299000E-3, 
 2.008632756769657000E-3, 
 2.093060640618205000E-3, 
 -1.009150291793048400E-3, 
 4.962754435837269000E-3, 
 -1.211577840149402600E-2, 
 1.070503145456314100E-2, 
 -7.841322571039200000E-3, 
 -8.464438840746880000E-3, 
 -2.167517784982919700E-3, 
 7.842088816687465000E-4, 
 1.772981323301792000E-2, 
 1.889921911060810000E-2, 
 1.999953389167785600E-2, 
 1.131125632673502000E-2, 
 -7.522545754909515000E-3, 
 4.194313194602728000E-3, 
 6.558670196682215000E-3, 
 5.091913510113954500E-3, 
 3.046129364520311400E-3, 
 7.739377208054066000E-3, 
 6.730936001986265000E-3, 
 7.617709692567587000E-3, 
 1.212645787745714200E-3, 
 9.272038587369025000E-4, 
 -9.991938713937998000E-4, 
 -4.586211871355772000E-3, 
 9.004908497445285000E-4, 
 -1.329459156841039700E-2, 
 -6.039326079189777000E-3, 
 2.087115496397018400E-2, 
 -8.844916708767414000E-3, 
 -7.387774996459484000E-3, 
 -1.840152963995933500E-2, 
 1.729081757366657300E-2, 
 -1.449143607169389700E-2, 
 -2.015290316194296000E-3, 
 7.923293858766556000E-3, 
 -8.914573118090630000E-3, 
 6.117349490523338000E-3, 
 -4.460779484361410000E-3, 
 1.506579667329788200E-2, 
 6.695478688925505000E-3, 
 2.092872513458132700E-3, 
 5.986944772303104000E-3, 
 5.947593599557877000E-3, 
 1.909502316266298300E-4, 
 2.105052024126053000E-2, 
 -8.523701690137386000E-3, 
 3.463884117081761400E-3, 
 1.186032406985759700E-2, 
 -1.401411183178424800E-2, 
 1.579448697157204200E-3, 
 1.746988855302334000E-2, 
 1.858530193567276000E-2, 
 2.829888137057423600E-3, 
 1.160840224474668500E-2, 
 1.711102947592735300E-2, 
 1.915617031045258000E-3, 
 6.653326563537121000E-3, 
 -5.995376501232386000E-3, 
 -1.610668748617172200E-2, 
 8.829155005514622000E-3, 
 2.300472743809223200E-2, 
 9.216839680448174000E-4, 
 6.622372195124626000E-3, 
 8.455073111690581000E-4, 
 -3.991036675870418500E-3, 
 -1.290438044816255600E-2, 
 -1.191387325525283800E-2, 
 1.718649268150329600E-2, 
 -5.712013691663742000E-3, 
 -2.847450319677591300E-3, 
 3.561658551916480000E-3, 
 4.532382823526859000E-3, 
 1.369688007980585100E-2, 
 1.042207150021568000E-4, 
 -6.147660897113383000E-4, 
 -2.271808916702866600E-3, 
 1.128230243921280000E-3, 
 2.089957706630230000E-2, 
 1.722763292491436000E-3, 
 -5.035983864217997000E-3, 
 -3.271320601925254000E-4, 
 2.214328758418560000E-2, 
 -1.170036755502224000E-2, 
 9.502466768026352000E-3, 
 4.721719888038933300E-4, 
 7.216062396764755000E-3, 
 -6.690443959087133000E-3, 
 4.385619889944792000E-3, 
 1.882995851337909700E-2, 
 -2.540743676945567000E-3, 
 -1.417678687721490900E-2, 
 -1.560846529901027700E-2, 
 2.338736783713102300E-3, 
 1.114101801067590700E-2, 
 2.559201791882515000E-3, 
 -3.342971205711364700E-3, 
 -1.213946961797773800E-3, 
 7.641089614480734000E-3, 
 -1.543837040662765500E-2, 
 1.831196481361985200E-3, 
 -3.072965657338500000E-3, 
 -6.377208977937698000E-3, 
 -6.815491709858179000E-3, 
 -1.427751220762729600E-2, 
 -2.237033471465110800E-2, 
 1.416541170328855500E-2, 
 -2.079557161778211600E-3, 
 1.266208570450544400E-2, 
 -1.710980944335460700E-2, 
 1.377187855541706000E-2, 
 7.294894312508404000E-4, 
 1.207454688847065000E-2, 
 1.498651970177888900E-2, 
 7.520066574215889000E-3, 
 -1.759929116815328600E-3, 
 -4.710917128250003000E-4, 
 -3.168168244883418000E-3, 
 5.782882799394429000E-4, 
 6.647699978202581000E-3, 
 -2.780860522761941000E-3, 
 -1.004319172352552400E-3, 
 -2.646759618073702000E-3, 
 5.476419813930988000E-3, 
 6.429392844438553000E-3, 
 1.624692115001380400E-3, 
 3.371681319549679800E-3, 
 -1.292971801012754400E-2, 
 2.486693905666470500E-3, 
 -1.392126176506280900E-2, 
 4.905476234853268000E-3, 
 -2.380636520683765400E-2, 
 2.877294551581144300E-3, 
 4.034784622490406000E-3, 
 -1.846481487154960600E-2, 
 1.940139010548591600E-2, 
 4.418204538524151000E-3, 
 1.107758935540914500E-2, 
 6.063368637114763000E-3, 
 -2.417863812297582600E-3, 
 -2.633030340075493000E-2, 
 -7.393946871161461000E-3, 
 4.192543681710958500E-3, 
 -5.763843073509634000E-4, 
 6.889856886118650400E-3, 
 -1.707124523818492900E-3, 
 -3.170802490785718000E-3, 
 1.048057060688734000E-2, 
 -4.551495891064405400E-3, 
 9.392059408128262000E-3, 
 6.247753277420998000E-3, 
 -4.780923016369343000E-3, 
 -5.194299388676882000E-3, 
 -8.197889663279057000E-3, 
 -9.804306551814080000E-3, 
 -4.752427339553833000E-3, 
 3.437703009694814700E-3, 
 2.764434786513447800E-3, 
 -3.308108821511268600E-2, 
 1.038833614438772200E-2, 
 -5.141652189195156000E-3, 
 -1.417995709925890000E-2, 
 -6.750595290213823000E-3, 
 -7.030134089291096000E-3, 
 2.617140999063849400E-3, 
 -8.161250501871109000E-3, 
 5.039508454501629000E-3, 
 1.009078230708837500E-2, 
 2.255278406664729000E-3, 
 -1.369669660925865200E-2, 
 2.065762877464294400E-3, 
 1.561141666024923300E-2, 
 1.916818437166512000E-3, 
 -1.178824901580810500E-2, 
 -3.813554998487234000E-3, 
 1.118326932191848800E-2, 
 3.357420908287167500E-3, 
 2.501865616068244000E-3, 
 8.018650114536285000E-4, 
 -1.297287922352552400E-2, 
 2.217089349869638700E-4, 
 -9.042782709002495000E-3, 
 -1.551466179080307500E-3, 
 -1.614383421838283500E-2, 
 4.449072293937206000E-3, 
 8.838042616844177000E-3, 
 1.344772521406412100E-2, 
 4.565884359180927000E-3, 
 -6.185587961226702000E-3, 
 8.534837979823351000E-4, 
 -3.672557795653120000E-5, 
 -1.092317700386047400E-2, 
 3.944149706512690000E-3, 
 5.159940570592880000E-3, 
 7.307176711037755000E-4, 
 4.908463917672634000E-3, 
 9.386028163135052000E-3, 
 1.244034152477979700E-3, 
 6.745692808181047400E-3, 
 3.535358991939574500E-4, 
 2.456397376954555500E-2, 
 8.583791553974152000E-3, 
 -3.287447849288583000E-3, 
 -9.367746300995350000E-3, 
 5.976775661110878000E-3, 
 -8.573401719331741000E-3, 
 -4.520404152572155000E-3, 
 -2.629537484608590600E-4, 
 -8.218322591346805000E-7, 
 2.380283176898956300E-2, 
 1.945949275977909600E-3, 
 4.974444163963199000E-4, 
 -1.730188960209488900E-3, 
 1.555457944050431300E-3, 
 -1.284798514097929000E-2, 
 -1.357065141201019300E-2, 
 -1.382286474108696000E-2, 
 1.122747175395488700E-2, 
 -2.031601220369339000E-2, 
 -4.437870811671019000E-3, 
 1.383567973971366900E-2, 
 -3.179338295012712500E-3, 
 -5.818997509777546000E-3, 
 1.445312984287738800E-2, 
 -1.546706445515155800E-2, 
 4.709122236818075000E-3, 
 1.100128795951604800E-2, 
 1.279851142317056700E-2, 
 4.489645827561617000E-3, 
 1.183720072731375700E-3, 
 -5.773884244263172000E-3, 
 -6.664471235126257000E-3, 
 1.510197110474109600E-2, 
 7.384020835161209000E-3, 
 1.330242678523063700E-2, 
 1.216414477676153200E-2, 
 8.552621118724346000E-3, 
 -1.538903638720512400E-2, 
 -1.509121153503656400E-2, 
 -8.739703334867954000E-3, 
 1.126953065977431800E-4, 
 -1.256759371608495700E-2, 
 -1.558559760451316800E-2, 
 -1.546183717437088500E-3, 
 -1.792072318494320000E-2, 
 3.188310423865914300E-3, 
 -8.695091120898724000E-3, 
 1.808511652052402500E-2, 
 1.832056418061256400E-2, 
 -9.577323682606220000E-3, 
 5.669737234711647000E-3, 
 -7.778570521622896000E-3, 
 3.972021397203207000E-3, 
 -1.290387194603681600E-2, 
 -1.391245238482952100E-2, 
 1.200925186276435900E-2, 
 -1.684439950622618200E-3, 
 -1.061128918081522000E-2, 
 1.396392588503658800E-3, 
 -4.210554994642734500E-3, 
 -1.535675488412380200E-3, 
 3.318166360259056000E-3, 
 8.242288604378700000E-3, 
 1.755218952894210800E-2, 
 7.085910532623529400E-3, 
 8.603510446846485000E-3, 
 4.769041202962398500E-3, 
 -7.345639169216156000E-3, 
 8.502656710334122000E-4, 
 8.210533298552036000E-3, 
 8.665780536830425000E-3, 
 -2.366974949836731000E-3, 
 -7.354384753853083000E-3, 
 6.478975061327219000E-3, 
 -1.676741288974881200E-3, 
 -9.322565980255604000E-3, 
 -2.615478821098804500E-3, 
 1.383478008210659000E-2, 
 1.062380801886320100E-2, 
 3.422707086429000000E-4, 
 1.359068602323532100E-2, 
 -1.705851033329963700E-2, 
 -1.482136268168687800E-2, 
 -7.893868722021580000E-3, 
 1.722857123240828500E-3, 
 1.989039778709411600E-2, 
 2.604481298476457600E-3, 
 1.141177304089069400E-2, 
 -4.724605940282345000E-3, 
 4.173363093286753000E-3, 
 -6.531101651489735000E-3, 
 1.445336453616619100E-2, 
 1.752353622578084500E-3, 
 -7.074547465890646000E-3, 
 8.733132854104042000E-3, 
 -1.634167623706162000E-3, 
 -1.705557806417346000E-3, 
 6.329924799501896000E-3, 
 1.320348866283893600E-2, 
 1.411203062161803200E-3, 
 -6.904573179781437000E-3, 
 -9.090825915336609000E-3, 
 -7.131981197744608000E-3, 
 -4.969421774148941000E-3, 
 -4.459437448531389000E-3, 
 -2.932998351752758000E-3, 
 4.838575609028339000E-3, 
 1.828568056225776700E-2, 
 1.087101083248853700E-2, 
 1.699264720082283000E-2, 
 -2.822023350745439500E-3, 
 -4.542462993413210000E-3, 
 1.108215749263763400E-2, 
 3.693408099934458700E-3, 
 1.097968779504299200E-3, 
 1.995423808693885800E-2, 
 -1.098756399005651500E-2, 
 -2.620582235977053600E-3, 
 2.346185967326164200E-3, 
 1.328388042747974400E-2, 
 9.350278414785862000E-4, 
 9.555933065712452000E-3, 
 -6.808071862906218000E-3, 
 8.155133109539747000E-4, 
 -1.225811196491122200E-3, 
 -5.838814191520214000E-3, 
 -1.281658071093261200E-3, 
 -5.222584586590528500E-3, 
 1.945864278241060700E-5, 
 1.516654621809721000E-2, 
 4.402916412800550500E-3, 
 -6.445606122724712000E-4, 
 1.900620944797992700E-2, 
 4.929288756102323500E-3, 
 1.973729208111763000E-2, 
 -1.046018395572900800E-2, 
 -6.091656628996134000E-3, 
 -9.467124938964844000E-3, 
 -5.611621309071779000E-3, 
 1.473770197480917000E-2, 
 -6.771450862288475000E-3, 
 -2.918357728049159000E-3, 
 -4.111934453248978000E-3, 
 -5.973343271762133000E-3, 
 6.603734218515456000E-4, 
 6.397511344403028500E-3, 
 -4.638342186808586000E-3, 
 -2.035735640674829500E-3, 
 8.290456607937813000E-3, 
 -1.538816932588815700E-2, 
 1.049635373055934900E-2, 
 3.585361316800117500E-2, 
 -7.650773040950298000E-4, 
 7.356757763773203000E-3, 
 -7.299775723367929500E-3, 
 7.053727749735117000E-3, 
 8.948196657001972000E-3, 
 2.538712578825652600E-4, 
 6.503317970782518000E-3, 
 7.224439643323421500E-3, 
 -2.451131818816066000E-3, 
 -1.181565690785646400E-2, 
 3.286535292863846000E-2, 
 4.142538644373417000E-3, 
 4.167173057794571000E-3, 
 -3.145046066492796000E-3, 
 -9.561981074512005000E-3, 
 -2.787907840684056300E-3, 
 -8.045134134590626000E-3, 
 -1.304373424500227000E-2, 
 -2.104456163942814000E-2, 
 2.971767215058207500E-3, 
 7.843775674700737000E-3, 
 -2.015759237110614800E-2, 
 -1.048381906002760000E-2, 
 -8.576464839279652000E-3, 
 3.209014888852834700E-3, 
 8.922461420297623000E-3, 
 9.921996854245663000E-3, 
 -9.337583556771278000E-3, 
 -4.345731809735298000E-3, 
 -4.599208477884531000E-3, 
 -1.272417418658733400E-2, 
 6.816152017563581500E-3, 
 1.351813040673732800E-2, 
 -1.670851372182369200E-2, 
 4.655387252569199000E-3, 
 -1.265700068324804300E-2, 
 -1.512472890317440000E-2, 
 -2.778403228148818000E-3, 
 6.033534184098244000E-3, 
 2.663376508280635000E-4, 
 -1.797757111489772800E-2, 
 -7.904065772891045000E-3, 
 1.969798468053341000E-2, 
 1.542778126895427700E-2, 
 4.529085010290146000E-3, 
 7.314647082239389000E-3, 
 1.710549741983413700E-2, 
 -1.936947577632963700E-3, 
 -9.491517208516598000E-3, 
 1.419322798028588300E-3, 
 2.837278135120868700E-2, 
 8.173366077244282000E-3, 
 3.927303012460470000E-3, 
 8.710685186088085000E-3, 
 1.044787093997001600E-2, 
 2.316130883991718300E-2, 
 -5.875033326447010000E-3, 
 -1.566368155181408000E-2, 
 3.188245464116335000E-3, 
 4.955946467816830000E-3, 
 -7.206313312053680000E-3, 
 1.696888823062181500E-3, 
 -3.734269557753578000E-5, 
 -8.690752089023590000E-3, 
 -8.576699532568455000E-3, 
 -1.034279260784387600E-2, 
 6.301989778876305000E-3, 
 -1.802341826260090000E-2, 
 1.370238326489925400E-2, 
 1.883325539529323600E-2, 
 6.761089432984590500E-3, 
 7.646894548088312000E-3, 
 -1.312797609716653800E-2, 
 1.466708071529865300E-2, 
 -2.148903440684080000E-3, 
 -7.224968634545803000E-3, 
 -1.236369740217924100E-2, 
 5.316911265254021000E-3, 
 -8.150154724717140000E-3, 
 2.020691148936748500E-2, 
 1.142258173786103700E-3, 
 -6.234552245587110500E-3, 
 -1.038647163659334200E-2, 
 5.921640433371067000E-3, 
 -7.931655272841454000E-3, 
 -1.157102640718221700E-2, 
 -3.004704369232058500E-3, 
 2.580496668815612800E-2, 
 2.031475887633860000E-4, 
 4.954001400619745000E-3, 
 2.548189833760261500E-2, 
 -4.362441133707762000E-3, 
 -9.247992187738419000E-3, 
 1.502773724496364600E-2, 
 2.271914295852184300E-2, 
 -7.432328071445227000E-3, 
 2.926901448518038000E-3, 
 9.383757133036852000E-4, 
 5.081396549940109000E-3, 
 1.266534626483917200E-2, 
 -8.371839649043977000E-4, 
 -6.371340248733759000E-3, 
 -1.140050217509269700E-2, 
 1.265073195099830600E-3, 
 -2.479597227647900600E-3, 
 -3.108896780759096000E-3, 
 -6.874610669910908000E-3, 
 6.765600992366672000E-4, 
 6.062975153326988000E-3, 
 1.860903576016426000E-2, 
 3.360064933076501000E-3, 
 1.468664500862360000E-2, 
 8.117423392832280000E-3, 
 1.507612969726324000E-2, 
 -9.026869200170040000E-3, 
 -4.300343338400125500E-3, 
 -7.819554302841425000E-4, 
 -6.654750090092421000E-3, 
 4.499861504882574000E-3, 
 -6.391391623765230000E-3, 
 -1.712998561561107600E-2, 
 9.324661456048489000E-3, 
 -3.307198639959097000E-3, 
 -6.643962115049362000E-3, 
 2.003101631999015800E-2, 
 1.185492705553770000E-2, 
 2.855404512956738500E-3, 
 -1.418089121580123900E-2, 
 -1.189854554831981700E-2, 
 6.015222985297441500E-3, 
 3.226425033062696500E-4, 
 5.532089155167341000E-3, 
 -1.565512269735336300E-2, 
 -7.937473128549755000E-4, 
 -5.520336795598268500E-3, 
 2.767878817394376000E-3, 
 1.067032478749752000E-2, 
 -2.139147836714983000E-3, 
 6.399493198841810000E-3, 
 6.364889908581972000E-3, 
 -4.574508871883154000E-3, 
 2.378747798502445200E-2, 
 -2.571786055341363000E-3, 
 1.963437534868717000E-3, 
 6.670594215393066000E-3, 
 -1.191681250929832500E-2, 
 7.669040467590094000E-3, 
 1.633067731745541000E-3, 
 -7.451568264514208000E-3, 
 2.927595051005482700E-3, 
 6.507921032607555000E-3, 
 -5.146880634129047000E-3, 
 7.881183177232742000E-3, 
 -1.264990679919719700E-2, 
 -2.573685720562935000E-2, 
 3.138180822134018000E-3, 
 1.599632087163627100E-4, 
 7.706249598413706000E-3, 
 1.158834062516689300E-2, 
 -1.178508624434471100E-2, 
 -6.010066717863083000E-3, 
 -9.840412996709347000E-3, 
 1.642349176108837000E-2, 
 2.724692225456238000E-3, 
 -1.832447573542595000E-2, 
 2.561695687472820300E-2, 
 1.322497264482081000E-3, 
 1.010946556925773600E-2, 
 4.961982835084200000E-3, 
 3.483847249299288000E-3, 
 6.689135450869799000E-3, 
 -1.768970279954373800E-3, 
 6.369082257151604000E-3, 
 -3.545254003256559400E-3, 
 -1.098873442970216300E-3, 
 1.786798425018787400E-2, 
 1.137543749064207000E-2, 
 6.549856159836054000E-3, 
 -3.957887645810842500E-3, 
 3.607964515686035000E-2, 
 9.292008355259895000E-3, 
 3.381608286872506000E-3, 
 -1.334761735051870300E-2, 
 1.561660412698984100E-2, 
 -3.161598928272724000E-3, 
 -1.535300165414810200E-3, 
 -1.888314262032509000E-2, 
 -5.483843386173248000E-3, 
 1.631530001759529100E-3, 
 4.250663798302412000E-3, 
 2.862463006749749000E-3, 
 -1.079447194933891300E-2, 
 -6.954492069780827000E-3, 
 -7.060832343995571000E-3, 
 1.759441755712032300E-2, 
 1.240217941813171000E-3, 
 -1.195708196610212300E-2, 
 -1.362810842692852000E-3, 
 9.421855211257935000E-4, 
 1.372268050909042400E-2, 
 8.971896022558212000E-3, 
 -1.697704382240772200E-2, 
 -1.177213992923498200E-2, 
 -7.042218931019306000E-3, 
 -1.826471649110317200E-2, 
 -9.560606558807194000E-4, 
 -5.042658187448978000E-3, 
 1.931129395961761500E-2, 
 1.128021255135536200E-2, 
 -2.983819227665662800E-3, 
 1.274926774203777300E-2, 
 -6.318685133010149000E-3, 
 -6.698483601212501500E-3, 
 -1.477494370192289400E-2, 
 8.322339504957199000E-3, 
 5.523142404854298000E-3, 
 -2.105599502101540600E-3, 
 5.216720048338175000E-3, 
 -2.367798006162047400E-3, 
 1.516202278435230300E-2, 
 -1.521174912340939000E-3, 
 2.053285483270883600E-3, 
 1.965152565389871600E-3, 
 8.343302644789219000E-3, 
 -1.124876271933317200E-2, 
 -2.292110025882721000E-2, 
 9.763363748788834000E-3, 
 2.657396253198385200E-3, 
 -2.881012391299009300E-3, 
 9.534284472465515000E-3, 
 -4.228834528476000000E-3, 
 1.692669698968529700E-3, 
 2.602421445772052000E-3, 
 1.852998323738575000E-2, 
 -1.166658103466034000E-2, 
 -4.789922095369547600E-4, 
 1.055651437491178500E-2, 
 1.597975264303386200E-3, 
 -2.697943244129419300E-3, 
 -2.080122474581003000E-3, 
 1.530996523797512000E-3, 
 1.161551568657159800E-2, 
 -3.671938087791204500E-3, 
 4.047105088829994000E-3, 
 7.914891466498375000E-3, 
 -2.813062164932489400E-3, 
 2.070209383964538600E-2, 
 -6.593629252165556000E-3, 
 -8.203834295272827000E-4, 
 1.024858560413122200E-2, 
 3.149186086375266300E-4, 
 -3.191189467906952000E-2, 
 -1.571424491703510300E-2, 
 -7.419679779559374000E-3, 
 1.878535933792591000E-2, 
 2.897828072309494000E-2, 
 -4.964791005477309000E-4, 
 -7.379533490166068000E-4, 
 -4.482901655137539000E-3, 
 -1.610412076115608200E-2, 
 -1.454216055572033000E-2, 
 3.452899865806102800E-3, 
 -6.753382273018360000E-3, 
 2.009436720982194000E-3, 
 -3.494069445878267300E-3, 
 3.916451241821051000E-3, 
 1.646144129335880300E-2, 
 8.861890062689781000E-3, 
 -6.239287089556456000E-3, 
 1.015801914036274000E-2, 
 -2.066124789416790000E-2, 
 -4.860022570937872000E-3, 
 -4.668206092901528000E-4, 
 3.706343122757971300E-4, 
 -2.636809600517153700E-3, 
 -1.670072600245475800E-2, 
 6.150272674858570000E-4, 
 -1.015041582286357900E-2, 
 -2.194420620799064600E-2, 
 4.527566488832235000E-3, 
 -9.186968207359314000E-3, 
 1.229469664394855500E-2, 
 -3.895738627761602400E-3, 
 3.139580599963665000E-3, 
 -1.202150015160441400E-3, 
 4.449230618774891000E-3, 
 7.756098639219999000E-3, 
 -1.872968301177025000E-2, 
 8.486513979732990000E-3, 
 -6.001252215355635000E-3, 
 -6.445468403398991000E-3, 
 7.331874687224626500E-3, 
 4.345534369349480000E-3, 
 5.500980187207460000E-3, 
 9.523727931082249000E-3, 
 -2.220939286053180700E-2, 
 1.312174275517463700E-2, 
 -8.874802733771503000E-5, 
 3.850841894745826700E-3, 
 -6.836068350821733500E-3, 
 -5.322851706296205500E-3, 
 1.644974015653133400E-2, 
 -1.901615969836712000E-2, 
 -1.598913571797311300E-3, 
 -5.090649705380201000E-3, 
 1.259514223784208300E-2, 
 2.793668303638696700E-3, 
 -3.047231119126081500E-3, 
 -1.622954499907791600E-3, 
 3.826334141194820400E-3, 
 -3.581218887120485300E-3, 
 1.254779868759214900E-3, 
 -2.054545842111110700E-2, 
 4.428687505424023000E-3, 
 -1.318278536200523400E-2, 
 2.118761464953422500E-2, 
 1.477536046877503400E-3, 
 -1.031594350934028600E-2, 
 -1.200313679873943300E-2, 
 -2.769320504739880600E-3, 
 -1.140252035111188900E-2, 
 -2.932247472926974300E-3, 
 -2.751365769654512400E-3, 
 -9.097651578485966000E-3, 
 -1.160580385476350800E-2, 
 9.323589503765106000E-3, 
 -6.836825632490218000E-4, 
 -2.474942617118358600E-2, 
 -4.265224561095238000E-3, 
 5.465573165565729000E-3, 
 8.708266541361809000E-3, 
 -7.825919426977634000E-3, 
 1.200937572866678200E-2, 
 9.941376745700836000E-3, 
 -5.591707769781351000E-3, 
 -9.862920269370079000E-3, 
 8.387506240978837000E-4, 
 3.140060929581523000E-3, 
 1.088950037956237800E-2, 
 -1.949915662407875000E-2, 
 1.543194334954023400E-2, 
 1.894124597311020000E-2, 
 -4.311729222536087000E-3, 
 9.858171455562115000E-3, 
 -4.567104857414961000E-3, 
 -1.011981163173914000E-2, 
 7.535891141742468000E-3, 
 3.826704341918230000E-4, 
 -4.029614850878715500E-3, 
 1.127995178103447000E-2, 
 -1.064346265047788600E-2, 
 9.026058833114803000E-4, 
 1.298185996711254100E-2, 
 4.890438169240951500E-3, 
 -4.739514552056789000E-3, 
 -6.844346877187490500E-3, 
 -2.784202573820948600E-3, 
 -4.811261314898729000E-3, 
 1.907006022520363300E-3, 
 -3.939994145184755000E-3, 
 -6.683608982712030000E-3, 
 1.241468358784914000E-2, 
 -9.003101848065853000E-3, 
 5.307338200509548000E-3, 
 3.102566581219434700E-3, 
 1.180646289139986000E-2, 
 1.219649147242307700E-2, 
 -9.299602359533310000E-3, 
 -8.039997890591621000E-3, 
 -1.641393825411796600E-2, 
 -3.367731405887753000E-4, 
 1.038815733045339600E-2, 
 -1.071181893348693800E-2, 
 7.741941139101982000E-3, 
 -5.487084854394197000E-4, 
 -1.193144265562296000E-2, 
 2.318205870687961600E-2, 
 -5.201561842113733000E-3, 
 2.121520042419433600E-2, 
 1.525956671684980400E-2, 
 -1.557377818971872300E-2, 
 -1.732607930898666400E-2, 
 1.274210866540670400E-2, 
 -2.979337237775325800E-3, 
 -8.761753328144550000E-3, 
 8.195652626454830000E-3, 
 1.694159116595983500E-3, 
 1.646676473319530500E-2, 
 -8.750539273023605000E-3, 
 -7.864790968596935000E-4, 
 7.753461133688688000E-3, 
 6.440808530896902000E-3, 
 1.084293238818645500E-2, 
 2.593125775456428500E-2, 
 1.510622072964906700E-2, 
 6.313381716609001000E-3, 
 4.446539562195539500E-3, 
 1.787094213068485300E-2, 
 -3.940753813367337000E-4, 
 -6.904170382767916000E-3, 
 -2.306103007867932300E-3, 
 8.092922507785260000E-5, 
 7.814058102667332000E-3, 
 3.306409344077110300E-3, 
 9.017513366416097000E-4, 
 -2.357821445912122700E-3, 
 5.529153626412153000E-3, 
 -1.799478544853627700E-3, 
 4.981900565326214000E-3, 
 -8.078648708760738000E-3, 
 9.000311605632305000E-3, 
 -2.270591259002685500E-2, 
 1.505620405077934300E-2, 
 -3.686935408040881000E-3, 
 1.056606043130159400E-2, 
 -1.036951318383216900E-3, 
 1.273294165730476400E-2, 
 5.748978583142161000E-4, 
 -7.835865952074528000E-3, 
 2.493255306035280200E-3, 
 4.269354511052370000E-3, 
 1.376986317336559300E-2, 
 -1.521778479218483000E-2, 
 -2.089179120957851400E-2, 
 3.062136704102158500E-3, 
 -7.248736917972565000E-3, 
 -5.903762765228748000E-3, 
 -4.597314400598407000E-4, 
 -2.988873980939388300E-3, 
 -2.275995910167694000E-3, 
 1.004970166832208600E-2, 
 -7.304251194000244000E-3, 
 1.697211712598800700E-2, 
 3.692129685077816000E-4, 
 6.718827411532402000E-3, 
 1.338338572531938600E-2, 
 9.893237147480250000E-4, 
 -1.878053694963455200E-2, 
 -7.575528230518103000E-3, 
 5.126058124005794500E-3, 
 1.419867039658129200E-4, 
 5.640473216772079500E-3, 
 9.609970264136791000E-3, 
 -4.379177931696176500E-3, 
 -8.586662821471691000E-3, 
 4.248321522027254000E-3, 
 1.109838765114545800E-2, 
 -2.096290001645684200E-3, 
 -5.897834431380033500E-3, 
 -7.599649019539356000E-3, 
 4.982600919902325000E-3, 
 4.180894233286381000E-3, 
 -2.389810048043728000E-3, 
 -1.549661438912153200E-2, 
 1.270481618121266400E-3, 
 -6.576682440936565000E-3, 
 8.237850852310658000E-3, 
 -2.222052216529846200E-2, 
 -1.290589012205600700E-2, 
 1.802356354892254000E-2, 
 -1.706616021692753000E-2, 
 -4.392672271933406600E-4, 
 4.546432755887508000E-3, 
 2.535858424380421600E-3, 
 1.587348431348800700E-2, 
 6.193256122060120000E-4, 
 2.138436585664749000E-2, 
 -4.084111656993627500E-3, 
 -4.756099544465542000E-3, 
 -1.009806524962186800E-2, 
 -6.293289829045534000E-3, 
 -1.274707913398742700E-2, 
 5.567785818129778000E-3, 
 -2.956974494736641600E-4, 
 3.713160287588834800E-3, 
 1.025271229445934300E-2, 
 1.317221671342849700E-2, 
 -7.534682285040617000E-3, 
 -7.503189612179995000E-3, 
 4.096990916877985000E-3, 
 -4.661770071834326000E-3, 
 4.121242091059685000E-3, 
 4.687714856117964000E-3, 
 5.179597530514002000E-3, 
 8.061219938099384000E-3, 
 -1.711309887468814800E-3, 
 4.631164483726025000E-3, 
 -1.272503472864627800E-2, 
 -3.006534650921821600E-3, 
 -2.885353052988648400E-3, 
 3.436012426391244000E-3, 
 -1.262319087982177700E-2, 
 -4.253595136106014000E-3, 
 6.674309726804495000E-3, 
 -7.463840302079916000E-4, 
 4.582540132105350500E-3, 
 6.951251998543739000E-3, 
 9.772278368473053000E-3, 
 1.441835984587669400E-2, 
 -4.468537008506246000E-5, 
 -5.476385820657015000E-3, 
 1.812278106808662400E-2, 
 1.081766933202743500E-2, 
 -3.729519434273243000E-3, 
 -6.675520911812782000E-3, 
 -8.241719566285610000E-3, 
 9.408081881701946000E-3, 
 -9.574430063366890000E-3, 
 5.219337530434132000E-3, 
 -5.724421935155988000E-4, 
 -5.429861135780811000E-3, 
 -1.176846213638782500E-2, 
 6.325645372271538000E-4, 
 -1.373598468489945000E-3, 
 1.152466330677270900E-2, 
 5.262878257781267000E-4, 
 -1.471381075680255900E-2, 
 -2.789307152852416000E-3, 
 -8.622210472822190000E-3, 
 7.921225391328335000E-3, 
 -1.570725440979004000E-2, 
 7.072935346513987000E-3, 
 2.078946679830551000E-2, 
 8.492497727274895000E-3, 
 1.378263998776674300E-2, 
 5.517177283763885500E-3, 
 1.504686428233981100E-3, 
 2.355255273869261100E-4, 
 3.179915947839617700E-3, 
 3.315168898552656000E-3, 
 -6.734662223607302000E-3, 
 -2.019349951297044800E-3, 
 -1.759393699467182000E-2, 
 9.588728658854961000E-3, 
 1.141015253961086300E-2, 
 1.090437080711126300E-2, 
 5.017851013690233000E-3, 
 1.651770621538162200E-2, 
 3.666112432256341000E-3, 
 7.982564158737660000E-3, 
 1.206652633845806100E-2, 
 -2.374400943517685000E-2, 
 -5.127415992319584000E-3, 
 -1.332634035497903800E-2, 
 2.123736031353473700E-2, 
 6.223530974239111000E-3, 
 -1.109903212636709200E-2, 
 -3.223013598471880000E-3, 
 9.350204840302467000E-3, 
 -1.222283486276865000E-2, 
 8.956127567216754000E-5, 
 7.563245017081499000E-3, 
 7.154432591050863000E-3, 
 -1.076205540448427200E-2, 
 -2.433155477046966600E-2, 
 1.129257399588823300E-2, 
 3.118439950048923500E-2, 
 -9.124684147536755000E-3, 
 2.586481161415577000E-3, 
 3.804236883297562600E-3, 
 1.096273865550756500E-2, 
 4.096053307875991000E-4, 
 3.233239520341158000E-3, 
 6.925838068127632000E-3, 
 -7.655279710888863000E-3, 
 -3.802016377449035600E-3, 
 -1.266896259039640400E-2, 
 -2.174182049930095700E-2, 
 9.272939525544643000E-3, 
 1.504434179514646500E-2, 
 2.362793544307351000E-3, 
 4.227260127663612000E-3, 
 -1.902034389786422300E-3, 
 6.063174805603921000E-4, 
 -5.040824762545526000E-4, 
 -4.320634994655847500E-3, 
 -3.464321605861187000E-3, 
 -1.193565037101507200E-2, 
 -1.271900441497564300E-2, 
 -4.304137546569109000E-3, 
 -1.081123016774654400E-2, 
 2.809244766831398000E-2, 
 1.268118649022653700E-4, 
 1.392099075019359600E-3, 
 -1.143803168088197700E-2, 
 -6.606265436857939000E-3, 
 -1.376534532755613300E-2, 
 -1.527155004441738100E-2, 
 7.284421473741531000E-3, 
 5.858549382537603000E-3, 
 -9.936358779668808000E-3, 
 5.819465965032577500E-3, 
 -4.619374871253967000E-3, 
 8.936514495871961000E-4, 
 -4.874144215136766400E-3, 
 1.378508564084768300E-2, 
 4.076750949025154000E-3, 
 6.278595887124538000E-3, 
 -9.458270506002009000E-4, 
 -2.545319497585296600E-3, 
 -6.211041472852230000E-3, 
 -5.075329914689064000E-3, 
 -1.156290713697671900E-2, 
 5.683199036866426500E-3, 
 3.767431480810046000E-3, 
 -6.790313404053450000E-3, 
 8.946527726948261000E-3, 
 -1.462018699385225800E-3, 
 -3.055541310459375400E-3, 
 1.294908300042152400E-2, 
 2.084048930555582000E-3, 
 1.019941363483667400E-2, 
 -9.265484288334846000E-3, 
 -1.136368233710527400E-2, 
 5.377544555813074000E-3, 
 5.728628486394882000E-3, 
 5.160913337022066000E-3, 
 -6.002377253025770000E-3, 
 -1.976871676743030500E-2, 
 1.080494746565818800E-2, 
 -3.039459697902202600E-3, 
 -7.207253947854042000E-3, 
 8.695543743669987000E-3, 
 6.310325581580400500E-3, 
 -1.585356704890728000E-2, 
 1.532327570021152500E-2, 
 -1.247329171746969200E-2, 
 1.158164907246828000E-2, 
 6.319109350442886000E-3, 
 9.032172150909900000E-3, 
 -2.474516164511442000E-3, 
 2.020083926618099200E-2, 
 -3.655765671283006700E-3, 
 4.645374603569508000E-3, 
 4.158866126090288000E-3, 
 2.607954293489456200E-2, 
 -3.153301309794187500E-3, 
 -1.679398585110902800E-3, 
 -1.775677519617602200E-4, 
 -6.222502794116735500E-3, 
 2.500495174899697300E-3, 
 -1.487872656434774400E-2, 
 5.675439606420696000E-4, 
 6.022474262863398000E-3, 
 -2.022828208282590000E-3, 
 4.855804145336151000E-3, 
 7.207626011222601000E-3, 
 8.767328225076199000E-3, 
 -1.158990710973739600E-2, 
 -7.851171307265759000E-3, 
 1.221338752657175000E-2, 
 9.073730325326324000E-4, 
 1.566399470902979400E-3, 
 -1.205009128898382200E-2, 
 1.255091046914458300E-3, 
 -1.808480359613895400E-2, 
 1.254773605614900600E-2, 
 1.999427378177642800E-2, 
 -4.943569656461477000E-3, 
 4.284961614757776000E-3, 
 -1.420045364648103700E-2, 
 1.030609291046857800E-2, 
 7.038770243525505000E-3, 
 -9.493786637904122000E-5, 
 2.355366386473179000E-2, 
 1.127147115767002100E-4, 
 -1.777402940206229700E-3, 
 -1.242533046752214400E-2, 
 1.164754014462232600E-2, 
 -9.257080964744091000E-4, 
 -7.635024958290160000E-4, 
 2.590465126559138300E-3, 
 8.864796720445156000E-3, 
 2.090050838887691500E-3, 
 -9.110822575166821000E-4, 
 -1.554014347493648500E-2, 
 -3.777313511818647400E-3, 
 -1.559101743623614300E-3, 
 -2.886973088607192000E-3, 
 1.682738191448152000E-3, 
 1.285898615606129200E-3, 
 6.058956962078810000E-3, 
 8.769079111516476000E-3, 
 1.146097667515277900E-2, 
 -9.233050979673862000E-3, 
 9.167567826807499000E-3, 
 -4.829800222069025000E-3, 
 9.452522732317448000E-3, 
 2.660231431946158400E-3, 
 3.480213461443782000E-3, 
 1.028172671794891400E-2, 
 1.288824528455734300E-2, 
 3.471190284471959000E-4, 
 3.909994382411241500E-3, 
 1.446223817765712700E-2, 
 -1.676559448242187500E-2, 
 2.548206783831119500E-2, 
 -1.375836320221424100E-2, 
 1.272135786712169600E-2, 
 -4.526894539594650000E-3, 
 -5.426210351288319000E-3, 
 3.370912373065948500E-2, 
 -3.200963838025927500E-3, 
 -1.532774884253740300E-3, 
 4.886120557785034000E-3, 
 3.266494488343596500E-3, 
 -1.839704462327063000E-3, 
 -7.109641097486019000E-3, 
 -1.150558330118656200E-2, 
 -4.869425203651190000E-3, 
 -3.024326637387275700E-3, 
 6.379227619618177000E-3, 
 -5.895251408219337500E-3, 
 4.789815749973059000E-3, 
 -1.364774722605943700E-2, 
 -7.115140557289123500E-3, 
 4.806617798749357500E-4, 
 -1.022762735374271900E-3, 
 5.960214417427778000E-3, 
 4.543169401586056000E-3, 
 -1.308862585574388500E-2, 
 -1.052495837211608900E-2, 
 -7.094809785485268000E-3, 
 -1.522725354880094500E-2, 
 8.289743214845657000E-3, 
 -9.198701009154320000E-3, 
 -1.163671258836984600E-2, 
 -9.378137066960335000E-3, 
 8.624659385532141000E-4, 
 2.396556083112955000E-3, 
 1.015692763030529000E-2, 
 -4.667894449084997000E-3, 
 -1.276540476828813600E-2, 
 1.386218238621950100E-2, 
 -1.450518728233873800E-3, 
 -3.852206841111183000E-2, 
 -1.684349961578846000E-2, 
 4.884587135165930000E-3, 
 2.173873968422413000E-2, 
 9.407255798578262000E-3, 
 9.309579618275166000E-3, 
 2.629906404763460000E-3, 
 5.022694822400808000E-4, 
 -1.717742346227169000E-2, 
 6.544464267790318000E-4, 
 7.885639555752277000E-3, 
 9.096363559365273000E-3, 
 1.155365630984306300E-2, 
 -3.688572614919394000E-4, 
 2.212161052739247700E-4, 
 -1.339803542941808700E-2, 
 1.032226253300905200E-3, 
 2.383997896686196300E-3, 
 7.466833572834730000E-3, 
 1.266768667846918100E-2, 
 2.455514186294749400E-5, 
 1.330181257799267800E-3, 
 -1.540252100676298100E-2, 
 -7.379342801868915600E-3, 
 -1.979664526879787400E-2, 
 7.068709470331669000E-3, 
 -4.811970982700586000E-3, 
 -3.501280909404158600E-3, 
 4.115870688110590000E-3, 
 -2.497626701369881600E-3, 
 4.916680511087179000E-3, 
 5.066384095698595000E-3, 
 -6.374112330377102000E-3, 
 -1.845947699621319800E-3, 
 6.832179613411426500E-3, 
 9.506808710284531000E-4, 
 5.727147683501244000E-3, 
 -1.662869472056627300E-3, 
 -1.272377837449312200E-2, 
 -9.730790741741657000E-3, 
 1.556634553708136000E-3, 
 -7.335380651056767000E-4, 
 -3.962379123549908400E-4, 
 -1.035108417272567700E-2, 
 1.645555370487272700E-3, 
 -2.388922125101089500E-2, 
 1.303288619965314900E-3, 
 4.865857772529125000E-3, 
 -5.656240507960319500E-3, 
 -6.244621705263853000E-3, 
 -2.505007199943065600E-3, 
 6.573711056262255000E-3, 
 -1.075298059731721900E-2, 
 -4.913029260933399000E-3, 
 9.312435984611511000E-3, 
 -1.449400465935468700E-2, 
 -1.886760874185711100E-4, 
 -2.176165394484996800E-2, 
 2.190348505973816000E-2, 
 1.029249001294374500E-2, 
 -1.745106128510087700E-4, 
 2.621725201606750500E-3, 
 -1.135855633765459000E-2, 
 1.159467548131942700E-2, 
 -1.108345575630664800E-2, 
 -1.982385292649269000E-3, 
 1.634854939766228200E-3, 
 6.742928177118301000E-3, 
 1.929073827341199000E-3, 
 5.887360312044620000E-4, 
 1.844534277915954600E-2, 
 1.899425312876701400E-2, 
 -8.952466771006584000E-3, 
 -8.690743707120419000E-3, 
 -2.438551932573318500E-2, 
 5.608129780739546000E-3, 
 2.518889494240284000E-2, 
 5.549279158003628000E-4, 
 5.764148198068142000E-3, 
 7.959682494401932000E-3, 
 -1.416798960417509000E-2, 
 -8.703081868588924000E-3, 
 -2.577190985903144000E-3, 
 -2.342713996767997700E-3, 
 1.628866302780807000E-3, 
 1.460848283022642100E-2, 
 -1.129888277500867800E-2, 
 3.938175737857819000E-3, 
 3.950606565922499000E-3, 
 4.879559855908155400E-3, 
 -6.380616221576929000E-3, 
 1.672952808439731600E-2, 
 -2.489911951124668000E-2, 
 7.641877746209502000E-4, 
 -1.165425404906272900E-2, 
 -6.432557944208383600E-3, 
 4.094298463314772000E-3, 
 -7.576314266771078000E-3, 
 1.846347353421151600E-3, 
 -8.884212002158165000E-3, 
 3.964922390878200500E-3, 
 -1.697048894129693500E-3, 
 -6.973387673497200000E-3, 
 5.081669893115759000E-3, 
 2.982615027576685000E-3, 
 1.223256438970565800E-2, 
 -8.521404117345810000E-3, 
 -3.928992431610823000E-3, 
 -8.037139195948839000E-4, 
 -5.098121240735054000E-3, 
 8.070382289588451000E-3, 
 2.498930552974343300E-3, 
 -1.473540440201759300E-2, 
 -2.780360542237758600E-2, 
 1.633481681346893300E-2, 
 6.180262658745050000E-3, 
 -2.069683047011494600E-3, 
 -1.040373579598963300E-3, 
 1.714647561311721800E-2, 
 4.757409042213112000E-4, 
 -1.653012470342218900E-3, 
 -1.312172226607799500E-2, 
 4.063154105097055400E-3, 
 -7.976732216775417000E-3, 
 1.300368085503578200E-2, 
 -8.919599466025830000E-3, 
 -1.893436186946928500E-3, 
 9.374311193823814000E-4, 
 6.421643309295177500E-3, 
 1.846863306127488600E-4, 
 2.600073115900159000E-3, 
 -4.862817004323006000E-3, 
 3.181046573445201000E-3, 
 -3.597153350710869000E-3, 
 2.595157735049724600E-2, 
 4.162188852205872500E-4, 
 2.337768860161304500E-2, 
 -5.552637856453657000E-3, 
 1.366292033344507200E-2, 
 -2.352751418948173500E-2, 
 2.902817679569125000E-3, 
 7.071381434798241000E-3, 
 -1.285355817526578900E-2, 
 -1.030649710446596100E-2, 
 2.783059375360608000E-3, 
 -1.754519529640674600E-2, 
 5.130419740453362000E-4, 
 -7.463765330612659500E-3, 
 -3.775204997509718000E-3, 
 8.648922666907310000E-3, 
 1.715327426791191000E-2, 
 7.279190700501203500E-3, 
 1.123489998281002000E-2, 
 2.462445758283138300E-3, 
 -1.104620005935430500E-2, 
 -2.591303922235965700E-2, 
 -9.012696333229542000E-3, 
 -2.593569643795490300E-2, 
 -1.485201623290777200E-2, 
 6.211332511156797000E-3, 
 -3.535714466124773000E-3, 
 5.529803456738591000E-4, 
 8.258358575403690000E-3, 
 7.721454370766878000E-3, 
 1.120075769722461700E-2, 
 1.347499154508113900E-2, 
 8.625005371868610000E-3, 
 -6.348722963593900000E-4, 
 5.420835223048925000E-3, 
 1.917016133666038500E-2, 
 4.800207447260618000E-3, 
 -4.332080949097872000E-3, 
 1.043272577226162000E-2, 
 -1.732761040329933000E-2, 
 6.154429167509079000E-3, 
 -8.106629364192486000E-3, 
 -9.226359426975250000E-3, 
 -3.112553618848323800E-2, 
 6.148473825305700000E-3, 
 -2.269276592414826200E-4, 
 -2.320511703146621600E-4, 
 2.945660147815942800E-3, 
 -6.216917186975479000E-3, 
 1.038908376358449500E-3, 
 5.172153469175100000E-3, 
 5.031479056924581500E-3, 
 4.014850594103336000E-3, 
 9.042090736329556000E-3, 
 -8.698482415638864000E-4, 
 -1.545589417219162000E-2, 
 -9.418832138180733000E-3, 
 1.380679197609424600E-2, 
 8.480519987642765000E-3, 
 -1.388755999505519900E-2, 
 -1.126604527235031100E-2, 
 2.112413384020328500E-2, 
 -1.719334395602345500E-3, 
 8.027919102460146000E-4, 
 1.029805187135934800E-2, 
 6.595967803150415000E-3, 
 2.916002878919244000E-3, 
 -4.121055360883474000E-3, 
 7.691119797527790000E-3, 
 9.066448546946049000E-3, 
 -1.075492613017559000E-2, 
 -2.311971597373485600E-2, 
 -4.399715922772884000E-3, 
 9.908278472721577000E-3, 
 7.673940272070467000E-4, 
 -8.204962126910686000E-3, 
 1.099267043173313100E-3, 
 5.086679477244615600E-3, 
 -5.544219631701708000E-3, 
 -6.373657844960689500E-3, 
 -1.310292631387710600E-2, 
 1.339692808687687000E-2, 
 2.471669949591159800E-2, 
 4.924670327454805000E-3, 
 2.575781196355819700E-3, 
 -1.649975404143333400E-2, 
 -1.109133381396532000E-2, 
 -1.896992325782776000E-2, 
 -7.858578115701675000E-3, 
 -1.224130392074585000E-2, 
 1.134530268609523800E-2, 
 -3.508140100166201600E-3, 
 -1.113457605242729200E-2, 
 -9.467023424804210000E-3, 
 9.622106445021927000E-4, 
 6.936402060091495500E-3, 
 -2.212027553468942600E-3, 
 -1.789429341442883000E-3, 
 1.317843422293663000E-2, 
 -7.766026537865400000E-3, 
 -7.709171622991562000E-3, 
 4.711395595222711600E-4, 
 1.535007916390895800E-2, 
 -1.792261609807610500E-3, 
 -3.685461357235908500E-3, 
 -2.631318382918834700E-2, 
 8.113047108054161000E-3, 
 -2.968672779388726000E-4, 
 1.775650540366768800E-3, 
 -7.528834510594606000E-3, 
 1.265887985937297300E-3, 
 2.686779480427503600E-3, 
 -3.857847535982728000E-3, 
 -8.963406085968018000E-3, 
 -4.123591352254152000E-3, 
 -1.713474746793508500E-3, 
 -5.445001181215048000E-3, 
 7.430631201714277000E-3, 
 4.967430140823126000E-4, 
 2.931114053353667300E-3, 
 -1.467517227865755600E-3, 
 1.489832717925310100E-2, 
 1.369272591546177900E-3, 
 1.085158716887235600E-2, 
 2.575017279013991400E-3, 
 -6.695870310068130500E-3, 
 -8.106954395771027000E-3, 
 4.781956318765879000E-3, 
 1.532833464443683600E-2, 
 1.747692003846168500E-2, 
 9.824058040976524000E-3, 
 8.559062844142318000E-4, 
 1.666491618379950500E-3, 
 -1.060704700648784600E-2, 
 -7.732704747468233000E-3, 
 7.064741104841232000E-3, 
 -3.240917576476931600E-3, 
 8.450009045191109000E-4, 
 -2.244324190542102000E-3, 
 5.395118612796068000E-3, 
 5.101355724036694000E-3, 
 4.856192041188478500E-3, 
 4.209399688988924000E-3, 
 2.466820646077394500E-3, 
 1.460070628672838200E-2, 
 -3.793702227994799600E-3, 
 -5.874756723642349000E-3, 
 1.062673982232809000E-2, 
 -3.082792973145842600E-4, 
 1.945488713681698000E-2, 
 1.463487558066845000E-2, 
 -7.102073286660016000E-4, 
 8.634477853775024000E-3, 
 1.168692111968994100E-2, 
 1.145117636770010000E-2, 
 7.818561047315598000E-3, 
 -3.401357680559158300E-3, 
 3.063015174120664600E-4, 
 -7.326114457100630000E-3, 
 6.485020276159048000E-3, 
 4.210792016237974000E-3, 
 -9.954207576811314000E-3, 
 -1.598907052539289000E-3, 
 -8.171683177351952000E-3, 
 4.946349654346704500E-3, 
 -1.308531500399112700E-3, 
 -3.649354213848710000E-3, 
 1.030907221138477300E-2, 
 -2.442918019369244600E-3, 
 9.548857808113098000E-3, 
 -7.354827597737312000E-3, 
 -1.202685199677944200E-2, 
 -2.755339490249753000E-3, 
 -9.189628181047738000E-4, 
 2.879532426595688000E-2, 
 1.273148693144321400E-2, 
 -2.314162999391555800E-2, 
 -7.497480604797602000E-3, 
 -3.066892735660076000E-3, 
 -8.303914219141006000E-3, 
 -1.191234216094017000E-2, 
 4.850897530559450400E-4, 
 2.167349215596914300E-3, 
 -2.282513538375497000E-3, 
 6.635698373429477000E-4, 
 -7.509623188525438000E-3, 
 7.925305515527725000E-3, 
 4.400188568979502000E-3, 
 -1.159883104264736200E-3, 
 1.022612676024437000E-2, 
 -9.979575406759977000E-4, 
 -6.755077280104160000E-3, 
 1.064014527946710600E-2, 
 -1.202473044395446800E-2, 
 1.494302414357662200E-2, 
 2.598741091787815000E-3, 
 -1.152358832769096000E-3, 
 2.749021397903561600E-3, 
 1.929982937872409800E-2, 
 -1.551550347357988400E-2, 
 -8.160461671650410000E-3, 
 -5.432507023215294000E-3, 
 3.249790053814649600E-3, 
 -1.340286619961261700E-2, 
 -8.082055486738682000E-3, 
 9.741393849253654000E-3, 
 1.486408896744251300E-2, 
 -1.470625773072242700E-2, 
 9.427147917449474000E-3, 
 -9.590211324393750000E-3, 
 7.361188530921936000E-3, 
 5.110453348606825000E-4, 
 2.782889455556869500E-2, 
 1.208256557583808900E-2, 
 1.253158040344715100E-2, 
 -1.121464185416698500E-2, 
 5.114245694130659000E-3, 
 -1.010862179100513500E-2, 
 1.976762898266315500E-3, 
 7.045202888548374000E-3, 
 -1.172644551843404800E-2, 
 -5.087349098175764000E-3, 
 -9.926427155733109000E-3, 
 4.429243039339781000E-3, 
 2.239888301119208300E-3, 
 5.098497960716486000E-3, 
 1.018427032977342600E-2, 
 -1.527298055589199000E-2, 
 -2.173955785110593000E-3, 
 2.731270615186076600E-5, 
 -1.528215408325195300E-2, 
 -5.887302570044994000E-3, 
 1.009898260235786400E-3, 
 -1.543448306620121000E-2, 
 -4.078225232660770000E-3, 
 8.645611815154552000E-3, 
 -1.323721464723348600E-2, 
 1.667421497404575300E-2, 
 -1.457447465509176300E-2, 
 -6.089706439524889000E-3, 
 5.582300946116447400E-3, 
 -5.358268972486257600E-3, 
 4.542370152194053000E-4, 
 -1.605442166328430200E-2, 
 5.055702291429043000E-3, 
 -1.135799661278724700E-2, 
 -2.040269970893860000E-2, 
 3.430792130529880500E-3, 
 -1.692287391051650000E-3, 
 6.004227325320244000E-3, 
 -4.056502599269152000E-3, 
 -1.368818432092666600E-2, 
 -6.024144822731614000E-4, 
 2.080026548355818000E-3, 
 -8.612049743533134000E-3, 
 8.297300897538662000E-3, 
 2.981816651299596000E-3, 
 -6.521458271890879000E-3, 
 -1.170264929533004800E-2, 
 -2.096489537507295600E-3, 
 7.395063061267137500E-3, 
 -2.317117713391781000E-2, 
 1.303949742577970000E-3, 
 5.528818350285292000E-3, 
 -2.268092473968863500E-3, 
 -5.250247661024332000E-3, 
 -1.277723058592528000E-4, 
 -3.978519700467586500E-3, 
 -5.669599864631891000E-3, 
 1.983877271413803000E-2, 
 6.001829635351896000E-3, 
 -1.605118811130523700E-2, 
 -9.234936907887459000E-3, 
 -4.826982971280813000E-3, 
 -3.997617866843939000E-3, 
 1.521199708804488200E-3, 
 5.864922422915697000E-4, 
 2.131042629480362000E-2, 
 1.570068881846964400E-3, 
 -6.942396983504295000E-3, 
 1.709479466080665600E-2, 
 8.039653301239014000E-3, 
 -1.798113691620528700E-3, 
 6.710978690534830000E-3, 
 -3.179350169375539000E-4, 
 -1.093253307044506000E-2, 
 2.842617454007268000E-3, 
 1.006480492651462600E-2, 
 3.439499065279960600E-3, 
 4.037122242152691000E-3, 
 9.965369245037436000E-4, 
 1.423157984390854800E-3, 
 4.955821670591831000E-3, 
 -5.110554397106171000E-3, 
 -1.471437886357307400E-2, 
 -5.078640766441822000E-3, 
 -1.027899608016014100E-2, 
 -9.440148249268532000E-3, 
 -3.286690684035420400E-3, 
 6.226144265383482000E-3, 
 -2.253669546917081000E-3, 
 -7.657672744244337000E-3, 
 -1.230997126549482300E-2, 
 8.209821768105030000E-3, 
 -1.776005327701568600E-2, 
 -3.347716061398387000E-3, 
 1.660868711769581000E-2, 
 5.951575934886932000E-3, 
 2.996737137436866800E-3, 
 -5.933290813118219000E-3, 
 -1.426677801646292200E-3, 
 7.615347858518362000E-3, 
 6.974338088184595000E-3, 
 7.455258630216122000E-3, 
 1.521414332091808300E-2, 
